digraph Tree {
0 [label="jitter_absolute <= 0.0002\ngini = 0.49989678293\nsamples = 696", shape="box"] ;
1 [label="HTN <= 5.7440\ngini = 0.492818848159\nsamples = 509", shape="box"] ;
0 -> 1 ;
2 [label="mean_pitch <= 100.0240\ngini = 0.104938271605\nsamples = 54", shape="box"] ;
1 -> 2 ;
3 [label="gini = 0.0000\nsamples = 2\nvalue = [ 0.  2.]", shape="box"] ;
2 -> 3 ;
4 [label="deg_voice_breaks <= 53.9430\ngini = 0.0377218934911\nsamples = 52", shape="box"] ;
2 -> 4 ;
5 [label="gini = 0.0000\nsamples = 49\nvalue = [ 49.   0.]", shape="box"] ;
4 -> 5 ;
6 [label="NTH <= 0.4605\ngini = 0.444444444444\nsamples = 3", shape="box"] ;
4 -> 6 ;
7 [label="gini = 0.0000\nsamples = 1\nvalue = [ 0.  1.]", shape="box"] ;
6 -> 7 ;
8 [label="gini = 0.0000\nsamples = 2\nvalue = [ 2.  0.]", shape="box"] ;
6 -> 8 ;
9 [label="max_pitch <= 297.6060\ngini = 0.499591836735\nsamples = 455", shape="box"] ;
1 -> 9 ;
10 [label="median_pitch <= 188.1095\ngini = 0.498251242918\nsamples = 372", shape="box"] ;
9 -> 10 ;
11 [label="min_pitch <= 146.6350\ngini = 0.496289750172\nsamples = 267", shape="box"] ;
10 -> 11 ;
12 [label="fraction_locally_unvoiced_frames <= 4.2645\ngini = 0.49952453958\nsamples = 227", shape="box"] ;
11 -> 12 ;
13 [label="gini = 0.4063\nsamples = 67\nvalue = [ 19.  48.]", shape="box"] ;
12 -> 13 ;
14 [label="gini = 0.4905\nsamples = 160\nvalue = [ 91.  69.]", shape="box"] ;
12 -> 14 ;
15 [label="num_periods <= 306.0000\ngini = 0.21875\nsamples = 40", shape="box"] ;
11 -> 15 ;
16 [label="gini = 0.1454\nsamples = 38\nvalue = [ 35.   3.]", shape="box"] ;
15 -> 16 ;
17 [label="gini = 0.0000\nsamples = 2\nvalue = [ 0.  2.]", shape="box"] ;
15 -> 17 ;
18 [label="shimmer_local <= 9.4870\ngini = 0.408163265306\nsamples = 105", shape="box"] ;
10 -> 18 ;
19 [label="min_pitch <= 213.5740\ngini = 0.495464852608\nsamples = 42", shape="box"] ;
18 -> 19 ;
20 [label="gini = 0.4567\nsamples = 34\nvalue = [ 22.  12.]", shape="box"] ;
19 -> 20 ;
21 [label="gini = 0.2188\nsamples = 8\nvalue = [ 1.  7.]", shape="box"] ;
19 -> 21 ;
22 [label="num_pulses <= 40.5000\ngini = 0.197530864198\nsamples = 63", shape="box"] ;
18 -> 22 ;
23 [label="gini = 0.0000\nsamples = 1\nvalue = [ 1.  0.]", shape="box"] ;
22 -> 23 ;
24 [label="gini = 0.1748\nsamples = 62\nvalue = [  6.  56.]", shape="box"] ;
22 -> 24 ;
25 [label="shimmer_apq3 <= 5.0505\ngini = 0.411090143707\nsamples = 83", shape="box"] ;
9 -> 25 ;
26 [label="NTH <= 0.1736\ngini = 0.23298816568\nsamples = 52", shape="box"] ;
25 -> 26 ;
27 [label="gini = 0.0000\nsamples = 27\nvalue = [ 27.   0.]", shape="box"] ;
26 -> 27 ;
28 [label="NTH <= 0.1840\ngini = 0.4032\nsamples = 25", shape="box"] ;
26 -> 28 ;
29 [label="gini = 0.0000\nsamples = 2\nvalue = [ 0.  2.]", shape="box"] ;
28 -> 29 ;
30 [label="gini = 0.3403\nsamples = 23\nvalue = [ 18.   5.]", shape="box"] ;
28 -> 30 ;
31 [label="median_pitch <= 199.8110\ngini = 0.495317377732\nsamples = 31", shape="box"] ;
25 -> 31 ;
32 [label="AC <= 0.7862\ngini = 0.432132963989\nsamples = 19", shape="box"] ;
31 -> 32 ;
33 [label="gini = 0.4444\nsamples = 6\nvalue = [ 2.  4.]", shape="box"] ;
32 -> 33 ;
34 [label="gini = 0.2604\nsamples = 13\nvalue = [ 11.   2.]", shape="box"] ;
32 -> 34 ;
35 [label="num_pulses <= 96.5000\ngini = 0.152777777778\nsamples = 12", shape="box"] ;
31 -> 35 ;
36 [label="gini = 0.0000\nsamples = 1\nvalue = [ 1.  0.]", shape="box"] ;
35 -> 36 ;
37 [label="gini = 0.0000\nsamples = 11\nvalue = [  0.  11.]", shape="box"] ;
35 -> 37 ;
38 [label="deg_voice_breaks <= 23.5870\ngini = 0.42792187366\nsamples = 187", shape="box"] ;
0 -> 38 ;
39 [label="jitter_rap <= 4.3760\ngini = 0.371350556606\nsamples = 138", shape="box"] ;
38 -> 39 ;
40 [label="median_pitch <= 148.7345\ngini = 0.34751615059\nsamples = 134", shape="box"] ;
39 -> 40 ;
41 [label="num_periods <= 46.5000\ngini = 0.417606117047\nsamples = 101", shape="box"] ;
40 -> 41 ;
42 [label="standard_dev_period <= 0.0004\ngini = 0.265927977839\nsamples = 57", shape="box"] ;
41 -> 42 ;
43 [label="gini = 0.0000\nsamples = 2\nvalue = [ 2.  0.]", shape="box"] ;
42 -> 43 ;
44 [label="gini = 0.2221\nsamples = 55\nvalue = [  7.  48.]", shape="box"] ;
42 -> 44 ;
45 [label="min_pitch <= 102.7730\ngini = 0.498966942149\nsamples = 44", shape="box"] ;
41 -> 45 ;
46 [label="gini = 0.4234\nsamples = 23\nvalue = [ 16.   7.]", shape="box"] ;
45 -> 46 ;
47 [label="gini = 0.3628\nsamples = 21\nvalue = [  5.  16.]", shape="box"] ;
45 -> 47 ;
48 [label="gini = 0.0000\nsamples = 33\nvalue = [  0.  33.]", shape="box"] ;
40 -> 48 ;
49 [label="gini = 0.0000\nsamples = 4\nvalue = [ 4.  0.]", shape="box"] ;
39 -> 49 ;
50 [label="AC <= 0.7849\ngini = 0.499791753436\nsamples = 49", shape="box"] ;
38 -> 50 ;
51 [label="median_pitch <= 365.1380\ngini = 0.336734693878\nsamples = 28", shape="box"] ;
50 -> 51 ;
52 [label="jitter_rap <= 2.6225\ngini = 0.260355029586\nsamples = 26", shape="box"] ;
51 -> 52 ;
53 [label="gini = 0.0000\nsamples = 13\nvalue = [  0.  13.]", shape="box"] ;
52 -> 53 ;
54 [label="median_pitch <= 143.1910\ngini = 0.426035502959\nsamples = 13", shape="box"] ;
52 -> 54 ;
55 [label="gini = 0.3200\nsamples = 5\nvalue = [ 4.  1.]", shape="box"] ;
54 -> 55 ;
56 [label="gini = 0.0000\nsamples = 8\nvalue = [ 0.  8.]", shape="box"] ;
54 -> 56 ;
57 [label="gini = 0.0000\nsamples = 2\nvalue = [ 2.  0.]", shape="box"] ;
51 -> 57 ;
58 [label="shimmer_local <= 16.1660\ngini = 0.244897959184\nsamples = 21", shape="box"] ;
50 -> 58 ;
59 [label="gini = 0.0000\nsamples = 18\nvalue = [ 18.   0.]", shape="box"] ;
58 -> 59 ;
60 [label="gini = 0.0000\nsamples = 3\nvalue = [ 0.  3.]", shape="box"] ;
58 -> 60 ;
}