digraph Tree {
0 [label="jitter_ddp <= -0.1450\ngini = 0.499930795848\nsamples = 935", shape="box"] ;
1 [label="standard_dev <= -0.0027\ngini = 0.47984063808\nsamples = 503", shape="box"] ;
0 -> 1 ;
2 [label="fraction_locally_unvoiced_frames <= 0.6430\ngini = 0.496374044672\nsamples = 411", shape="box"] ;
1 -> 2 ;
3 [label="NTH <= 0.7979\ngini = 0.499889934753\nsamples = 337", shape="box"] ;
2 -> 3 ;
4 [label="shimmer_apq11 <= -1.5544\ngini = 0.498795588844\nsamples = 326", shape="box"] ;
3 -> 4 ;
5 [label="num_periods <= 0.2330\ngini = 0.265927977839\nsamples = 19", shape="box"] ;
4 -> 5 ;
6 [label="gini = 0.0000\nsamples = 2\nvalue = [ 0.  2.]", shape="box"] ;
5 -> 6 ;
7 [label="num_periods <= 5.1569\ngini = 0.110726643599\nsamples = 17", shape="box"] ;
5 -> 7 ;
8 [label="gini = 0.0000\nsamples = 16\nvalue = [ 16.   0.]", shape="box"] ;
7 -> 8 ;
9 [label="gini = 0.0000\nsamples = 1\nvalue = [ 0.  1.]", shape="box"] ;
7 -> 9 ;
10 [label="median_pitch <= -0.7652\ngini = 0.495538414201\nsamples = 307", shape="box"] ;
4 -> 10 ;
11 [label="mean_pitch <= -1.0817\ngini = 0.47140831758\nsamples = 92", shape="box"] ;
10 -> 11 ;
12 [label="min_pitch <= -0.9642\ngini = 0.486749594375\nsamples = 43", shape="box"] ;
11 -> 12 ;
13 [label="median_pitch <= -1.2144\ngini = 0.444444444444\nsamples = 21", shape="box"] ;
12 -> 13 ;
14 [label="gini = 0.0000\nsamples = 4\nvalue = [ 0.  4.]", shape="box"] ;
13 -> 14 ;
15 [label="gini = 0.2907\nsamples = 17\nvalue = [ 14.   3.]", shape="box"] ;
13 -> 15 ;
16 [label="AC <= 0.9410\ngini = 0.297520661157\nsamples = 22", shape="box"] ;
12 -> 16 ;
17 [label="gini = 0.0997\nsamples = 19\nvalue = [  1.  18.]", shape="box"] ;
16 -> 17 ;
18 [label="gini = 0.0000\nsamples = 3\nvalue = [ 3.  0.]", shape="box"] ;
16 -> 18 ;
19 [label="shimmer_dda <= 0.1687\ngini = 0.324864639733\nsamples = 49", shape="box"] ;
11 -> 19 ;
20 [label="jitter_absolute <= -1.2834\ngini = 0.184089414859\nsamples = 39", shape="box"] ;
19 -> 20 ;
21 [label="gini = 0.0000\nsamples = 1\nvalue = [ 0.  1.]", shape="box"] ;
20 -> 21 ;
22 [label="gini = 0.1454\nsamples = 38\nvalue = [ 35.   3.]", shape="box"] ;
20 -> 22 ;
23 [label="shimmer_local <= 0.6632\ngini = 0.48\nsamples = 10", shape="box"] ;
19 -> 23 ;
24 [label="gini = 0.0000\nsamples = 5\nvalue = [ 0.  5.]", shape="box"] ;
23 -> 24 ;
25 [label="gini = 0.3200\nsamples = 5\nvalue = [ 4.  1.]", shape="box"] ;
23 -> 25 ;
26 [label="standard_dev <= -0.2931\ngini = 0.471865873445\nsamples = 215", shape="box"] ;
10 -> 26 ;
27 [label="median_pitch <= 1.0524\ngini = 0.438857314916\nsamples = 163", shape="box"] ;
26 -> 27 ;
28 [label="min_pitch <= 0.1332\ngini = 0.46457222711\nsamples = 139", shape="box"] ;
27 -> 28 ;
29 [label="gini = 0.4068\nsamples = 88\nvalue = [ 25.  63.]", shape="box"] ;
28 -> 29 ;
30 [label="gini = 0.4998\nsamples = 51\nvalue = [ 26.  25.]", shape="box"] ;
28 -> 30 ;
31 [label="shimmer_apq5 <= 0.1553\ngini = 0.152777777778\nsamples = 24", shape="box"] ;
27 -> 31 ;
32 [label="gini = 0.0832\nsamples = 23\nvalue = [  1.  22.]", shape="box"] ;
31 -> 32 ;
33 [label="gini = 0.0000\nsamples = 1\nvalue = [ 1.  0.]", shape="box"] ;
31 -> 33 ;
34 [label="shimmer_local <= -0.6399\ngini = 0.493343195266\nsamples = 52", shape="box"] ;
26 -> 34 ;
35 [label="median_pitch <= -0.5313\ngini = 0.124444444444\nsamples = 15", shape="box"] ;
34 -> 35 ;
36 [label="gini = 0.0000\nsamples = 1\nvalue = [ 0.  1.]", shape="box"] ;
35 -> 36 ;
37 [label="gini = 0.0000\nsamples = 14\nvalue = [ 14.   0.]", shape="box"] ;
35 -> 37 ;
38 [label="min_pitch <= -0.1447\ngini = 0.482103725347\nsamples = 37", shape="box"] ;
34 -> 38 ;
39 [label="gini = 0.4297\nsamples = 16\nvalue = [ 11.   5.]", shape="box"] ;
38 -> 39 ;
40 [label="gini = 0.3084\nsamples = 21\nvalue = [  4.  17.]", shape="box"] ;
38 -> 40 ;
41 [label="gini = 0.0000\nsamples = 11\nvalue = [ 11.   0.]", shape="box"] ;
3 -> 41 ;
42 [label="jitter_ddp <= -0.3862\ngini = 0.353907962016\nsamples = 74", shape="box"] ;
2 -> 42 ;
43 [label="jitter_absolute <= 1.0861\ngini = 0.176855055748\nsamples = 51", shape="box"] ;
42 -> 43 ;
44 [label="NTH <= -1.0991\ngini = 0.1472\nsamples = 50", shape="box"] ;
43 -> 44 ;
45 [label="gini = 0.0000\nsamples = 1\nvalue = [ 0.  1.]", shape="box"] ;
44 -> 45 ;
46 [label="min_pitch <= -1.1611\ngini = 0.11495210329\nsamples = 49", shape="box"] ;
44 -> 46 ;
47 [label="gini = 0.0000\nsamples = 1\nvalue = [ 0.  1.]", shape="box"] ;
46 -> 47 ;
48 [label="deg_voice_breaks <= 1.3666\ngini = 0.0798611111111\nsamples = 48", shape="box"] ;
46 -> 48 ;
49 [label="AC <= 1.0218\ngini = 0.0416478044364\nsamples = 47", shape="box"] ;
48 -> 49 ;
50 [label="gini = 0.0000\nsamples = 44\nvalue = [ 44.   0.]", shape="box"] ;
49 -> 50 ;
51 [label="gini = 0.4444\nsamples = 3\nvalue = [ 2.  1.]", shape="box"] ;
49 -> 51 ;
52 [label="gini = 0.0000\nsamples = 1\nvalue = [ 0.  1.]", shape="box"] ;
48 -> 52 ;
53 [label="gini = 0.0000\nsamples = 1\nvalue = [ 0.  1.]", shape="box"] ;
43 -> 53 ;
54 [label="standard_dev <= -0.4191\ngini = 0.499054820416\nsamples = 23", shape="box"] ;
42 -> 54 ;
55 [label="gini = 0.0000\nsamples = 9\nvalue = [ 0.  9.]", shape="box"] ;
54 -> 55 ;
56 [label="jitter_rap <= -0.3396\ngini = 0.336734693878\nsamples = 14", shape="box"] ;
54 -> 56 ;
57 [label="gini = 0.0000\nsamples = 2\nvalue = [ 0.  2.]", shape="box"] ;
56 -> 57 ;
58 [label="jitter_absolute <= -0.5723\ngini = 0.152777777778\nsamples = 12", shape="box"] ;
56 -> 58 ;
59 [label="standard_dev_period <= -0.3008\ngini = 0.5\nsamples = 2", shape="box"] ;
58 -> 59 ;
60 [label="gini = 0.0000\nsamples = 1\nvalue = [ 1.  0.]", shape="box"] ;
59 -> 60 ;
61 [label="gini = 0.0000\nsamples = 1\nvalue = [ 0.  1.]", shape="box"] ;
59 -> 61 ;
62 [label="gini = 0.0000\nsamples = 10\nvalue = [ 10.   0.]", shape="box"] ;
58 -> 62 ;
63 [label="min_pitch <= -1.2033\ngini = 0.242674858223\nsamples = 92", shape="box"] ;
1 -> 63 ;
64 [label="gini = 0.0000\nsamples = 3\nvalue = [ 0.  3.]", shape="box"] ;
63 -> 64 ;
65 [label="mean_period <= 1.6461\ngini = 0.199469763919\nsamples = 89", shape="box"] ;
63 -> 65 ;
66 [label="standard_dev_period <= 3.2964\ngini = 0.183626033058\nsamples = 88", shape="box"] ;
65 -> 66 ;
67 [label="median_pitch <= 0.5358\ngini = 0.152777777778\nsamples = 84", shape="box"] ;
66 -> 67 ;
68 [label="jitter_local <= 0.1302\ngini = 0.0399833402749\nsamples = 49", shape="box"] ;
67 -> 68 ;
69 [label="gini = 0.0000\nsamples = 45\nvalue = [ 45.   0.]", shape="box"] ;
68 -> 69 ;
70 [label="median_pitch <= -0.2856\ngini = 0.375\nsamples = 4", shape="box"] ;
68 -> 70 ;
71 [label="gini = 0.0000\nsamples = 1\nvalue = [ 0.  1.]", shape="box"] ;
70 -> 71 ;
72 [label="gini = 0.0000\nsamples = 3\nvalue = [ 3.  0.]", shape="box"] ;
70 -> 72 ;
73 [label="jitter_rap <= -0.2461\ngini = 0.284081632653\nsamples = 35", shape="box"] ;
67 -> 73 ;
74 [label="mean_period <= -0.9937\ngini = 0.174817898023\nsamples = 31", shape="box"] ;
73 -> 74 ;
75 [label="gini = 0.0000\nsamples = 26\nvalue = [ 26.   0.]", shape="box"] ;
74 -> 75 ;
76 [label="NTH <= -0.4769\ngini = 0.48\nsamples = 5", shape="box"] ;
74 -> 76 ;
77 [label="gini = 0.0000\nsamples = 2\nvalue = [ 2.  0.]", shape="box"] ;
76 -> 77 ;
78 [label="gini = 0.0000\nsamples = 3\nvalue = [ 0.  3.]", shape="box"] ;
76 -> 78 ;
79 [label="num_pulses <= -0.3625\ngini = 0.375\nsamples = 4", shape="box"] ;
73 -> 79 ;
80 [label="gini = 0.0000\nsamples = 1\nvalue = [ 1.  0.]", shape="box"] ;
79 -> 80 ;
81 [label="gini = 0.0000\nsamples = 3\nvalue = [ 0.  3.]", shape="box"] ;
79 -> 81 ;
82 [label="shimmer_apq3 <= -0.3243\ngini = 0.5\nsamples = 4", shape="box"] ;
66 -> 82 ;
83 [label="gini = 0.0000\nsamples = 2\nvalue = [ 2.  0.]", shape="box"] ;
82 -> 83 ;
84 [label="gini = 0.0000\nsamples = 2\nvalue = [ 0.  2.]", shape="box"] ;
82 -> 84 ;
85 [label="gini = 0.0000\nsamples = 1\nvalue = [ 0.  1.]", shape="box"] ;
65 -> 85 ;
86 [label="mean_pitch <= 1.8672\ngini = 0.478298611111\nsamples = 432", shape="box"] ;
0 -> 86 ;
87 [label="deg_voice_breaks <= 0.0662\ngini = 0.46355\nsamples = 400", shape="box"] ;
86 -> 87 ;
88 [label="shimmer_local <= -0.6291\ngini = 0.37885580821\nsamples = 193", shape="box"] ;
87 -> 88 ;
89 [label="fraction_locally_unvoiced_frames <= -0.3502\ngini = 0.491493383743\nsamples = 23", shape="box"] ;
88 -> 89 ;
90 [label="max_pitch <= 0.1545\ngini = 0.444444444444\nsamples = 15", shape="box"] ;
89 -> 90 ;
91 [label="num_periods <= -0.3889\ngini = 0.355029585799\nsamples = 13", shape="box"] ;
90 -> 91 ;
92 [label="max_pitch <= -0.8463\ngini = 0.444444444444\nsamples = 3", shape="box"] ;
91 -> 92 ;
93 [label="gini = 0.0000\nsamples = 1\nvalue = [ 0.  1.]", shape="box"] ;
92 -> 93 ;
94 [label="gini = 0.0000\nsamples = 2\nvalue = [ 2.  0.]", shape="box"] ;
92 -> 94 ;
95 [label="shimmer_dB <= -0.2238\ngini = 0.18\nsamples = 10", shape="box"] ;
91 -> 95 ;
96 [label="gini = 0.0000\nsamples = 9\nvalue = [ 0.  9.]", shape="box"] ;
95 -> 96 ;
97 [label="gini = 0.0000\nsamples = 1\nvalue = [ 1.  0.]", shape="box"] ;
95 -> 97 ;
98 [label="gini = 0.0000\nsamples = 2\nvalue = [ 2.  0.]", shape="box"] ;
90 -> 98 ;
99 [label="gini = 0.0000\nsamples = 8\nvalue = [ 8.  0.]", shape="box"] ;
89 -> 99 ;
100 [label="median_pitch <= 0.5838\ngini = 0.33384083045\nsamples = 170", shape="box"] ;
88 -> 100 ;
101 [label="min_pitch <= 0.2700\ngini = 0.375\nsamples = 144", shape="box"] ;
100 -> 101 ;
102 [label="num_voice_breaks <= 1.4445\ngini = 0.336110949245\nsamples = 131", shape="box"] ;
101 -> 102 ;
103 [label="shimmer_apq3 <= 2.0849\ngini = 0.321855657713\nsamples = 129", shape="box"] ;
102 -> 103 ;
104 [label="standard_dev_period <= -0.5427\ngini = 0.306528613057\nsamples = 127", shape="box"] ;
103 -> 104 ;
105 [label="gini = 0.4978\nsamples = 15\nvalue = [ 7.  8.]", shape="box"] ;
104 -> 105 ;
106 [label="gini = 0.2575\nsamples = 112\nvalue = [ 17.  95.]", shape="box"] ;
104 -> 106 ;
107 [label="gini = 0.0000\nsamples = 2\nvalue = [ 2.  0.]", shape="box"] ;
103 -> 107 ;
108 [label="gini = 0.0000\nsamples = 2\nvalue = [ 2.  0.]", shape="box"] ;
102 -> 108 ;
109 [label="NTH <= -0.0544\ngini = 0.473372781065\nsamples = 13", shape="box"] ;
101 -> 109 ;
110 [label="gini = 0.0000\nsamples = 6\nvalue = [ 6.  0.]", shape="box"] ;
109 -> 110 ;
111 [label="num_pulses <= -0.0411\ngini = 0.408163265306\nsamples = 7", shape="box"] ;
109 -> 111 ;
112 [label="gini = 0.0000\nsamples = 5\nvalue = [ 0.  5.]", shape="box"] ;
111 -> 112 ;
113 [label="gini = 0.0000\nsamples = 2\nvalue = [ 2.  0.]", shape="box"] ;
111 -> 113 ;
114 [label="gini = 0.0000\nsamples = 26\nvalue = [  0.  26.]", shape="box"] ;
100 -> 114 ;
115 [label="shimmer_dB <= 0.2552\ngini = 0.498027958645\nsamples = 207", shape="box"] ;
87 -> 115 ;
116 [label="num_pulses <= -0.1155\ngini = 0.471888617281\nsamples = 97", shape="box"] ;
115 -> 116 ;
117 [label="min_pitch <= -0.0736\ngini = 0.410009182736\nsamples = 66", shape="box"] ;
116 -> 117 ;
118 [label="HTN <= 0.0513\ngini = 0.476370510397\nsamples = 46", shape="box"] ;
117 -> 118 ;
119 [label="shimmer_apq3 <= -0.0046\ngini = 0.426035502959\nsamples = 39", shape="box"] ;
118 -> 119 ;
120 [label="shimmer_apq5 <= -0.1756\ngini = 0.496527777778\nsamples = 24", shape="box"] ;
119 -> 120 ;
121 [label="gini = 0.4012\nsamples = 18\nvalue = [ 13.   5.]", shape="box"] ;
120 -> 121 ;
122 [label="gini = 0.0000\nsamples = 6\nvalue = [ 0.  6.]", shape="box"] ;
120 -> 122 ;
123 [label="jitter_ppq5 <= -0.2140\ngini = 0.124444444444\nsamples = 15", shape="box"] ;
119 -> 123 ;
124 [label="gini = 0.0000\nsamples = 1\nvalue = [ 0.  1.]", shape="box"] ;
123 -> 124 ;
125 [label="gini = 0.0000\nsamples = 14\nvalue = [ 14.   0.]", shape="box"] ;
123 -> 125 ;
126 [label="num_periods <= -0.4603\ngini = 0.244897959184\nsamples = 7", shape="box"] ;
118 -> 126 ;
127 [label="gini = 0.0000\nsamples = 1\nvalue = [ 1.  0.]", shape="box"] ;
126 -> 127 ;
128 [label="gini = 0.0000\nsamples = 6\nvalue = [ 0.  6.]", shape="box"] ;
126 -> 128 ;
129 [label="fraction_locally_unvoiced_frames <= 1.5234\ngini = 0.095\nsamples = 20", shape="box"] ;
117 -> 129 ;
130 [label="gini = 0.0000\nsamples = 18\nvalue = [ 18.   0.]", shape="box"] ;
129 -> 130 ;
131 [label="jitter_ddp <= -0.0596\ngini = 0.5\nsamples = 2", shape="box"] ;
129 -> 131 ;
132 [label="gini = 0.0000\nsamples = 1\nvalue = [ 1.  0.]", shape="box"] ;
131 -> 132 ;
133 [label="gini = 0.0000\nsamples = 1\nvalue = [ 0.  1.]", shape="box"] ;
131 -> 133 ;
134 [label="shimmer_apq3 <= -0.1232\ngini = 0.486992715921\nsamples = 31", shape="box"] ;
116 -> 134 ;
135 [label="deg_voice_breaks <= 0.7916\ngini = 0.491493383743\nsamples = 23", shape="box"] ;
134 -> 135 ;
136 [label="mean_pitch <= 0.5595\ngini = 0.244897959184\nsamples = 7", shape="box"] ;
135 -> 136 ;
137 [label="gini = 0.0000\nsamples = 6\nvalue = [ 0.  6.]", shape="box"] ;
136 -> 137 ;
138 [label="gini = 0.0000\nsamples = 1\nvalue = [ 1.  0.]", shape="box"] ;
136 -> 138 ;
139 [label="median_pitch <= 1.0306\ngini = 0.375\nsamples = 16", shape="box"] ;
135 -> 139 ;
140 [label="shimmer_dB <= 0.0888\ngini = 0.152777777778\nsamples = 12", shape="box"] ;
139 -> 140 ;
141 [label="gini = 0.0000\nsamples = 11\nvalue = [ 11.   0.]", shape="box"] ;
140 -> 141 ;
142 [label="gini = 0.0000\nsamples = 1\nvalue = [ 0.  1.]", shape="box"] ;
140 -> 142 ;
143 [label="median_pitch <= 1.2094\ngini = 0.375\nsamples = 4", shape="box"] ;
139 -> 143 ;
144 [label="gini = 0.0000\nsamples = 3\nvalue = [ 0.  3.]", shape="box"] ;
143 -> 144 ;
145 [label="gini = 0.0000\nsamples = 1\nvalue = [ 1.  0.]", shape="box"] ;
143 -> 145 ;
146 [label="gini = 0.0000\nsamples = 8\nvalue = [ 0.  8.]", shape="box"] ;
134 -> 146 ;
147 [label="jitter_ppq5 <= 0.3216\ngini = 0.446446280992\nsamples = 110", shape="box"] ;
115 -> 147 ;
148 [label="num_pulses <= -0.1493\ngini = 0.489795918367\nsamples = 42", shape="box"] ;
147 -> 148 ;
149 [label="median_pitch <= -1.1765\ngini = 0.32\nsamples = 25", shape="box"] ;
148 -> 149 ;
150 [label="gini = 0.0000\nsamples = 2\nvalue = [ 0.  2.]", shape="box"] ;
149 -> 150 ;
151 [label="standard_dev <= -0.3908\ngini = 0.226843100189\nsamples = 23", shape="box"] ;
149 -> 151 ;
152 [label="jitter_absolute <= 1.2669\ngini = 0.5\nsamples = 6", shape="box"] ;
151 -> 152 ;
153 [label="gini = 0.0000\nsamples = 3\nvalue = [ 0.  3.]", shape="box"] ;
152 -> 153 ;
154 [label="gini = 0.0000\nsamples = 3\nvalue = [ 3.  0.]", shape="box"] ;
152 -> 154 ;
155 [label="gini = 0.0000\nsamples = 17\nvalue = [ 17.   0.]", shape="box"] ;
151 -> 155 ;
156 [label="HTN <= -0.8079\ngini = 0.359861591696\nsamples = 17", shape="box"] ;
148 -> 156 ;
157 [label="gini = 0.0000\nsamples = 3\nvalue = [ 3.  0.]", shape="box"] ;
156 -> 157 ;
158 [label="jitter_ppq5 <= 0.2417\ngini = 0.132653061224\nsamples = 14", shape="box"] ;
156 -> 158 ;
159 [label="gini = 0.0000\nsamples = 13\nvalue = [  0.  13.]", shape="box"] ;
158 -> 159 ;
160 [label="gini = 0.0000\nsamples = 1\nvalue = [ 1.  0.]", shape="box"] ;
158 -> 160 ;
161 [label="deg_voice_breaks <= 2.6852\ngini = 0.309256055363\nsamples = 68", shape="box"] ;
147 -> 161 ;
162 [label="max_pitch <= -0.5656\ngini = 0.24169921875\nsamples = 64", shape="box"] ;
161 -> 162 ;
163 [label="jitter_local <= 1.2366\ngini = 0.489795918367\nsamples = 14", shape="box"] ;
162 -> 163 ;
164 [label="shimmer_local <= 0.1088\ngini = 0.32\nsamples = 10", shape="box"] ;
163 -> 164 ;
165 [label="gini = 0.0000\nsamples = 1\nvalue = [ 1.  0.]", shape="box"] ;
164 -> 165 ;
166 [label="gini = 0.1975\nsamples = 9\nvalue = [ 1.  8.]", shape="box"] ;
164 -> 166 ;
167 [label="gini = 0.0000\nsamples = 4\nvalue = [ 4.  0.]", shape="box"] ;
163 -> 167 ;
168 [label="num_pulses <= 0.0503\ngini = 0.1128\nsamples = 50", shape="box"] ;
162 -> 168 ;
169 [label="gini = 0.0000\nsamples = 34\nvalue = [  0.  34.]", shape="box"] ;
168 -> 169 ;
170 [label="shimmer_dda <= 0.7367\ngini = 0.3046875\nsamples = 16", shape="box"] ;
168 -> 170 ;
171 [label="gini = 0.1327\nsamples = 14\nvalue = [  1.  13.]", shape="box"] ;
170 -> 171 ;
172 [label="gini = 0.0000\nsamples = 2\nvalue = [ 2.  0.]", shape="box"] ;
170 -> 172 ;
173 [label="gini = 0.0000\nsamples = 4\nvalue = [ 4.  0.]", shape="box"] ;
161 -> 173 ;
174 [label="shimmer_apq11 <= 1.4785\ngini = 0.341796875\nsamples = 32", shape="box"] ;
86 -> 174 ;
175 [label="HTN <= 0.0957\ngini = 0.137174211248\nsamples = 27", shape="box"] ;
174 -> 175 ;
176 [label="shimmer_apq11 <= 0.1196\ngini = 0.0739644970414\nsamples = 26", shape="box"] ;
175 -> 176 ;
177 [label="shimmer_apq3 <= 0.0405\ngini = 0.375\nsamples = 4", shape="box"] ;
176 -> 177 ;
178 [label="gini = 0.0000\nsamples = 3\nvalue = [ 3.  0.]", shape="box"] ;
177 -> 178 ;
179 [label="gini = 0.0000\nsamples = 1\nvalue = [ 0.  1.]", shape="box"] ;
177 -> 179 ;
180 [label="gini = 0.0000\nsamples = 22\nvalue = [ 22.   0.]", shape="box"] ;
176 -> 180 ;
181 [label="gini = 0.0000\nsamples = 1\nvalue = [ 0.  1.]", shape="box"] ;
175 -> 181 ;
182 [label="gini = 0.0000\nsamples = 5\nvalue = [ 0.  5.]", shape="box"] ;
174 -> 182 ;
}