digraph Tree {
0 [label="max_pitch <= 0.5129\ngini = 0.499587131721\nsamples = 696", shape="box"] ;
1 [label="shimmer_dB <= 1.8327\ngini = 0.496932657821\nsamples = 549", shape="box"] ;
0 -> 1 ;
2 [label="shimmer_apq11 <= 0.2993\ngini = 0.494101474281\nsamples = 534", shape="box"] ;
1 -> 2 ;
3 [label="gini = 0.4999\nsamples = 386\nvalue = [ 195.  191.]", shape="box"] ;
2 -> 3 ;
4 [label="gini = 0.4123\nsamples = 148\nvalue = [  43.  105.]", shape="box"] ;
2 -> 4 ;
5 [label="gini = 0.0000\nsamples = 15\nvalue = [ 15.   0.]", shape="box"] ;
1 -> 5 ;
6 [label="jitter_ppq5 <= 0.3917\ngini = 0.408163265306\nsamples = 147", shape="box"] ;
0 -> 6 ;
7 [label="min_pitch <= -0.9413\ngini = 0.228957855331\nsamples = 91", shape="box"] ;
6 -> 7 ;
8 [label="gini = 0.4444\nsamples = 6\nvalue = [ 2.  4.]", shape="box"] ;
7 -> 8 ;
9 [label="gini = 0.1705\nsamples = 85\nvalue = [ 77.   8.]", shape="box"] ;
7 -> 9 ;
10 [label="median_pitch <= 1.3060\ngini = 0.497448979592\nsamples = 56", shape="box"] ;
6 -> 10 ;
11 [label="gini = 0.3878\nsamples = 38\nvalue = [ 10.  28.]", shape="box"] ;
10 -> 11 ;
12 [label="gini = 0.1975\nsamples = 18\nvalue = [ 16.   2.]", shape="box"] ;
10 -> 12 ;
}