digraph Tree {
0 [label="age <= 0.3059\ngini = 0.696666890738\nsamples = 5287", shape="box"] ;
1 [label="DFA <= 1.2822\ngini = 0.683483051334\nsamples = 3311", shape="box"] ;
0 -> 1 ;
2 [label="age <= -2.5230\ngini = 0.675256459597\nsamples = 2914", shape="box"] ;
1 -> 2 ;
3 [label="gini = 0.0000\nsamples = 94\nvalue = [ 94.   0.   0.   0.   0.]", shape="box"] ;
2 -> 3 ;
4 [label="HNR <= 1.2775\ngini = 0.667383179921\nsamples = 2820", shape="box"] ;
2 -> 4 ;
5 [label="DFA <= -0.1180\ngini = 0.654381743204\nsamples = 2504", shape="box"] ;
4 -> 5 ;
6 [label="age <= 0.1927\ngini = 0.609327373128\nsamples = 1319", shape="box"] ;
5 -> 6 ;
7 [label="age <= -1.0520\ngini = 0.617677239945\nsamples = 1231", shape="box"] ;
6 -> 7 ;
8 [label="age <= -1.4480\ngini = 0.0997229916898\nsamples = 76", shape="box"] ;
7 -> 8 ;
9 [label="Jitter(Abs) <= 0.2718\ngini = 0.48\nsamples = 10", shape="box"] ;
8 -> 9 ;
10 [label="gini = 0.0000\nsamples = 4\nvalue = [ 0.  0.  4.  0.  0.]", shape="box"] ;
9 -> 10 ;
11 [label="gini = 0.0000\nsamples = 6\nvalue = [ 0.  6.  0.  0.  0.]", shape="box"] ;
9 -> 11 ;
12 [label="gini = 0.0000\nsamples = 66\nvalue = [  0.  66.   0.   0.   0.]", shape="box"] ;
8 -> 12 ;
13 [label="age <= -0.9388\ngini = 0.621808436873\nsamples = 1155", shape="box"] ;
7 -> 13 ;
14 [label="DFA <= -0.3638\ngini = 0.495713305898\nsamples = 108", shape="box"] ;
13 -> 14 ;
15 [label="Shimmer:APQ11 <= -0.0148\ngini = 0.463868655336\nsamples = 93", shape="box"] ;
14 -> 15 ;
16 [label="HNR <= 0.9805\ngini = 0.418083900227\nsamples = 84", shape="box"] ;
15 -> 16 ;
17 [label="Jitter:PPQ5 <= -0.4597\ngini = 0.343858131488\nsamples = 68", shape="box"] ;
16 -> 17 ;
18 [label="gini = 0.0000\nsamples = 19\nvalue = [  0.   0.   0.  19.   0.]", shape="box"] ;
17 -> 18 ;
19 [label="RPDE <= -0.6378\ngini = 0.424822990421\nsamples = 49", shape="box"] ;
17 -> 19 ;
20 [label="Shimmer:DDA <= -0.6338\ngini = 0.326989619377\nsamples = 34", shape="box"] ;
19 -> 20 ;
21 [label="Shimmer:DDA <= -0.6902\ngini = 0.493827160494\nsamples = 9", shape="box"] ;
20 -> 21 ;
22 [label="gini = 0.0000\nsamples = 3\nvalue = [ 0.  0.  0.  3.  0.]", shape="box"] ;
21 -> 22 ;
23 [label="gini = 0.2778\nsamples = 6\nvalue = [ 0.  0.  5.  1.  0.]", shape="box"] ;
21 -> 23 ;
24 [label="Shimmer:APQ11 <= -0.4500\ngini = 0.1472\nsamples = 25", shape="box"] ;
20 -> 24 ;
25 [label="gini = 0.0000\nsamples = 18\nvalue = [  0.   0.   0.  18.   0.]", shape="box"] ;
24 -> 25 ;
26 [label="gini = 0.4082\nsamples = 7\nvalue = [ 0.  0.  2.  5.  0.]", shape="box"] ;
24 -> 26 ;
27 [label="Jitter:RAP <= 0.0782\ngini = 0.497777777778\nsamples = 15", shape="box"] ;
19 -> 27 ;
28 [label="Jitter:RAP <= -0.2661\ngini = 0.444444444444\nsamples = 12", shape="box"] ;
27 -> 28 ;
29 [label="gini = 0.4444\nsamples = 6\nvalue = [ 0.  0.  2.  4.  0.]", shape="box"] ;
28 -> 29 ;
30 [label="gini = 0.0000\nsamples = 6\nvalue = [ 0.  0.  6.  0.  0.]", shape="box"] ;
28 -> 30 ;
31 [label="gini = 0.0000\nsamples = 3\nvalue = [ 0.  0.  0.  3.  0.]", shape="box"] ;
27 -> 31 ;
32 [label="DFA <= -1.5107\ngini = 0.46875\nsamples = 16", shape="box"] ;
16 -> 32 ;
33 [label="gini = 0.0000\nsamples = 5\nvalue = [ 0.  0.  0.  5.  0.]", shape="box"] ;
32 -> 33 ;
34 [label="Shimmer <= -0.5839\ngini = 0.165289256198\nsamples = 11", shape="box"] ;
32 -> 34 ;
35 [label="gini = 0.0000\nsamples = 10\nvalue = [  0.   0.  10.   0.   0.]", shape="box"] ;
34 -> 35 ;
36 [label="gini = 0.0000\nsamples = 1\nvalue = [ 0.  0.  0.  1.  0.]", shape="box"] ;
34 -> 36 ;
37 [label="gini = 0.0000\nsamples = 9\nvalue = [ 0.  0.  9.  0.  0.]", shape="box"] ;
15 -> 37 ;
38 [label="gini = 0.0000\nsamples = 15\nvalue = [  0.   0.  15.   0.   0.]", shape="box"] ;
14 -> 38 ;
39 [label="age <= -0.5428\ngini = 0.592164450392\nsamples = 1047", shape="box"] ;
13 -> 39 ;
40 [label="age <= -0.8257\ngini = 0.467649825316\nsamples = 244", shape="box"] ;
39 -> 40 ;
41 [label="DFA <= -1.2219\ngini = 0.506455643482\nsamples = 98", shape="box"] ;
40 -> 41 ;
42 [label="DFA <= -1.3985\ngini = 0.444444444444\nsamples = 51", shape="box"] ;
41 -> 42 ;
43 [label="Shimmer:APQ3 <= -0.7280\ngini = 0.486111111111\nsamples = 24", shape="box"] ;
42 -> 43 ;
44 [label="gini = 0.0000\nsamples = 3\nvalue = [ 0.  3.  0.  0.  0.]", shape="box"] ;
43 -> 44 ;
45 [label="RPDE <= -1.5835\ngini = 0.444444444444\nsamples = 21", shape="box"] ;
43 -> 45 ;
46 [label="gini = 0.0000\nsamples = 2\nvalue = [ 0.  2.  0.  0.  0.]", shape="box"] ;
45 -> 46 ;
47 [label="Jitter:DDP <= -0.0480\ngini = 0.387811634349\nsamples = 19", shape="box"] ;
45 -> 47 ;
48 [label="gini = 0.3457\nsamples = 18\nvalue = [  0.   4.  14.   0.   0.]", shape="box"] ;
47 -> 48 ;
49 [label="gini = 0.0000\nsamples = 1\nvalue = [ 0.  1.  0.  0.  0.]", shape="box"] ;
47 -> 49 ;
50 [label="RPDE <= -0.6378\ngini = 0.197530864198\nsamples = 27", shape="box"] ;
42 -> 50 ;
51 [label="Jitter(Abs) <= -0.5140\ngini = 0.0907029478458\nsamples = 21", shape="box"] ;
50 -> 51 ;
52 [label="gini = 0.0000\nsamples = 17\nvalue = [  0.  17.   0.   0.   0.]", shape="box"] ;
51 -> 52 ;
53 [label="Jitter(%) <= -0.2230\ngini = 0.375\nsamples = 4", shape="box"] ;
51 -> 53 ;
54 [label="gini = 0.0000\nsamples = 1\nvalue = [ 0.  0.  1.  0.  0.]", shape="box"] ;
53 -> 54 ;
55 [label="gini = 0.0000\nsamples = 3\nvalue = [ 0.  3.  0.  0.  0.]", shape="box"] ;
53 -> 55 ;
56 [label="Jitter(Abs) <= -0.5285\ngini = 0.444444444444\nsamples = 6", shape="box"] ;
50 -> 56 ;
57 [label="gini = 0.0000\nsamples = 2\nvalue = [ 0.  0.  2.  0.  0.]", shape="box"] ;
56 -> 57 ;
58 [label="gini = 0.0000\nsamples = 4\nvalue = [ 0.  4.  0.  0.  0.]", shape="box"] ;
56 -> 58 ;
59 [label="Jitter(Abs) <= -0.8418\ngini = 0.293345405161\nsamples = 47", shape="box"] ;
41 -> 59 ;
60 [label="RPDE <= -0.2674\ngini = 0.444444444444\nsamples = 3", shape="box"] ;
59 -> 60 ;
61 [label="gini = 0.0000\nsamples = 2\nvalue = [ 0.  2.  0.  0.  0.]", shape="box"] ;
60 -> 61 ;
62 [label="gini = 0.0000\nsamples = 1\nvalue = [ 1.  0.  0.  0.  0.]", shape="box"] ;
60 -> 62 ;
63 [label="NHR <= 0.3086\ngini = 0.205578512397\nsamples = 44", shape="box"] ;
59 -> 63 ;
64 [label="DFA <= -1.0693\ngini = 0.168739859383\nsamples = 43", shape="box"] ;
63 -> 64 ;
65 [label="Jitter:PPQ5 <= -0.4076\ngini = 0.345679012346\nsamples = 18", shape="box"] ;
64 -> 65 ;
66 [label="gini = 0.0000\nsamples = 8\nvalue = [ 0.  0.  8.  0.  0.]", shape="box"] ;
65 -> 66 ;
67 [label="gini = 0.4800\nsamples = 10\nvalue = [ 0.  4.  6.  0.  0.]", shape="box"] ;
65 -> 67 ;
68 [label="gini = 0.0000\nsamples = 25\nvalue = [  0.   0.  25.   0.   0.]", shape="box"] ;
64 -> 68 ;
69 [label="gini = 0.0000\nsamples = 1\nvalue = [ 1.  0.  0.  0.  0.]", shape="box"] ;
63 -> 69 ;
70 [label="RPDE <= -1.5551\ngini = 0.230906361419\nsamples = 146", shape="box"] ;
40 -> 70 ;
71 [label="DFA <= -0.2331\ngini = 0.493827160494\nsamples = 27", shape="box"] ;
70 -> 71 ;
72 [label="Shimmer <= -1.0089\ngini = 0.444444444444\nsamples = 21", shape="box"] ;
71 -> 72 ;
73 [label="gini = 0.0000\nsamples = 2\nvalue = [ 2.  0.  0.  0.  0.]", shape="box"] ;
72 -> 73 ;
74 [label="Jitter:PPQ5 <= -0.4981\ngini = 0.387811634349\nsamples = 19", shape="box"] ;
72 -> 74 ;
75 [label="gini = 0.0000\nsamples = 8\nvalue = [ 0.  8.  0.  0.  0.]", shape="box"] ;
74 -> 75 ;
76 [label="Jitter:PPQ5 <= -0.4857\ngini = 0.495867768595\nsamples = 11", shape="box"] ;
74 -> 76 ;
77 [label="gini = 0.0000\nsamples = 3\nvalue = [ 3.  0.  0.  0.  0.]", shape="box"] ;
76 -> 77 ;
78 [label="gini = 0.3750\nsamples = 8\nvalue = [ 2.  6.  0.  0.  0.]", shape="box"] ;
76 -> 78 ;
79 [label="NHR <= -0.4841\ngini = 0.277777777778\nsamples = 6", shape="box"] ;
71 -> 79 ;
80 [label="gini = 0.0000\nsamples = 1\nvalue = [ 0.  1.  0.  0.  0.]", shape="box"] ;
79 -> 80 ;
81 [label="gini = 0.0000\nsamples = 5\nvalue = [ 5.  0.  0.  0.  0.]", shape="box"] ;
79 -> 81 ;
82 [label="Shimmer:APQ11 <= -0.0935\ngini = 0.112421439164\nsamples = 119", shape="box"] ;
70 -> 82 ;
83 [label="Shimmer:APQ11 <= -0.9324\ngini = 0.0688775510204\nsamples = 112", shape="box"] ;
82 -> 83 ;
84 [label="Shimmer:APQ11 <= -0.9848\ngini = 0.48\nsamples = 5", shape="box"] ;
83 -> 84 ;
85 [label="gini = 0.0000\nsamples = 3\nvalue = [ 0.  3.  0.  0.  0.]", shape="box"] ;
84 -> 85 ;
86 [label="gini = 0.0000\nsamples = 2\nvalue = [ 2.  0.  0.  0.  0.]", shape="box"] ;
84 -> 86 ;
87 [label="RPDE <= -1.0217\ngini = 0.0366844265875\nsamples = 107", shape="box"] ;
83 -> 87 ;
88 [label="Shimmer:APQ11 <= -0.3839\ngini = 0.172335600907\nsamples = 21", shape="box"] ;
87 -> 88 ;
89 [label="gini = 0.0000\nsamples = 18\nvalue = [  0.  18.   0.   0.   0.]", shape="box"] ;
88 -> 89 ;
90 [label="gini = 0.4444\nsamples = 3\nvalue = [ 2.  1.  0.  0.  0.]", shape="box"] ;
88 -> 90 ;
91 [label="gini = 0.0000\nsamples = 86\nvalue = [  0.  86.   0.   0.   0.]", shape="box"] ;
87 -> 91 ;
92 [label="age <= -0.7125\ngini = 0.489795918367\nsamples = 7", shape="box"] ;
82 -> 92 ;
93 [label="gini = 0.0000\nsamples = 4\nvalue = [ 0.  4.  0.  0.  0.]", shape="box"] ;
92 -> 93 ;
94 [label="gini = 0.0000\nsamples = 3\nvalue = [ 0.  0.  3.  0.  0.]", shape="box"] ;
92 -> 94 ;
95 [label="age <= -0.3731\ngini = 0.585373343114\nsamples = 803", shape="box"] ;
39 -> 95 ;
96 [label="Shimmer:APQ11 <= 0.1591\ngini = 0.227895726955\nsamples = 122", shape="box"] ;
95 -> 96 ;
97 [label="HNR <= 1.0084\ngini = 0.186918714556\nsamples = 115", shape="box"] ;
96 -> 97 ;
98 [label="Shimmer:APQ5 <= -0.4696\ngini = 0.16262755102\nsamples = 112", shape="box"] ;
97 -> 98 ;
99 [label="Shimmer <= -0.4735\ngini = 0.270551508845\nsamples = 62", shape="box"] ;
98 -> 99 ;
100 [label="RPDE <= 0.8336\ngini = 0.21875\nsamples = 56", shape="box"] ;
99 -> 100 ;
101 [label="gini = 0.1944\nsamples = 55\nvalue = [  0.   6.  49.   0.   0.]", shape="box"] ;
100 -> 101 ;
102 [label="gini = 0.0000\nsamples = 1\nvalue = [ 0.  1.  0.  0.  0.]", shape="box"] ;
100 -> 102 ;
103 [label="RPDE <= 0.4022\ngini = 0.5\nsamples = 6", shape="box"] ;
99 -> 103 ;
104 [label="gini = 0.3750\nsamples = 4\nvalue = [ 0.  3.  1.  0.  0.]", shape="box"] ;
103 -> 104 ;
105 [label="gini = 0.0000\nsamples = 2\nvalue = [ 0.  0.  2.  0.  0.]", shape="box"] ;
103 -> 105 ;
106 [label="gini = 0.0000\nsamples = 50\nvalue = [  0.   0.  50.   0.   0.]", shape="box"] ;
98 -> 106 ;
107 [label="Jitter:DDP <= -0.6396\ngini = 0.444444444444\nsamples = 3", shape="box"] ;
97 -> 107 ;
108 [label="gini = 0.0000\nsamples = 1\nvalue = [ 0.  0.  1.  0.  0.]", shape="box"] ;
107 -> 108 ;
109 [label="gini = 0.0000\nsamples = 2\nvalue = [ 0.  2.  0.  0.  0.]", shape="box"] ;
107 -> 109 ;
110 [label="Jitter:DDP <= 0.2340\ngini = 0.489795918367\nsamples = 7", shape="box"] ;
96 -> 110 ;
111 [label="gini = 0.0000\nsamples = 4\nvalue = [ 0.  4.  0.  0.  0.]", shape="box"] ;
110 -> 111 ;
112 [label="gini = 0.0000\nsamples = 3\nvalue = [ 0.  0.  3.  0.  0.]", shape="box"] ;
110 -> 112 ;
113 [label="age <= -0.2599\ngini = 0.612811340324\nsamples = 681", shape="box"] ;
95 -> 113 ;
114 [label="NHR <= 0.8423\ngini = 0.415470638254\nsamples = 197", shape="box"] ;
113 -> 114 ;
115 [label="Shimmer:APQ11 <= 1.5379\ngini = 0.0210502489814\nsamples = 94", shape="box"] ;
114 -> 115 ;
116 [label="gini = 0.0000\nsamples = 90\nvalue = [  0.  90.   0.   0.   0.]", shape="box"] ;
115 -> 116 ;
117 [label="Jitter:DDP <= -0.3743\ngini = 0.375\nsamples = 4", shape="box"] ;
115 -> 117 ;
118 [label="gini = 0.0000\nsamples = 1\nvalue = [ 0.  0.  1.  0.  0.]", shape="box"] ;
117 -> 118 ;
119 [label="gini = 0.0000\nsamples = 3\nvalue = [ 0.  3.  0.  0.  0.]", shape="box"] ;
117 -> 119 ;
120 [label="RPDE <= 1.9453\ngini = 0.49429729475\nsamples = 103", shape="box"] ;
114 -> 120 ;
121 [label="Shimmer:APQ3 <= 2.3243\ngini = 0.498810232005\nsamples = 82", shape="box"] ;
120 -> 121 ;
122 [label="Jitter:DDP <= -0.2396\ngini = 0.387811634349\nsamples = 19", shape="box"] ;
121 -> 122 ;
123 [label="gini = 0.0000\nsamples = 3\nvalue = [ 0.  3.  0.  0.  0.]", shape="box"] ;
122 -> 123 ;
124 [label="gini = 0.2188\nsamples = 16\nvalue = [  0.   2.  14.   0.   0.]", shape="box"] ;
122 -> 124 ;
125 [label="Shimmer:APQ11 <= 4.5825\ngini = 0.47871000252\nsamples = 63", shape="box"] ;
121 -> 125 ;
126 [label="gini = 0.3988\nsamples = 40\nvalue = [  0.  29.  11.   0.   0.]", shape="box"] ;
125 -> 126 ;
127 [label="gini = 0.4764\nsamples = 23\nvalue = [  0.   9.  14.   0.   0.]", shape="box"] ;
125 -> 127 ;
128 [label="Jitter(Abs) <= 5.2749\ngini = 0.244897959184\nsamples = 21", shape="box"] ;
120 -> 128 ;
129 [label="Shimmer:APQ11 <= 7.1606\ngini = 0.104938271605\nsamples = 18", shape="box"] ;
128 -> 129 ;
130 [label="gini = 0.0000\nsamples = 17\nvalue = [  0.   0.  17.   0.   0.]", shape="box"] ;
129 -> 130 ;
131 [label="gini = 0.0000\nsamples = 1\nvalue = [ 0.  1.  0.  0.  0.]", shape="box"] ;
129 -> 131 ;
132 [label="HNR <= -4.6550\ngini = 0.444444444444\nsamples = 3", shape="box"] ;
128 -> 132 ;
133 [label="gini = 0.0000\nsamples = 1\nvalue = [ 0.  0.  1.  0.  0.]", shape="box"] ;
132 -> 133 ;
134 [label="gini = 0.0000\nsamples = 2\nvalue = [ 0.  2.  0.  0.  0.]", shape="box"] ;
132 -> 134 ;
135 [label="age <= 0.0796\ngini = 0.616206201762\nsamples = 484", shape="box"] ;
113 -> 135 ;
136 [label="age <= -0.0902\ngini = 0.698106816214\nsamples = 163", shape="box"] ;
135 -> 136 ;
137 [label="Jitter(Abs) <= 0.0488\ngini = 0.306793279766\nsamples = 74", shape="box"] ;
136 -> 137 ;
138 [label="Jitter:RAP <= -0.5746\ngini = 0.0444214876033\nsamples = 44", shape="box"] ;
137 -> 138 ;
139 [label="gini = 0.0000\nsamples = 1\nvalue = [ 0.  0.  0.  1.  0.]", shape="box"] ;
138 -> 139 ;
140 [label="gini = 0.0000\nsamples = 43\nvalue = [  0.   0.  43.   0.   0.]", shape="box"] ;
138 -> 140 ;
141 [label="DFA <= -0.3749\ngini = 0.491111111111\nsamples = 30", shape="box"] ;
137 -> 141 ;
142 [label="gini = 0.1420\nsamples = 13\nvalue = [  0.   0.  12.   1.   0.]", shape="box"] ;
141 -> 142 ;
143 [label="gini = 0.4152\nsamples = 17\nvalue = [  0.   0.   5.  12.   0.]", shape="box"] ;
141 -> 143 ;
144 [label="Shimmer:APQ5 <= -0.5368\ngini = 0.466607751547\nsamples = 89", shape="box"] ;
136 -> 144 ;
145 [label="RPDE <= -1.0879\ngini = 0.3046875\nsamples = 32", shape="box"] ;
144 -> 145 ;
146 [label="gini = 0.4082\nsamples = 7\nvalue = [ 5.  2.  0.  0.  0.]", shape="box"] ;
145 -> 146 ;
147 [label="gini = 0.0768\nsamples = 25\nvalue = [  1.  24.   0.   0.   0.]", shape="box"] ;
145 -> 147 ;
148 [label="NHR <= -0.3494\ngini = 0.215450907972\nsamples = 57", shape="box"] ;
144 -> 148 ;
149 [label="gini = 0.0000\nsamples = 19\nvalue = [ 19.   0.   0.   0.   0.]", shape="box"] ;
148 -> 149 ;
150 [label="gini = 0.3006\nsamples = 38\nvalue = [ 31.   7.   0.   0.   0.]", shape="box"] ;
148 -> 150 ;
151 [label="sex <= 0.3975\ngini = 0.508516027601\nsamples = 321", shape="box"] ;
135 -> 151 ;
152 [label="DFA <= -0.1456\ngini = 0.315486068652\nsamples = 107", shape="box"] ;
151 -> 152 ;
153 [label="Jitter(Abs) <= -0.3589\ngini = 0.29641723356\nsamples = 105", shape="box"] ;
152 -> 153 ;
154 [label="gini = 0.4126\nsamples = 55\nvalue = [  0.   0.  39.  16.   0.]", shape="box"] ;
153 -> 154 ;
155 [label="gini = 0.1128\nsamples = 50\nvalue = [  0.   0.  47.   3.   0.]", shape="box"] ;
153 -> 155 ;
156 [label="gini = 0.0000\nsamples = 2\nvalue = [ 0.  0.  0.  2.  0.]", shape="box"] ;
152 -> 156 ;
157 [label="Jitter(Abs) <= -0.8882\ngini = 0.49720499607\nsamples = 214", shape="box"] ;
151 -> 157 ;
158 [label="DFA <= -0.3775\ngini = 0.359861591696\nsamples = 34", shape="box"] ;
157 -> 158 ;
159 [label="gini = 0.3047\nsamples = 32\nvalue = [  0.  26.   6.   0.   0.]", shape="box"] ;
158 -> 159 ;
160 [label="gini = 0.0000\nsamples = 2\nvalue = [ 0.  0.  2.  0.  0.]", shape="box"] ;
158 -> 160 ;
161 [label="Jitter:PPQ5 <= 0.0283\ngini = 0.482160493827\nsamples = 180", shape="box"] ;
157 -> 161 ;
162 [label="gini = 0.4572\nsamples = 147\nvalue = [  0.  52.  95.   0.   0.]", shape="box"] ;
161 -> 162 ;
163 [label="gini = 0.4628\nsamples = 33\nvalue = [  0.  21.  12.   0.   0.]", shape="box"] ;
161 -> 163 ;
164 [label="gini = 0.0000\nsamples = 88\nvalue = [  0.  88.   0.   0.   0.]", shape="box"] ;
6 -> 164 ;
165 [label="age <= -1.4480\ngini = 0.663782513486\nsamples = 1185", shape="box"] ;
5 -> 165 ;
166 [label="Shimmer:APQ3 <= -0.5215\ngini = 0.498358793082\nsamples = 178", shape="box"] ;
165 -> 166 ;
167 [label="PPE <= -1.1944\ngini = 0.41234477721\nsamples = 74", shape="box"] ;
166 -> 167 ;
168 [label="Jitter:PPQ5 <= -0.4830\ngini = 0.65625\nsamples = 8", shape="box"] ;
167 -> 168 ;
169 [label="gini = 0.0000\nsamples = 3\nvalue = [ 0.  0.  0.  3.  0.]", shape="box"] ;
168 -> 169 ;
170 [label="Shimmer:DDA <= -1.0030\ngini = 0.48\nsamples = 5", shape="box"] ;
168 -> 170 ;
171 [label="gini = 0.0000\nsamples = 3\nvalue = [ 0.  0.  3.  0.  0.]", shape="box"] ;
170 -> 171 ;
172 [label="gini = 0.0000\nsamples = 2\nvalue = [ 0.  2.  0.  0.  0.]", shape="box"] ;
170 -> 172 ;
173 [label="Shimmer:APQ3 <= -0.7011\ngini = 0.354912764004\nsamples = 66", shape="box"] ;
167 -> 173 ;
174 [label="Jitter:DDP <= -0.5411\ngini = 0.263374485597\nsamples = 54", shape="box"] ;
173 -> 174 ;
175 [label="gini = 0.0000\nsamples = 27\nvalue = [  0.   0.  27.   0.   0.]", shape="box"] ;
174 -> 175 ;
176 [label="RPDE <= -0.0782\ngini = 0.460905349794\nsamples = 27", shape="box"] ;
174 -> 176 ;
177 [label="Shimmer:APQ5 <= -0.8237\ngini = 0.64\nsamples = 5", shape="box"] ;
176 -> 177 ;
178 [label="gini = 0.0000\nsamples = 2\nvalue = [ 0.  2.  0.  0.  0.]", shape="box"] ;
177 -> 178 ;
179 [label="Shimmer:APQ5 <= -0.7643\ngini = 0.444444444444\nsamples = 3", shape="box"] ;
177 -> 179 ;
180 [label="gini = 0.0000\nsamples = 1\nvalue = [ 0.  0.  1.  0.  0.]", shape="box"] ;
179 -> 180 ;
181 [label="gini = 0.0000\nsamples = 2\nvalue = [ 0.  0.  0.  2.  0.]", shape="box"] ;
179 -> 181 ;
182 [label="HNR <= 0.4691\ngini = 0.314049586777\nsamples = 22", shape="box"] ;
176 -> 182 ;
183 [label="Shimmer:APQ5 <= -0.7610\ngini = 0.528925619835\nsamples = 11", shape="box"] ;
182 -> 183 ;
184 [label="Shimmer:APQ11 <= -0.7677\ngini = 0.444444444444\nsamples = 3", shape="box"] ;
183 -> 184 ;
185 [label="gini = 0.0000\nsamples = 2\nvalue = [ 0.  0.  0.  2.  0.]", shape="box"] ;
184 -> 185 ;
186 [label="gini = 0.0000\nsamples = 1\nvalue = [ 0.  1.  0.  0.  0.]", shape="box"] ;
184 -> 186 ;
187 [label="Jitter:PPQ5 <= -0.3500\ngini = 0.21875\nsamples = 8", shape="box"] ;
183 -> 187 ;
188 [label="DFA <= 0.4058\ngini = 0.5\nsamples = 2", shape="box"] ;
187 -> 188 ;
189 [label="gini = 0.0000\nsamples = 1\nvalue = [ 0.  0.  1.  0.  0.]", shape="box"] ;
188 -> 189 ;
190 [label="gini = 0.0000\nsamples = 1\nvalue = [ 0.  1.  0.  0.  0.]", shape="box"] ;
188 -> 190 ;
191 [label="gini = 0.0000\nsamples = 6\nvalue = [ 0.  0.  6.  0.  0.]", shape="box"] ;
187 -> 191 ;
192 [label="gini = 0.0000\nsamples = 11\nvalue = [  0.   0.  11.   0.   0.]", shape="box"] ;
182 -> 192 ;
193 [label="Shimmer:DDA <= -0.6715\ngini = 0.569444444444\nsamples = 12", shape="box"] ;
173 -> 193 ;
194 [label="gini = 0.0000\nsamples = 4\nvalue = [ 0.  0.  0.  4.  0.]", shape="box"] ;
193 -> 194 ;
195 [label="Jitter:RAP <= -0.5145\ngini = 0.40625\nsamples = 8", shape="box"] ;
193 -> 195 ;
196 [label="gini = 0.0000\nsamples = 1\nvalue = [ 0.  1.  0.  0.  0.]", shape="box"] ;
195 -> 196 ;
197 [label="Jitter:PPQ5 <= 0.0448\ngini = 0.244897959184\nsamples = 7", shape="box"] ;
195 -> 197 ;
198 [label="gini = 0.0000\nsamples = 6\nvalue = [ 0.  0.  6.  0.  0.]", shape="box"] ;
197 -> 198 ;
199 [label="gini = 0.0000\nsamples = 1\nvalue = [ 0.  0.  0.  1.  0.]", shape="box"] ;
197 -> 199 ;
200 [label="DFA <= 0.4257\ngini = 0.496116863905\nsamples = 104", shape="box"] ;
166 -> 200 ;
201 [label="Jitter:DDP <= -0.3684\ngini = 0.297520661157\nsamples = 22", shape="box"] ;
200 -> 201 ;
202 [label="gini = 0.0000\nsamples = 1\nvalue = [ 0.  0.  1.  0.  0.]", shape="box"] ;
201 -> 202 ;
203 [label="DFA <= 0.3447\ngini = 0.244897959184\nsamples = 21", shape="box"] ;
201 -> 203 ;
204 [label="Jitter(Abs) <= 1.4052\ngini = 0.1171875\nsamples = 16", shape="box"] ;
203 -> 204 ;
205 [label="gini = 0.0000\nsamples = 13\nvalue = [  0.  13.   0.   0.   0.]", shape="box"] ;
204 -> 205 ;
206 [label="Shimmer <= 1.6387\ngini = 0.444444444444\nsamples = 3", shape="box"] ;
204 -> 206 ;
207 [label="gini = 0.0000\nsamples = 1\nvalue = [ 0.  0.  1.  0.  0.]", shape="box"] ;
206 -> 207 ;
208 [label="gini = 0.0000\nsamples = 2\nvalue = [ 0.  2.  0.  0.  0.]", shape="box"] ;
206 -> 208 ;
209 [label="Jitter:PPQ5 <= 0.0448\ngini = 0.48\nsamples = 5", shape="box"] ;
203 -> 209 ;
210 [label="gini = 0.0000\nsamples = 2\nvalue = [ 0.  0.  2.  0.  0.]", shape="box"] ;
209 -> 210 ;
211 [label="gini = 0.0000\nsamples = 3\nvalue = [ 0.  3.  0.  0.  0.]", shape="box"] ;
209 -> 211 ;
212 [label="Shimmer:APQ3 <= 2.9188\ngini = 0.440511600238\nsamples = 82", shape="box"] ;
200 -> 212 ;
213 [label="RPDE <= -0.0025\ngini = 0.411900065746\nsamples = 78", shape="box"] ;
212 -> 213 ;
214 [label="gini = 0.0000\nsamples = 3\nvalue = [ 0.  3.  0.  0.  0.]", shape="box"] ;
213 -> 214 ;
215 [label="Jitter:PPQ5 <= -0.3267\ngini = 0.384711111111\nsamples = 75", shape="box"] ;
213 -> 215 ;
216 [label="PPE <= -0.6303\ngini = 0.444444444444\nsamples = 3", shape="box"] ;
215 -> 216 ;
217 [label="gini = 0.0000\nsamples = 1\nvalue = [ 0.  0.  0.  1.  0.]", shape="box"] ;
216 -> 217 ;
218 [label="gini = 0.0000\nsamples = 2\nvalue = [ 0.  2.  0.  0.  0.]", shape="box"] ;
216 -> 218 ;
219 [label="RPDE <= 1.9375\ngini = 0.345679012346\nsamples = 72", shape="box"] ;
215 -> 219 ;
220 [label="Jitter(Abs) <= 0.6843\ngini = 0.32\nsamples = 70", shape="box"] ;
219 -> 220 ;
221 [label="NHR <= -0.0584\ngini = 0.421849648459\nsamples = 43", shape="box"] ;
220 -> 221 ;
222 [label="Shimmer:DDA <= -0.4164\ngini = 0.231111111111\nsamples = 30", shape="box"] ;
221 -> 222 ;
223 [label="gini = 0.4444\nsamples = 3\nvalue = [ 0.  2.  1.  0.  0.]", shape="box"] ;
222 -> 223 ;
224 [label="gini = 0.1372\nsamples = 27\nvalue = [  0.   2.  25.   0.   0.]", shape="box"] ;
222 -> 224 ;
225 [label="Shimmer(dB) <= 0.7098\ngini = 0.426035502959\nsamples = 13", shape="box"] ;
221 -> 225 ;
226 [label="gini = 0.0000\nsamples = 8\nvalue = [ 0.  8.  0.  0.  0.]", shape="box"] ;
225 -> 226 ;
227 [label="gini = 0.3200\nsamples = 5\nvalue = [ 0.  1.  4.  0.  0.]", shape="box"] ;
225 -> 227 ;
228 [label="RPDE <= 1.8876\ngini = 0.0713305898491\nsamples = 27", shape="box"] ;
220 -> 228 ;
229 [label="gini = 0.0000\nsamples = 25\nvalue = [  0.   0.  25.   0.   0.]", shape="box"] ;
228 -> 229 ;
230 [label="Shimmer:APQ3 <= 1.1969\ngini = 0.5\nsamples = 2", shape="box"] ;
228 -> 230 ;
231 [label="gini = 0.0000\nsamples = 1\nvalue = [ 0.  1.  0.  0.  0.]", shape="box"] ;
230 -> 231 ;
232 [label="gini = 0.0000\nsamples = 1\nvalue = [ 0.  0.  1.  0.  0.]", shape="box"] ;
230 -> 232 ;
233 [label="gini = 0.0000\nsamples = 2\nvalue = [ 0.  2.  0.  0.  0.]", shape="box"] ;
219 -> 233 ;
234 [label="gini = 0.0000\nsamples = 4\nvalue = [ 0.  4.  0.  0.  0.]", shape="box"] ;
212 -> 234 ;
235 [label="age <= -1.0520\ngini = 0.63564975657\nsamples = 1007", shape="box"] ;
165 -> 235 ;
236 [label="gini = 0.0000\nsamples = 147\nvalue = [   0.  147.    0.    0.    0.]", shape="box"] ;
235 -> 236 ;
237 [label="age <= -0.8257\ngini = 0.666011357491\nsamples = 860", shape="box"] ;
235 -> 237 ;
238 [label="age <= -0.9388\ngini = 0.270048883604\nsamples = 87", shape="box"] ;
237 -> 238 ;
239 [label="gini = 0.0000\nsamples = 14\nvalue = [  0.   0.  14.   0.   0.]", shape="box"] ;
238 -> 239 ;
240 [label="gini = 0.0000\nsamples = 73\nvalue = [ 73.   0.   0.   0.   0.]", shape="box"] ;
238 -> 240 ;
241 [label="age <= -0.0902\ngini = 0.663040622296\nsamples = 773", shape="box"] ;
237 -> 241 ;
242 [label="age <= -0.2599\ngini = 0.644045606243\nsamples = 499", shape="box"] ;
241 -> 242 ;
243 [label="RPDE <= 0.5207\ngini = 0.576620866869\nsamples = 434", shape="box"] ;
242 -> 243 ;
244 [label="age <= -0.7125\ngini = 0.446907439446\nsamples = 272", shape="box"] ;
243 -> 244 ;
245 [label="PPE <= 0.2307\ngini = 0.498380593562\nsamples = 123", shape="box"] ;
244 -> 245 ;
246 [label="Shimmer:APQ5 <= -0.2916\ngini = 0.491716498383\nsamples = 101", shape="box"] ;
245 -> 246 ;
247 [label="sex <= 0.3975\ngini = 0.488521579431\nsamples = 66", shape="box"] ;
246 -> 247 ;
248 [label="gini = 0.0000\nsamples = 25\nvalue = [  0.  25.   0.   0.   0.]", shape="box"] ;
247 -> 248 ;
249 [label="gini = 0.4331\nsamples = 41\nvalue = [ 28.  13.   0.   0.   0.]", shape="box"] ;
247 -> 249 ;
250 [label="DFA <= 0.4723\ngini = 0.284081632653\nsamples = 35", shape="box"] ;
246 -> 250 ;
251 [label="gini = 0.3750\nsamples = 4\nvalue = [ 1.  3.  0.  0.  0.]", shape="box"] ;
250 -> 251 ;
252 [label="gini = 0.1748\nsamples = 31\nvalue = [ 28.   3.   0.   0.   0.]", shape="box"] ;
250 -> 252 ;
253 [label="DFA <= 1.1376\ngini = 0.0867768595041\nsamples = 22", shape="box"] ;
245 -> 253 ;
254 [label="gini = 0.0000\nsamples = 20\nvalue = [  0.  20.   0.   0.   0.]", shape="box"] ;
253 -> 254 ;
255 [label="Jitter(%) <= 0.8069\ngini = 0.5\nsamples = 2", shape="box"] ;
253 -> 255 ;
256 [label="gini = 0.0000\nsamples = 1\nvalue = [ 1.  0.  0.  0.  0.]", shape="box"] ;
255 -> 256 ;
257 [label="gini = 0.0000\nsamples = 1\nvalue = [ 0.  1.  0.  0.  0.]", shape="box"] ;
255 -> 257 ;
258 [label="sex <= 0.3975\ngini = 0.282870140985\nsamples = 149", shape="box"] ;
244 -> 258 ;
259 [label="HNR <= -0.4586\ngini = 0.636049382716\nsamples = 45", shape="box"] ;
258 -> 259 ;
260 [label="PPE <= -0.3016\ngini = 0.476370510397\nsamples = 23", shape="box"] ;
259 -> 260 ;
261 [label="gini = 0.0000\nsamples = 6\nvalue = [ 0.  6.  0.  0.  0.]", shape="box"] ;
260 -> 261 ;
262 [label="gini = 0.4983\nsamples = 17\nvalue = [ 9.  8.  0.  0.  0.]", shape="box"] ;
260 -> 262 ;
263 [label="Jitter(%) <= -0.0005\ngini = 0.49173553719\nsamples = 22", shape="box"] ;
259 -> 263 ;
264 [label="gini = 0.4100\nsamples = 19\nvalue = [  1.   4.  14.   0.   0.]", shape="box"] ;
263 -> 264 ;
265 [label="gini = 0.0000\nsamples = 3\nvalue = [ 0.  3.  0.  0.  0.]", shape="box"] ;
263 -> 265 ;
266 [label="gini = 0.0000\nsamples = 104\nvalue = [   0.  104.    0.    0.    0.]", shape="box"] ;
258 -> 266 ;
267 [label="Shimmer(dB) <= -0.0285\ngini = 0.61034903216\nsamples = 162", shape="box"] ;
243 -> 267 ;
268 [label="age <= -0.7125\ngini = 0.419053819444\nsamples = 96", shape="box"] ;
267 -> 268 ;
269 [label="gini = 0.0000\nsamples = 8\nvalue = [ 0.  8.  0.  0.  0.]", shape="box"] ;
268 -> 269 ;
270 [label="age <= -0.5994\ngini = 0.356146694215\nsamples = 88", shape="box"] ;
268 -> 270 ;
271 [label="sex <= 0.3975\ngini = 0.308390022676\nsamples = 84", shape="box"] ;
270 -> 271 ;
272 [label="gini = 0.2832\nsamples = 82\nvalue = [  0.  14.  68.   0.   0.]", shape="box"] ;
271 -> 272 ;
273 [label="gini = 0.0000\nsamples = 2\nvalue = [ 0.  2.  0.  0.  0.]", shape="box"] ;
271 -> 273 ;
274 [label="Shimmer:APQ11 <= -0.1696\ngini = 0.375\nsamples = 4", shape="box"] ;
270 -> 274 ;
275 [label="gini = 0.0000\nsamples = 1\nvalue = [ 1.  0.  0.  0.  0.]", shape="box"] ;
274 -> 275 ;
276 [label="gini = 0.0000\nsamples = 3\nvalue = [ 0.  3.  0.  0.  0.]", shape="box"] ;
274 -> 276 ;
277 [label="Jitter(Abs) <= 0.9601\ngini = 0.594582185491\nsamples = 66", shape="box"] ;
267 -> 277 ;
278 [label="DFA <= 0.2524\ngini = 0.518950437318\nsamples = 49", shape="box"] ;
277 -> 278 ;
279 [label="gini = 0.0000\nsamples = 6\nvalue = [ 0.  6.  0.  0.  0.]", shape="box"] ;
278 -> 279 ;
280 [label="RPDE <= 1.0017\ngini = 0.518117901568\nsamples = 43", shape="box"] ;
278 -> 280 ;
281 [label="gini = 0.4450\nsamples = 20\nvalue = [ 14.   5.   1.   0.   0.]", shape="box"] ;
280 -> 281 ;
282 [label="gini = 0.4764\nsamples = 23\nvalue = [  9.  14.   0.   0.   0.]", shape="box"] ;
280 -> 282 ;
283 [label="Jitter(Abs) <= 1.9624\ngini = 0.498269896194\nsamples = 17", shape="box"] ;
277 -> 283 ;
284 [label="Shimmer:APQ11 <= 0.1282\ngini = 0.444444444444\nsamples = 12", shape="box"] ;
283 -> 284 ;
285 [label="gini = 0.0000\nsamples = 3\nvalue = [ 0.  3.  0.  0.  0.]", shape="box"] ;
284 -> 285 ;
286 [label="gini = 0.1975\nsamples = 9\nvalue = [ 0.  1.  8.  0.  0.]", shape="box"] ;
284 -> 286 ;
287 [label="gini = 0.0000\nsamples = 5\nvalue = [ 0.  5.  0.  0.  0.]", shape="box"] ;
283 -> 287 ;
288 [label="HNR <= 0.0096\ngini = 0.490414201183\nsamples = 65", shape="box"] ;
242 -> 288 ;
289 [label="RPDE <= -0.1937\ngini = 0.493827160494\nsamples = 45", shape="box"] ;
288 -> 289 ;
290 [label="Shimmer:APQ11 <= 0.0876\ngini = 0.48\nsamples = 20", shape="box"] ;
289 -> 290 ;
291 [label="gini = 0.0000\nsamples = 5\nvalue = [ 0.  0.  0.  5.  0.]", shape="box"] ;
290 -> 291 ;
292 [label="RPDE <= -0.3936\ngini = 0.32\nsamples = 15", shape="box"] ;
290 -> 292 ;
293 [label="gini = 0.0000\nsamples = 8\nvalue = [ 0.  0.  8.  0.  0.]", shape="box"] ;
292 -> 293 ;
294 [label="RPDE <= -0.3306\ngini = 0.489795918367\nsamples = 7", shape="box"] ;
292 -> 294 ;
295 [label="gini = 0.0000\nsamples = 3\nvalue = [ 0.  0.  0.  3.  0.]", shape="box"] ;
294 -> 295 ;
296 [label="gini = 0.0000\nsamples = 4\nvalue = [ 0.  0.  4.  0.  0.]", shape="box"] ;
294 -> 296 ;
297 [label="Shimmer:APQ5 <= 0.3167\ngini = 0.4352\nsamples = 25", shape="box"] ;
289 -> 297 ;
298 [label="HNR <= -0.0584\ngini = 0.444444444444\nsamples = 6", shape="box"] ;
297 -> 298 ;
299 [label="gini = 0.0000\nsamples = 4\nvalue = [ 0.  0.  4.  0.  0.]", shape="box"] ;
298 -> 299 ;
300 [label="gini = 0.0000\nsamples = 2\nvalue = [ 0.  0.  0.  2.  0.]", shape="box"] ;
298 -> 300 ;
301 [label="Shimmer:APQ3 <= 1.8627\ngini = 0.332409972299\nsamples = 19", shape="box"] ;
297 -> 301 ;
302 [label="Jitter(Abs) <= 1.7880\ngini = 0.124444444444\nsamples = 15", shape="box"] ;
301 -> 302 ;
303 [label="gini = 0.0000\nsamples = 14\nvalue = [  0.   0.   0.  14.   0.]", shape="box"] ;
302 -> 303 ;
304 [label="gini = 0.0000\nsamples = 1\nvalue = [ 0.  0.  1.  0.  0.]", shape="box"] ;
302 -> 304 ;
305 [label="Jitter:DDP <= 0.7136\ngini = 0.375\nsamples = 4", shape="box"] ;
301 -> 305 ;
306 [label="gini = 0.0000\nsamples = 3\nvalue = [ 0.  0.  3.  0.  0.]", shape="box"] ;
305 -> 306 ;
307 [label="gini = 0.0000\nsamples = 1\nvalue = [ 0.  0.  0.  1.  0.]", shape="box"] ;
305 -> 307 ;
308 [label="Jitter:PPQ5 <= -0.3541\ngini = 0.255\nsamples = 20", shape="box"] ;
288 -> 308 ;
309 [label="gini = 0.0000\nsamples = 2\nvalue = [ 0.  0.  0.  2.  0.]", shape="box"] ;
308 -> 309 ;
310 [label="RPDE <= -0.4270\ngini = 0.104938271605\nsamples = 18", shape="box"] ;
308 -> 310 ;
311 [label="gini = 0.0000\nsamples = 15\nvalue = [  0.   0.  15.   0.   0.]", shape="box"] ;
310 -> 311 ;
312 [label="RPDE <= -0.2481\ngini = 0.444444444444\nsamples = 3", shape="box"] ;
310 -> 312 ;
313 [label="gini = 0.0000\nsamples = 1\nvalue = [ 0.  0.  0.  1.  0.]", shape="box"] ;
312 -> 313 ;
314 [label="gini = 0.0000\nsamples = 2\nvalue = [ 0.  0.  2.  0.  0.]", shape="box"] ;
312 -> 314 ;
315 [label="age <= 0.0796\ngini = 0.561857317918\nsamples = 274", shape="box"] ;
241 -> 315 ;
316 [label="HNR <= -0.2102\ngini = 0.395736576565\nsamples = 173", shape="box"] ;
315 -> 316 ;
317 [label="Jitter(%) <= 0.3646\ngini = 0.493827160494\nsamples = 81", shape="box"] ;
316 -> 317 ;
318 [label="Shimmer(dB) <= 0.4171\ngini = 0.495\nsamples = 60", shape="box"] ;
317 -> 318 ;
319 [label="DFA <= 0.9820\ngini = 0.47783933518\nsamples = 38", shape="box"] ;
318 -> 319 ;
320 [label="Jitter:DDP <= -0.2022\ngini = 0.499405469679\nsamples = 29", shape="box"] ;
319 -> 320 ;
321 [label="gini = 0.0000\nsamples = 4\nvalue = [ 0.  4.  0.  0.  0.]", shape="box"] ;
320 -> 321 ;
322 [label="gini = 0.4928\nsamples = 25\nvalue = [ 14.  11.   0.   0.   0.]", shape="box"] ;
320 -> 322 ;
323 [label="gini = 0.0000\nsamples = 9\nvalue = [ 9.  0.  0.  0.  0.]", shape="box"] ;
319 -> 323 ;
324 [label="RPDE <= 0.5473\ngini = 0.297520661157\nsamples = 22", shape="box"] ;
318 -> 324 ;
325 [label="RPDE <= 0.4855\ngini = 0.48\nsamples = 10", shape="box"] ;
324 -> 325 ;
326 [label="gini = 0.3750\nsamples = 8\nvalue = [ 2.  6.  0.  0.  0.]", shape="box"] ;
325 -> 326 ;
327 [label="gini = 0.0000\nsamples = 2\nvalue = [ 2.  0.  0.  0.  0.]", shape="box"] ;
325 -> 327 ;
328 [label="gini = 0.0000\nsamples = 12\nvalue = [  0.  12.   0.   0.   0.]", shape="box"] ;
324 -> 328 ;
329 [label="HNR <= -1.3463\ngini = 0.244897959184\nsamples = 21", shape="box"] ;
317 -> 329 ;
330 [label="gini = 0.0000\nsamples = 1\nvalue = [ 0.  1.  0.  0.  0.]", shape="box"] ;
329 -> 330 ;
331 [label="Shimmer:APQ3 <= -0.0436\ngini = 0.18\nsamples = 20", shape="box"] ;
329 -> 331 ;
332 [label="DFA <= 0.7947\ngini = 0.48\nsamples = 5", shape="box"] ;
331 -> 332 ;
333 [label="gini = 0.0000\nsamples = 2\nvalue = [ 0.  2.  0.  0.  0.]", shape="box"] ;
332 -> 333 ;
334 [label="gini = 0.0000\nsamples = 3\nvalue = [ 3.  0.  0.  0.  0.]", shape="box"] ;
332 -> 334 ;
335 [label="gini = 0.0000\nsamples = 15\nvalue = [ 15.   0.   0.   0.   0.]", shape="box"] ;
331 -> 335 ;
336 [label="RPDE <= 0.0886\ngini = 0.210538752363\nsamples = 92", shape="box"] ;
316 -> 336 ;
337 [label="RPDE <= -1.9467\ngini = 0.0980975029727\nsamples = 58", shape="box"] ;
336 -> 337 ;
338 [label="Shimmer(dB) <= 0.1790\ngini = 0.5\nsamples = 2", shape="box"] ;
337 -> 338 ;
339 [label="gini = 0.0000\nsamples = 1\nvalue = [ 1.  0.  0.  0.  0.]", shape="box"] ;
338 -> 339 ;
340 [label="gini = 0.0000\nsamples = 1\nvalue = [ 0.  1.  0.  0.  0.]", shape="box"] ;
338 -> 340 ;
341 [label="NHR <= -0.3665\ngini = 0.0688775510204\nsamples = 56", shape="box"] ;
337 -> 341 ;
342 [label="HNR <= 0.3482\ngini = 0.260355029586\nsamples = 13", shape="box"] ;
341 -> 342 ;
343 [label="gini = 0.0000\nsamples = 2\nvalue = [ 0.  2.  0.  0.  0.]", shape="box"] ;
342 -> 343 ;
344 [label="gini = 0.0000\nsamples = 11\nvalue = [ 11.   0.   0.   0.   0.]", shape="box"] ;
342 -> 344 ;
345 [label="gini = 0.0000\nsamples = 43\nvalue = [ 43.   0.   0.   0.   0.]", shape="box"] ;
341 -> 345 ;
346 [label="Jitter:DDP <= -0.1703\ngini = 0.359861591696\nsamples = 34", shape="box"] ;
336 -> 346 ;
347 [label="DFA <= 0.2994\ngini = 0.487534626039\nsamples = 19", shape="box"] ;
346 -> 347 ;
348 [label="gini = 0.0000\nsamples = 7\nvalue = [ 7.  0.  0.  0.  0.]", shape="box"] ;
347 -> 348 ;
349 [label="Jitter(%) <= -0.3474\ngini = 0.444444444444\nsamples = 12", shape="box"] ;
347 -> 349 ;
350 [label="gini = 0.4444\nsamples = 6\nvalue = [ 4.  2.  0.  0.  0.]", shape="box"] ;
349 -> 350 ;
351 [label="gini = 0.0000\nsamples = 6\nvalue = [ 0.  6.  0.  0.  0.]", shape="box"] ;
349 -> 351 ;
352 [label="gini = 0.0000\nsamples = 15\nvalue = [ 15.   0.   0.   0.   0.]", shape="box"] ;
346 -> 352 ;
353 [label="DFA <= 0.4156\ngini = 0.679345162239\nsamples = 101", shape="box"] ;
315 -> 353 ;
354 [label="age <= 0.1927\ngini = 0.496769881934\nsamples = 67", shape="box"] ;
353 -> 354 ;
355 [label="sex <= 0.3975\ngini = 0.551984877127\nsamples = 23", shape="box"] ;
354 -> 355 ;
356 [label="Jitter:PPQ5 <= 2.7262\ngini = 0.489795918367\nsamples = 14", shape="box"] ;
355 -> 356 ;
357 [label="PPE <= -1.0589\ngini = 0.32\nsamples = 10", shape="box"] ;
356 -> 357 ;
358 [label="gini = 0.0000\nsamples = 1\nvalue = [ 0.  0.  1.  0.  0.]", shape="box"] ;
357 -> 358 ;
359 [label="gini = 0.1975\nsamples = 9\nvalue = [ 0.  0.  1.  8.  0.]", shape="box"] ;
357 -> 359 ;
360 [label="gini = 0.0000\nsamples = 4\nvalue = [ 0.  0.  4.  0.  0.]", shape="box"] ;
356 -> 360 ;
361 [label="PPE <= 0.0595\ngini = 0.345679012346\nsamples = 9", shape="box"] ;
355 -> 361 ;
362 [label="gini = 0.0000\nsamples = 7\nvalue = [ 0.  0.  7.  0.  0.]", shape="box"] ;
361 -> 362 ;
363 [label="gini = 0.0000\nsamples = 2\nvalue = [ 0.  2.  0.  0.  0.]", shape="box"] ;
361 -> 363 ;
364 [label="DFA <= 0.2953\ngini = 0.0444214876033\nsamples = 44", shape="box"] ;
354 -> 364 ;
365 [label="gini = 0.0000\nsamples = 41\nvalue = [  0.  41.   0.   0.   0.]", shape="box"] ;
364 -> 365 ;
366 [label="Shimmer(dB) <= 0.0589\ngini = 0.444444444444\nsamples = 3", shape="box"] ;
364 -> 366 ;
367 [label="gini = 0.0000\nsamples = 2\nvalue = [ 0.  2.  0.  0.  0.]", shape="box"] ;
366 -> 367 ;
368 [label="gini = 0.0000\nsamples = 1\nvalue = [ 1.  0.  0.  0.  0.]", shape="box"] ;
366 -> 368 ;
369 [label="age <= 0.1927\ngini = 0.299307958478\nsamples = 34", shape="box"] ;
353 -> 369 ;
370 [label="Jitter:RAP <= 4.5713\ngini = 0.277777777778\nsamples = 6", shape="box"] ;
369 -> 370 ;
371 [label="gini = 0.0000\nsamples = 5\nvalue = [ 0.  0.  5.  0.  0.]", shape="box"] ;
370 -> 371 ;
372 [label="gini = 0.0000\nsamples = 1\nvalue = [ 0.  0.  0.  1.  0.]", shape="box"] ;
370 -> 372 ;
373 [label="gini = 0.0000\nsamples = 28\nvalue = [ 28.   0.   0.   0.   0.]", shape="box"] ;
369 -> 373 ;
374 [label="age <= -0.8257\ngini = 0.627283287935\nsamples = 316", shape="box"] ;
4 -> 374 ;
375 [label="sex <= 0.3975\ngini = 0.490518445115\nsamples = 149", shape="box"] ;
374 -> 375 ;
376 [label="Shimmer:APQ11 <= -0.7741\ngini = 0.25350837483\nsamples = 47", shape="box"] ;
375 -> 376 ;
377 [label="PPE <= -1.3453\ngini = 0.0512465373961\nsamples = 38", shape="box"] ;
376 -> 377 ;
378 [label="NHR <= -0.4335\ngini = 0.375\nsamples = 4", shape="box"] ;
377 -> 378 ;
379 [label="gini = 0.0000\nsamples = 3\nvalue = [ 0.  0.  3.  0.  0.]", shape="box"] ;
378 -> 379 ;
380 [label="gini = 0.0000\nsamples = 1\nvalue = [ 0.  1.  0.  0.  0.]", shape="box"] ;
378 -> 380 ;
381 [label="gini = 0.0000\nsamples = 34\nvalue = [  0.   0.  34.   0.   0.]", shape="box"] ;
377 -> 381 ;
382 [label="age <= -0.9954\ngini = 0.444444444444\nsamples = 9", shape="box"] ;
376 -> 382 ;
383 [label="gini = 0.0000\nsamples = 6\nvalue = [ 0.  6.  0.  0.  0.]", shape="box"] ;
382 -> 383 ;
384 [label="gini = 0.0000\nsamples = 3\nvalue = [ 0.  0.  3.  0.  0.]", shape="box"] ;
382 -> 384 ;
385 [label="age <= -0.9388\ngini = 0.0943867743176\nsamples = 102", shape="box"] ;
375 -> 385 ;
386 [label="DFA <= -1.5329\ngini = 0.48\nsamples = 5", shape="box"] ;
385 -> 386 ;
387 [label="gini = 0.0000\nsamples = 2\nvalue = [ 0.  0.  0.  2.  0.]", shape="box"] ;
386 -> 387 ;
388 [label="gini = 0.0000\nsamples = 3\nvalue = [ 0.  0.  3.  0.  0.]", shape="box"] ;
386 -> 388 ;
389 [label="gini = 0.0000\nsamples = 97\nvalue = [ 97.   0.   0.   0.   0.]", shape="box"] ;
385 -> 389 ;
390 [label="Shimmer:APQ11 <= -0.8116\ngini = 0.596005593603\nsamples = 167", shape="box"] ;
374 -> 390 ;
391 [label="age <= 0.0796\ngini = 0.503997979968\nsamples = 109", shape="box"] ;
390 -> 391 ;
392 [label="Shimmer:APQ11 <= -1.1444\ngini = 0.411150746466\nsamples = 87", shape="box"] ;
391 -> 392 ;
393 [label="gini = 0.0000\nsamples = 7\nvalue = [ 7.  0.  0.  0.  0.]", shape="box"] ;
392 -> 393 ;
394 [label="Shimmer <= -0.7875\ngini = 0.3440625\nsamples = 80", shape="box"] ;
392 -> 394 ;
395 [label="HNR <= 1.3368\ngini = 0.262731481481\nsamples = 72", shape="box"] ;
394 -> 395 ;
396 [label="gini = 0.0000\nsamples = 2\nvalue = [ 2.  0.  0.  0.  0.]", shape="box"] ;
395 -> 396 ;
397 [label="DFA <= -1.3492\ngini = 0.227346938776\nsamples = 70", shape="box"] ;
395 -> 397 ;
398 [label="NHR <= -0.2591\ngini = 0.0475907198096\nsamples = 41", shape="box"] ;
397 -> 398 ;
399 [label="gini = 0.0000\nsamples = 39\nvalue = [  0.  39.   0.   0.   0.]", shape="box"] ;
398 -> 399 ;
400 [label="Shimmer:APQ5 <= -0.8969\ngini = 0.5\nsamples = 2", shape="box"] ;
398 -> 400 ;
401 [label="gini = 0.0000\nsamples = 1\nvalue = [ 0.  1.  0.  0.  0.]", shape="box"] ;
400 -> 401 ;
402 [label="gini = 0.0000\nsamples = 1\nvalue = [ 0.  0.  1.  0.  0.]", shape="box"] ;
400 -> 402 ;
403 [label="RPDE <= -1.0242\ngini = 0.399524375743\nsamples = 29", shape="box"] ;
397 -> 403 ;
404 [label="DFA <= -0.3810\ngini = 0.5\nsamples = 16", shape="box"] ;
403 -> 404 ;
405 [label="Jitter:RAP <= -0.7532\ngini = 0.396694214876\nsamples = 11", shape="box"] ;
404 -> 405 ;
406 [label="gini = 0.0000\nsamples = 2\nvalue = [ 0.  2.  0.  0.  0.]", shape="box"] ;
405 -> 406 ;
407 [label="Shimmer <= -0.9176\ngini = 0.197530864198\nsamples = 9", shape="box"] ;
405 -> 407 ;
408 [label="gini = 0.0000\nsamples = 7\nvalue = [ 7.  0.  0.  0.  0.]", shape="box"] ;
407 -> 408 ;
409 [label="gini = 0.5000\nsamples = 2\nvalue = [ 1.  1.  0.  0.  0.]", shape="box"] ;
407 -> 409 ;
410 [label="gini = 0.0000\nsamples = 5\nvalue = [ 0.  5.  0.  0.  0.]", shape="box"] ;
404 -> 410 ;
411 [label="gini = 0.0000\nsamples = 13\nvalue = [  0.  13.   0.   0.   0.]", shape="box"] ;
403 -> 411 ;
412 [label="RPDE <= -0.6343\ngini = 0.53125\nsamples = 8", shape="box"] ;
394 -> 412 ;
413 [label="gini = 0.0000\nsamples = 4\nvalue = [ 4.  0.  0.  0.  0.]", shape="box"] ;
412 -> 413 ;
414 [label="PPE <= -1.3572\ngini = 0.625\nsamples = 4", shape="box"] ;
412 -> 414 ;
415 [label="Jitter(%) <= -0.8051\ngini = 0.5\nsamples = 2", shape="box"] ;
414 -> 415 ;
416 [label="gini = 0.0000\nsamples = 1\nvalue = [ 0.  0.  1.  0.  0.]", shape="box"] ;
415 -> 416 ;
417 [label="gini = 0.0000\nsamples = 1\nvalue = [ 1.  0.  0.  0.  0.]", shape="box"] ;
415 -> 417 ;
418 [label="gini = 0.0000\nsamples = 2\nvalue = [ 0.  2.  0.  0.  0.]", shape="box"] ;
414 -> 418 ;
419 [label="Jitter:DDP <= -0.6055\ngini = 0.48347107438\nsamples = 22", shape="box"] ;
391 -> 419 ;
420 [label="Jitter(Abs) <= -1.0171\ngini = 0.336734693878\nsamples = 14", shape="box"] ;
419 -> 420 ;
421 [label="gini = 0.0000\nsamples = 2\nvalue = [ 0.  2.  0.  0.  0.]", shape="box"] ;
420 -> 421 ;
422 [label="HNR <= 1.4151\ngini = 0.152777777778\nsamples = 12", shape="box"] ;
420 -> 422 ;
423 [label="gini = 0.0000\nsamples = 1\nvalue = [ 0.  1.  0.  0.  0.]", shape="box"] ;
422 -> 423 ;
424 [label="gini = 0.0000\nsamples = 11\nvalue = [  0.   0.  11.   0.   0.]", shape="box"] ;
422 -> 424 ;
425 [label="Shimmer:APQ11 <= -0.9237\ngini = 0.375\nsamples = 8", shape="box"] ;
419 -> 425 ;
426 [label="DFA <= -1.1824\ngini = 0.444444444444\nsamples = 3", shape="box"] ;
425 -> 426 ;
427 [label="gini = 0.0000\nsamples = 1\nvalue = [ 0.  1.  0.  0.  0.]", shape="box"] ;
426 -> 427 ;
428 [label="gini = 0.0000\nsamples = 2\nvalue = [ 0.  0.  2.  0.  0.]", shape="box"] ;
426 -> 428 ;
429 [label="gini = 0.0000\nsamples = 5\nvalue = [ 0.  5.  0.  0.  0.]", shape="box"] ;
425 -> 429 ;
430 [label="age <= 0.0796\ngini = 0.509512485137\nsamples = 58", shape="box"] ;
390 -> 430 ;
431 [label="DFA <= -1.4904\ngini = 0.329861111111\nsamples = 48", shape="box"] ;
430 -> 431 ;
432 [label="gini = 0.0000\nsamples = 2\nvalue = [ 0.  2.  0.  0.  0.]", shape="box"] ;
431 -> 432 ;
433 [label="RPDE <= 0.0497\ngini = 0.287334593573\nsamples = 46", shape="box"] ;
431 -> 433 ;
434 [label="Jitter:DDP <= -0.0561\ngini = 0.209750566893\nsamples = 42", shape="box"] ;
433 -> 434 ;
435 [label="HNR <= 1.6790\ngini = 0.176085663296\nsamples = 41", shape="box"] ;
434 -> 435 ;
436 [label="PPE <= -0.5299\ngini = 0.058769513315\nsamples = 33", shape="box"] ;
435 -> 436 ;
437 [label="gini = 0.0000\nsamples = 31\nvalue = [ 31.   0.   0.   0.   0.]", shape="box"] ;
436 -> 437 ;
438 [label="Shimmer(dB) <= -0.5331\ngini = 0.5\nsamples = 2", shape="box"] ;
436 -> 438 ;
439 [label="gini = 0.0000\nsamples = 1\nvalue = [ 0.  1.  0.  0.  0.]", shape="box"] ;
438 -> 439 ;
440 [label="gini = 0.0000\nsamples = 1\nvalue = [ 1.  0.  0.  0.  0.]", shape="box"] ;
438 -> 440 ;
441 [label="DFA <= -0.8137\ngini = 0.46875\nsamples = 8", shape="box"] ;
435 -> 441 ;
442 [label="gini = 0.0000\nsamples = 4\nvalue = [ 4.  0.  0.  0.  0.]", shape="box"] ;
441 -> 442 ;
443 [label="Jitter(%) <= -0.7370\ngini = 0.375\nsamples = 4", shape="box"] ;
441 -> 443 ;
444 [label="gini = 0.0000\nsamples = 1\nvalue = [ 1.  0.  0.  0.  0.]", shape="box"] ;
443 -> 444 ;
445 [label="gini = 0.0000\nsamples = 3\nvalue = [ 0.  3.  0.  0.  0.]", shape="box"] ;
443 -> 445 ;
446 [label="gini = 0.0000\nsamples = 1\nvalue = [ 0.  1.  0.  0.  0.]", shape="box"] ;
434 -> 446 ;
447 [label="Shimmer:DDA <= -0.5659\ngini = 0.375\nsamples = 4", shape="box"] ;
433 -> 447 ;
448 [label="gini = 0.0000\nsamples = 3\nvalue = [ 0.  3.  0.  0.  0.]", shape="box"] ;
447 -> 448 ;
449 [label="gini = 0.0000\nsamples = 1\nvalue = [ 1.  0.  0.  0.  0.]", shape="box"] ;
447 -> 449 ;
450 [label="NHR <= -0.4721\ngini = 0.54\nsamples = 10", shape="box"] ;
430 -> 450 ;
451 [label="gini = 0.0000\nsamples = 5\nvalue = [ 0.  0.  5.  0.  0.]", shape="box"] ;
450 -> 451 ;
452 [label="Jitter:PPQ5 <= -0.4323\ngini = 0.56\nsamples = 5", shape="box"] ;
450 -> 452 ;
453 [label="gini = 0.0000\nsamples = 3\nvalue = [ 0.  3.  0.  0.  0.]", shape="box"] ;
452 -> 453 ;
454 [label="Jitter:DDP <= -0.2612\ngini = 0.5\nsamples = 2", shape="box"] ;
452 -> 454 ;
455 [label="gini = 0.0000\nsamples = 1\nvalue = [ 0.  0.  0.  1.  0.]", shape="box"] ;
454 -> 455 ;
456 [label="gini = 0.0000\nsamples = 1\nvalue = [ 0.  0.  1.  0.  0.]", shape="box"] ;
454 -> 456 ;
457 [label="age <= -0.9954\ngini = 0.524919262225\nsamples = 397", shape="box"] ;
1 -> 457 ;
458 [label="age <= -1.4480\ngini = 0.560758402758\nsamples = 59", shape="box"] ;
457 -> 458 ;
459 [label="HNR <= -0.3801\ngini = 0.347750865052\nsamples = 34", shape="box"] ;
458 -> 459 ;
460 [label="gini = 0.0000\nsamples = 20\nvalue = [  0.   0.  20.   0.   0.]", shape="box"] ;
459 -> 460 ;
461 [label="Shimmer:APQ11 <= -0.5493\ngini = 0.622448979592\nsamples = 14", shape="box"] ;
459 -> 461 ;
462 [label="gini = 0.0000\nsamples = 5\nvalue = [ 0.  0.  5.  0.  0.]", shape="box"] ;
461 -> 462 ;
463 [label="Jitter(Abs) <= 0.2370\ngini = 0.641975308642\nsamples = 9", shape="box"] ;
461 -> 463 ;
464 [label="DFA <= 1.3040\ngini = 0.32\nsamples = 5", shape="box"] ;
463 -> 464 ;
465 [label="gini = 0.0000\nsamples = 1\nvalue = [ 0.  0.  1.  0.  0.]", shape="box"] ;
464 -> 465 ;
466 [label="gini = 0.0000\nsamples = 4\nvalue = [ 0.  0.  0.  4.  0.]", shape="box"] ;
464 -> 466 ;
467 [label="NHR <= -0.1647\ngini = 0.375\nsamples = 4", shape="box"] ;
463 -> 467 ;
468 [label="gini = 0.0000\nsamples = 3\nvalue = [ 0.  3.  0.  0.  0.]", shape="box"] ;
467 -> 468 ;
469 [label="gini = 0.0000\nsamples = 1\nvalue = [ 0.  0.  1.  0.  0.]", shape="box"] ;
467 -> 469 ;
470 [label="gini = 0.0000\nsamples = 25\nvalue = [  0.  25.   0.   0.   0.]", shape="box"] ;
458 -> 470 ;
471 [label="Shimmer:APQ3 <= -0.7520\ngini = 0.39872553482\nsamples = 338", shape="box"] ;
457 -> 471 ;
472 [label="age <= -0.2033\ngini = 0.584444444444\nsamples = 30", shape="box"] ;
471 -> 472 ;
473 [label="Shimmer:APQ3 <= -0.8742\ngini = 0.4576\nsamples = 25", shape="box"] ;
472 -> 473 ;
474 [label="DFA <= 1.5949\ngini = 0.244897959184\nsamples = 7", shape="box"] ;
473 -> 474 ;
475 [label="gini = 0.0000\nsamples = 6\nvalue = [ 0.  6.  0.  0.  0.]", shape="box"] ;
474 -> 475 ;
476 [label="gini = 0.0000\nsamples = 1\nvalue = [ 0.  0.  1.  0.  0.]", shape="box"] ;
474 -> 476 ;
477 [label="RPDE <= 1.5171\ngini = 0.203703703704\nsamples = 18", shape="box"] ;
473 -> 477 ;
478 [label="gini = 0.0000\nsamples = 16\nvalue = [  0.   0.  16.   0.   0.]", shape="box"] ;
477 -> 478 ;
479 [label="Shimmer:APQ3 <= -0.7979\ngini = 0.5\nsamples = 2", shape="box"] ;
477 -> 479 ;
480 [label="gini = 0.0000\nsamples = 1\nvalue = [ 1.  0.  0.  0.  0.]", shape="box"] ;
479 -> 480 ;
481 [label="gini = 0.0000\nsamples = 1\nvalue = [ 0.  1.  0.  0.  0.]", shape="box"] ;
479 -> 481 ;
482 [label="gini = 0.0000\nsamples = 5\nvalue = [ 5.  0.  0.  0.  0.]", shape="box"] ;
472 -> 482 ;
483 [label="age <= -0.2599\ngini = 0.321533985495\nsamples = 308", shape="box"] ;
471 -> 483 ;
484 [label="age <= -0.7125\ngini = 0.412024793388\nsamples = 220", shape="box"] ;
483 -> 484 ;
485 [label="Shimmer:APQ5 <= -0.2556\ngini = 0.217294633736\nsamples = 129", shape="box"] ;
484 -> 485 ;
486 [label="sex <= 0.3975\ngini = 0.444444444444\nsamples = 24", shape="box"] ;
485 -> 486 ;
487 [label="RPDE <= -0.1614\ngini = 0.197530864198\nsamples = 9", shape="box"] ;
486 -> 487 ;
488 [label="gini = 0.0000\nsamples = 8\nvalue = [ 0.  8.  0.  0.  0.]", shape="box"] ;
487 -> 488 ;
489 [label="gini = 0.0000\nsamples = 1\nvalue = [ 1.  0.  0.  0.  0.]", shape="box"] ;
487 -> 489 ;
490 [label="gini = 0.0000\nsamples = 15\nvalue = [ 15.   0.   0.   0.   0.]", shape="box"] ;
486 -> 490 ;
491 [label="RPDE <= 1.1777\ngini = 0.140770975057\nsamples = 105", shape="box"] ;
485 -> 491 ;
492 [label="Shimmer:APQ11 <= -0.0079\ngini = 0.126684890188\nsamples = 103", shape="box"] ;
491 -> 492 ;
493 [label="Shimmer(dB) <= 0.2686\ngini = 0.270551508845\nsamples = 31", shape="box"] ;
492 -> 493 ;
494 [label="Shimmer:APQ11 <= -0.0133\ngini = 0.191326530612\nsamples = 28", shape="box"] ;
493 -> 494 ;
495 [label="PPE <= 0.0123\ngini = 0.137174211248\nsamples = 27", shape="box"] ;
494 -> 495 ;
496 [label="gini = 0.0000\nsamples = 17\nvalue = [ 17.   0.   0.   0.   0.]", shape="box"] ;
495 -> 496 ;
497 [label="PPE <= 0.0728\ngini = 0.32\nsamples = 10", shape="box"] ;
495 -> 497 ;
498 [label="gini = 0.0000\nsamples = 2\nvalue = [ 0.  2.  0.  0.  0.]", shape="box"] ;
497 -> 498 ;
499 [label="gini = 0.0000\nsamples = 8\nvalue = [ 8.  0.  0.  0.  0.]", shape="box"] ;
497 -> 499 ;
500 [label="gini = 0.0000\nsamples = 1\nvalue = [ 0.  1.  0.  0.  0.]", shape="box"] ;
494 -> 500 ;
501 [label="NHR <= -0.0369\ngini = 0.444444444444\nsamples = 3", shape="box"] ;
493 -> 501 ;
502 [label="gini = 0.0000\nsamples = 2\nvalue = [ 0.  2.  0.  0.  0.]", shape="box"] ;
501 -> 502 ;
503 [label="gini = 0.0000\nsamples = 1\nvalue = [ 1.  0.  0.  0.  0.]", shape="box"] ;
501 -> 503 ;
504 [label="Jitter(%) <= -0.2811\ngini = 0.054012345679\nsamples = 72", shape="box"] ;
492 -> 504 ;
505 [label="sex <= 0.3975\ngini = 0.277777777778\nsamples = 6", shape="box"] ;
504 -> 505 ;
506 [label="gini = 0.0000\nsamples = 1\nvalue = [ 0.  1.  0.  0.  0.]", shape="box"] ;
505 -> 506 ;
507 [label="gini = 0.0000\nsamples = 5\nvalue = [ 5.  0.  0.  0.  0.]", shape="box"] ;
505 -> 507 ;
508 [label="PPE <= -0.1402\ngini = 0.0298438934803\nsamples = 66", shape="box"] ;
504 -> 508 ;
509 [label="PPE <= -0.1617\ngini = 0.165289256198\nsamples = 11", shape="box"] ;
508 -> 509 ;
510 [label="gini = 0.0000\nsamples = 10\nvalue = [ 10.   0.   0.   0.   0.]", shape="box"] ;
509 -> 510 ;
511 [label="gini = 0.0000\nsamples = 1\nvalue = [ 0.  1.  0.  0.  0.]", shape="box"] ;
509 -> 511 ;
512 [label="gini = 0.0000\nsamples = 55\nvalue = [ 55.   0.   0.   0.   0.]", shape="box"] ;
508 -> 512 ;
513 [label="Jitter:DDP <= 1.2083\ngini = 0.5\nsamples = 2", shape="box"] ;
491 -> 513 ;
514 [label="gini = 0.0000\nsamples = 1\nvalue = [ 1.  0.  0.  0.  0.]", shape="box"] ;
513 -> 514 ;
515 [label="gini = 0.0000\nsamples = 1\nvalue = [ 0.  1.  0.  0.  0.]", shape="box"] ;
513 -> 515 ;
516 [label="age <= -0.5994\ngini = 0.562009419152\nsamples = 91", shape="box"] ;
484 -> 516 ;
517 [label="RPDE <= 0.6651\ngini = 0.5\nsamples = 14", shape="box"] ;
516 -> 517 ;
518 [label="Shimmer:APQ3 <= -0.7383\ngini = 0.277777777778\nsamples = 6", shape="box"] ;
517 -> 518 ;
519 [label="gini = 0.0000\nsamples = 1\nvalue = [ 0.  0.  1.  0.  0.]", shape="box"] ;
518 -> 519 ;
520 [label="gini = 0.0000\nsamples = 5\nvalue = [ 0.  5.  0.  0.  0.]", shape="box"] ;
518 -> 520 ;
521 [label="Shimmer:APQ5 <= -0.6535\ngini = 0.375\nsamples = 8", shape="box"] ;
517 -> 521 ;
522 [label="gini = 0.0000\nsamples = 1\nvalue = [ 0.  1.  0.  0.  0.]", shape="box"] ;
521 -> 522 ;
523 [label="HNR <= -0.9761\ngini = 0.244897959184\nsamples = 7", shape="box"] ;
521 -> 523 ;
524 [label="Jitter:DDP <= 1.3063\ngini = 0.5\nsamples = 2", shape="box"] ;
523 -> 524 ;
525 [label="gini = 0.0000\nsamples = 1\nvalue = [ 0.  1.  0.  0.  0.]", shape="box"] ;
524 -> 525 ;
526 [label="gini = 0.0000\nsamples = 1\nvalue = [ 0.  0.  1.  0.  0.]", shape="box"] ;
524 -> 526 ;
527 [label="gini = 0.0000\nsamples = 5\nvalue = [ 0.  0.  5.  0.  0.]", shape="box"] ;
523 -> 527 ;
528 [label="Jitter:DDP <= -0.0734\ngini = 0.475628267836\nsamples = 77", shape="box"] ;
516 -> 528 ;
529 [label="Jitter(Abs) <= -0.0268\ngini = 0.499791753436\nsamples = 49", shape="box"] ;
528 -> 529 ;
530 [label="Shimmer:APQ11 <= -0.0230\ngini = 0.355029585799\nsamples = 13", shape="box"] ;
529 -> 530 ;
531 [label="Shimmer:APQ11 <= -0.2000\ngini = 0.444444444444\nsamples = 3", shape="box"] ;
530 -> 531 ;
532 [label="gini = 0.0000\nsamples = 1\nvalue = [ 1.  0.  0.  0.  0.]", shape="box"] ;
531 -> 532 ;
533 [label="gini = 0.0000\nsamples = 2\nvalue = [ 0.  2.  0.  0.  0.]", shape="box"] ;
531 -> 533 ;
534 [label="RPDE <= -0.6888\ngini = 0.18\nsamples = 10", shape="box"] ;
530 -> 534 ;
535 [label="gini = 0.0000\nsamples = 1\nvalue = [ 0.  1.  0.  0.  0.]", shape="box"] ;
534 -> 535 ;
536 [label="gini = 0.0000\nsamples = 9\nvalue = [ 9.  0.  0.  0.  0.]", shape="box"] ;
534 -> 536 ;
537 [label="DFA <= 1.7293\ngini = 0.486111111111\nsamples = 36", shape="box"] ;
529 -> 537 ;
538 [label="DFA <= 1.3129\ngini = 0.451171875\nsamples = 32", shape="box"] ;
537 -> 538 ;
539 [label="gini = 0.0000\nsamples = 2\nvalue = [ 2.  0.  0.  0.  0.]", shape="box"] ;
538 -> 539 ;
540 [label="DFA <= 1.4439\ngini = 0.42\nsamples = 30", shape="box"] ;
538 -> 540 ;
541 [label="gini = 0.0000\nsamples = 8\nvalue = [ 0.  8.  0.  0.  0.]", shape="box"] ;
540 -> 541 ;
542 [label="Shimmer:APQ11 <= -0.2424\ngini = 0.48347107438\nsamples = 22", shape="box"] ;
540 -> 542 ;
543 [label="gini = 0.0000\nsamples = 3\nvalue = [ 3.  0.  0.  0.  0.]", shape="box"] ;
542 -> 543 ;
544 [label="RPDE <= 0.6144\ngini = 0.432132963989\nsamples = 19", shape="box"] ;
542 -> 544 ;
545 [label="Jitter(%) <= -0.1294\ngini = 0.18\nsamples = 10", shape="box"] ;
544 -> 545 ;
546 [label="gini = 0.0000\nsamples = 9\nvalue = [ 0.  9.  0.  0.  0.]", shape="box"] ;
545 -> 546 ;
547 [label="gini = 0.0000\nsamples = 1\nvalue = [ 1.  0.  0.  0.  0.]", shape="box"] ;
545 -> 547 ;
548 [label="Jitter:PPQ5 <= -0.0992\ngini = 0.493827160494\nsamples = 9", shape="box"] ;
544 -> 548 ;
549 [label="gini = 0.0000\nsamples = 4\nvalue = [ 4.  0.  0.  0.  0.]", shape="box"] ;
548 -> 549 ;
550 [label="gini = 0.3200\nsamples = 5\nvalue = [ 1.  4.  0.  0.  0.]", shape="box"] ;
548 -> 550 ;
551 [label="gini = 0.0000\nsamples = 4\nvalue = [ 4.  0.  0.  0.  0.]", shape="box"] ;
537 -> 551 ;
552 [label="PPE <= 1.0273\ngini = 0.336734693878\nsamples = 28", shape="box"] ;
528 -> 552 ;
553 [label="Shimmer:APQ5 <= 1.0580\ngini = 0.2688\nsamples = 25", shape="box"] ;
552 -> 553 ;
554 [label="RPDE <= 0.0287\ngini = 0.0997229916898\nsamples = 19", shape="box"] ;
553 -> 554 ;
555 [label="Jitter(%) <= 0.2184\ngini = 0.444444444444\nsamples = 3", shape="box"] ;
554 -> 555 ;
556 [label="gini = 0.0000\nsamples = 2\nvalue = [ 2.  0.  0.  0.  0.]", shape="box"] ;
555 -> 556 ;
557 [label="gini = 0.0000\nsamples = 1\nvalue = [ 0.  1.  0.  0.  0.]", shape="box"] ;
555 -> 557 ;
558 [label="gini = 0.0000\nsamples = 16\nvalue = [ 16.   0.   0.   0.   0.]", shape="box"] ;
554 -> 558 ;
559 [label="Shimmer(dB) <= 1.3214\ngini = 0.5\nsamples = 6", shape="box"] ;
553 -> 559 ;
560 [label="gini = 0.0000\nsamples = 3\nvalue = [ 0.  3.  0.  0.  0.]", shape="box"] ;
559 -> 560 ;
561 [label="gini = 0.0000\nsamples = 3\nvalue = [ 3.  0.  0.  0.  0.]", shape="box"] ;
559 -> 561 ;
562 [label="Shimmer <= 1.0130\ngini = 0.444444444444\nsamples = 3", shape="box"] ;
552 -> 562 ;
563 [label="gini = 0.0000\nsamples = 2\nvalue = [ 0.  2.  0.  0.  0.]", shape="box"] ;
562 -> 563 ;
564 [label="gini = 0.0000\nsamples = 1\nvalue = [ 1.  0.  0.  0.  0.]", shape="box"] ;
562 -> 564 ;
565 [label="gini = 0.0000\nsamples = 88\nvalue = [ 88.   0.   0.   0.   0.]", shape="box"] ;
483 -> 565 ;
566 [label="age <= 0.7585\ngini = 0.652280298808\nsamples = 1976", shape="box"] ;
0 -> 566 ;
567 [label="age <= 0.5322\ngini = 0.607107940283\nsamples = 435", shape="box"] ;
566 -> 567 ;
568 [label="sex <= 0.3975\ngini = 0.622707238198\nsamples = 283", shape="box"] ;
567 -> 568 ;
569 [label="gini = 0.0000\nsamples = 142\nvalue = [   0.  142.    0.    0.    0.]", shape="box"] ;
568 -> 569 ;
570 [label="DFA <= 0.9019\ngini = 0.494341330919\nsamples = 141", shape="box"] ;
568 -> 570 ;
571 [label="RPDE <= -0.1839\ngini = 0.461001542083\nsamples = 111", shape="box"] ;
570 -> 571 ;
572 [label="DFA <= 0.7744\ngini = 0.244897959184\nsamples = 14", shape="box"] ;
571 -> 572 ;
573 [label="gini = 0.0000\nsamples = 12\nvalue = [  0.   0.  12.   0.   0.]", shape="box"] ;
572 -> 573 ;
574 [label="gini = 0.0000\nsamples = 2\nvalue = [ 0.  0.  0.  2.  0.]", shape="box"] ;
572 -> 574 ;
575 [label="Jitter:PPQ5 <= -0.1471\ngini = 0.410670634499\nsamples = 97", shape="box"] ;
571 -> 575 ;
576 [label="Shimmer <= -0.5593\ngini = 0.465373961219\nsamples = 19", shape="box"] ;
575 -> 576 ;
577 [label="Shimmer:APQ3 <= -0.9471\ngini = 0.21875\nsamples = 8", shape="box"] ;
576 -> 577 ;
578 [label="gini = 0.0000\nsamples = 1\nvalue = [ 0.  0.  0.  1.  0.]", shape="box"] ;
577 -> 578 ;
579 [label="gini = 0.0000\nsamples = 7\nvalue = [ 0.  0.  7.  0.  0.]", shape="box"] ;
577 -> 579 ;
580 [label="Jitter:PPQ5 <= -0.3500\ngini = 0.495867768595\nsamples = 11", shape="box"] ;
576 -> 580 ;
581 [label="gini = 0.0000\nsamples = 2\nvalue = [ 0.  0.  2.  0.  0.]", shape="box"] ;
580 -> 581 ;
582 [label="Jitter:PPQ5 <= -0.2225\ngini = 0.444444444444\nsamples = 9", shape="box"] ;
580 -> 582 ;
583 [label="gini = 0.0000\nsamples = 5\nvalue = [ 0.  0.  0.  5.  0.]", shape="box"] ;
582 -> 583 ;
584 [label="NHR <= -0.0724\ngini = 0.375\nsamples = 4", shape="box"] ;
582 -> 584 ;
585 [label="gini = 0.0000\nsamples = 3\nvalue = [ 0.  0.  3.  0.  0.]", shape="box"] ;
584 -> 585 ;
586 [label="gini = 0.0000\nsamples = 1\nvalue = [ 0.  0.  0.  1.  0.]", shape="box"] ;
584 -> 586 ;
587 [label="DFA <= 0.1117\ngini = 0.326101249178\nsamples = 78", shape="box"] ;
575 -> 587 ;
588 [label="gini = 0.0000\nsamples = 22\nvalue = [  0.   0.   0.  22.   0.]", shape="box"] ;
587 -> 588 ;
589 [label="PPE <= 1.2509\ngini = 0.408163265306\nsamples = 56", shape="box"] ;
587 -> 589 ;
590 [label="Shimmer:APQ11 <= 0.0406\ngini = 0.493827160494\nsamples = 27", shape="box"] ;
589 -> 590 ;
591 [label="PPE <= 1.0976\ngini = 0.345679012346\nsamples = 18", shape="box"] ;
590 -> 591 ;
592 [label="Shimmer(dB) <= -0.6947\ngini = 0.231111111111\nsamples = 15", shape="box"] ;
591 -> 592 ;
593 [label="gini = 0.0000\nsamples = 1\nvalue = [ 0.  0.  1.  0.  0.]", shape="box"] ;
592 -> 593 ;
594 [label="NHR <= -0.3215\ngini = 0.132653061224\nsamples = 14", shape="box"] ;
592 -> 594 ;
595 [label="Shimmer:APQ3 <= -0.4543\ngini = 0.444444444444\nsamples = 3", shape="box"] ;
594 -> 595 ;
596 [label="gini = 0.0000\nsamples = 2\nvalue = [ 0.  0.  0.  2.  0.]", shape="box"] ;
595 -> 596 ;
597 [label="gini = 0.0000\nsamples = 1\nvalue = [ 0.  0.  1.  0.  0.]", shape="box"] ;
595 -> 597 ;
598 [label="gini = 0.0000\nsamples = 11\nvalue = [  0.   0.   0.  11.   0.]", shape="box"] ;
594 -> 598 ;
599 [label="Shimmer:APQ11 <= -0.5458\ngini = 0.444444444444\nsamples = 3", shape="box"] ;
591 -> 599 ;
600 [label="gini = 0.0000\nsamples = 1\nvalue = [ 0.  0.  0.  1.  0.]", shape="box"] ;
599 -> 600 ;
601 [label="gini = 0.0000\nsamples = 2\nvalue = [ 0.  0.  2.  0.  0.]", shape="box"] ;
599 -> 601 ;
602 [label="DFA <= 0.3418\ngini = 0.197530864198\nsamples = 9", shape="box"] ;
590 -> 602 ;
603 [label="Shimmer(dB) <= 0.5765\ngini = 0.5\nsamples = 2", shape="box"] ;
602 -> 603 ;
604 [label="gini = 0.0000\nsamples = 1\nvalue = [ 0.  0.  1.  0.  0.]", shape="box"] ;
603 -> 604 ;
605 [label="gini = 0.0000\nsamples = 1\nvalue = [ 0.  0.  0.  1.  0.]", shape="box"] ;
603 -> 605 ;
606 [label="gini = 0.0000\nsamples = 7\nvalue = [ 0.  0.  7.  0.  0.]", shape="box"] ;
602 -> 606 ;
607 [label="RPDE <= 0.3861\ngini = 0.237812128419\nsamples = 29", shape="box"] ;
589 -> 607 ;
608 [label="Jitter(%) <= 1.2165\ngini = 0.444444444444\nsamples = 3", shape="box"] ;
607 -> 608 ;
609 [label="gini = 0.0000\nsamples = 2\nvalue = [ 0.  0.  2.  0.  0.]", shape="box"] ;
608 -> 609 ;
610 [label="gini = 0.0000\nsamples = 1\nvalue = [ 0.  0.  0.  1.  0.]", shape="box"] ;
608 -> 610 ;
611 [label="NHR <= 1.1604\ngini = 0.14201183432\nsamples = 26", shape="box"] ;
607 -> 611 ;
612 [label="gini = 0.0000\nsamples = 19\nvalue = [  0.   0.   0.  19.   0.]", shape="box"] ;
611 -> 612 ;
613 [label="RPDE <= 0.9345\ngini = 0.408163265306\nsamples = 7", shape="box"] ;
611 -> 613 ;
614 [label="RPDE <= 0.7846\ngini = 0.444444444444\nsamples = 3", shape="box"] ;
613 -> 614 ;
615 [label="gini = 0.0000\nsamples = 1\nvalue = [ 0.  0.  0.  1.  0.]", shape="box"] ;
614 -> 615 ;
616 [label="gini = 0.0000\nsamples = 2\nvalue = [ 0.  0.  2.  0.  0.]", shape="box"] ;
614 -> 616 ;
617 [label="gini = 0.0000\nsamples = 4\nvalue = [ 0.  0.  0.  4.  0.]", shape="box"] ;
613 -> 617 ;
618 [label="Jitter(Abs) <= 0.9842\ngini = 0.357777777778\nsamples = 30", shape="box"] ;
570 -> 618 ;
619 [label="NHR <= -0.1245\ngini = 0.18\nsamples = 20", shape="box"] ;
618 -> 619 ;
620 [label="Jitter(%) <= 0.2729\ngini = 0.408163265306\nsamples = 7", shape="box"] ;
619 -> 620 ;
621 [label="gini = 0.0000\nsamples = 5\nvalue = [ 0.  0.  5.  0.  0.]", shape="box"] ;
620 -> 621 ;
622 [label="gini = 0.0000\nsamples = 2\nvalue = [ 0.  0.  0.  2.  0.]", shape="box"] ;
620 -> 622 ;
623 [label="gini = 0.0000\nsamples = 13\nvalue = [  0.   0.  13.   0.   0.]", shape="box"] ;
619 -> 623 ;
624 [label="RPDE <= 1.4749\ngini = 0.5\nsamples = 10", shape="box"] ;
618 -> 624 ;
625 [label="gini = 0.0000\nsamples = 5\nvalue = [ 0.  0.  0.  5.  0.]", shape="box"] ;
624 -> 625 ;
626 [label="gini = 0.0000\nsamples = 5\nvalue = [ 0.  0.  5.  0.  0.]", shape="box"] ;
624 -> 626 ;
627 [label="HNR <= 0.4049\ngini = 0.0758310249307\nsamples = 152", shape="box"] ;
567 -> 627 ;
628 [label="RPDE <= -0.4895\ngini = 0.0644444444444\nsamples = 150", shape="box"] ;
627 -> 628 ;
629 [label="RPDE <= -0.5232\ngini = 0.122922437673\nsamples = 76", shape="box"] ;
628 -> 629 ;
630 [label="Jitter:RAP <= -0.2271\ngini = 0.100977777778\nsamples = 75", shape="box"] ;
629 -> 630 ;
631 [label="gini = 0.0000\nsamples = 41\nvalue = [  0.   0.   0.  41.   0.]", shape="box"] ;
630 -> 631 ;
632 [label="Jitter:RAP <= -0.2239\ngini = 0.207612456747\nsamples = 34", shape="box"] ;
630 -> 632 ;
633 [label="gini = 0.0000\nsamples = 1\nvalue = [ 0.  0.  0.  0.  1.]", shape="box"] ;
632 -> 633 ;
634 [label="DFA <= 1.6405\ngini = 0.165289256198\nsamples = 33", shape="box"] ;
632 -> 634 ;
635 [label="PPE <= 0.3387\ngini = 0.120707596254\nsamples = 31", shape="box"] ;
634 -> 635 ;
636 [label="PPE <= 0.3223\ngini = 0.297520661157\nsamples = 11", shape="box"] ;
635 -> 636 ;
637 [label="Jitter(%) <= -0.0495\ngini = 0.18\nsamples = 10", shape="box"] ;
636 -> 637 ;
638 [label="gini = 0.0000\nsamples = 8\nvalue = [ 0.  0.  0.  8.  0.]", shape="box"] ;
637 -> 638 ;
639 [label="Shimmer:APQ3 <= -0.1826\ngini = 0.5\nsamples = 2", shape="box"] ;
637 -> 639 ;
640 [label="gini = 0.0000\nsamples = 1\nvalue = [ 0.  0.  0.  1.  0.]", shape="box"] ;
639 -> 640 ;
641 [label="gini = 0.0000\nsamples = 1\nvalue = [ 0.  0.  0.  0.  1.]", shape="box"] ;
639 -> 641 ;
642 [label="gini = 0.0000\nsamples = 1\nvalue = [ 0.  0.  0.  0.  1.]", shape="box"] ;
636 -> 642 ;
643 [label="gini = 0.0000\nsamples = 20\nvalue = [  0.   0.   0.  20.   0.]", shape="box"] ;
635 -> 643 ;
644 [label="Shimmer:APQ5 <= 0.1658\ngini = 0.5\nsamples = 2", shape="box"] ;
634 -> 644 ;
645 [label="gini = 0.0000\nsamples = 1\nvalue = [ 0.  0.  0.  0.  1.]", shape="box"] ;
644 -> 645 ;
646 [label="gini = 0.0000\nsamples = 1\nvalue = [ 0.  0.  0.  1.  0.]", shape="box"] ;
644 -> 646 ;
647 [label="gini = 0.0000\nsamples = 1\nvalue = [ 0.  0.  0.  0.  1.]", shape="box"] ;
629 -> 647 ;
648 [label="gini = 0.0000\nsamples = 74\nvalue = [  0.   0.   0.  74.   0.]", shape="box"] ;
628 -> 648 ;
649 [label="Jitter:PPQ5 <= -0.2212\ngini = 0.5\nsamples = 2", shape="box"] ;
627 -> 649 ;
650 [label="gini = 0.0000\nsamples = 1\nvalue = [ 0.  0.  0.  1.  0.]", shape="box"] ;
649 -> 650 ;
651 [label="gini = 0.0000\nsamples = 1\nvalue = [ 0.  0.  0.  0.  1.]", shape="box"] ;
649 -> 651 ;
652 [label="sex <= 0.3975\ngini = 0.621445154107\nsamples = 1541", shape="box"] ;
566 -> 652 ;
653 [label="age <= 1.2111\ngini = 0.660619780518\nsamples = 1058", shape="box"] ;
652 -> 653 ;
654 [label="HNR <= 0.5648\ngini = 0.627986201519\nsamples = 778", shape="box"] ;
653 -> 654 ;
655 [label="age <= 0.8716\ngini = 0.61483072399\nsamples = 671", shape="box"] ;
654 -> 655 ;
656 [label="DFA <= -1.3630\ngini = 0.332580061983\nsamples = 176", shape="box"] ;
655 -> 656 ;
657 [label="DFA <= -1.7368\ngini = 0.197530864198\nsamples = 18", shape="box"] ;
656 -> 657 ;
658 [label="gini = 0.0000\nsamples = 1\nvalue = [ 0.  0.  0.  1.  0.]", shape="box"] ;
657 -> 658 ;
659 [label="PPE <= -0.7533\ngini = 0.110726643599\nsamples = 17", shape="box"] ;
657 -> 659 ;
660 [label="gini = 0.0000\nsamples = 1\nvalue = [ 0.  0.  0.  1.  0.]", shape="box"] ;
659 -> 660 ;
661 [label="gini = 0.0000\nsamples = 16\nvalue = [  0.   0.  16.   0.   0.]", shape="box"] ;
659 -> 661 ;
662 [label="Jitter(Abs) <= -0.3889\ngini = 0.197324146771\nsamples = 158", shape="box"] ;
656 -> 662 ;
663 [label="RPDE <= -0.4211\ngini = 0.408163265306\nsamples = 7", shape="box"] ;
662 -> 663 ;
664 [label="Shimmer:APQ11 <= 0.3792\ngini = 0.444444444444\nsamples = 3", shape="box"] ;
663 -> 664 ;
665 [label="gini = 0.0000\nsamples = 2\nvalue = [ 0.  0.  0.  2.  0.]", shape="box"] ;
664 -> 665 ;
666 [label="gini = 0.0000\nsamples = 1\nvalue = [ 0.  0.  1.  0.  0.]", shape="box"] ;
664 -> 666 ;
667 [label="gini = 0.0000\nsamples = 4\nvalue = [ 0.  0.  4.  0.  0.]", shape="box"] ;
663 -> 667 ;
668 [label="Jitter(Abs) <= -0.0313\ngini = 0.125783956844\nsamples = 151", shape="box"] ;
662 -> 668 ;
669 [label="Jitter:RAP <= -0.3456\ngini = 0.423875432526\nsamples = 34", shape="box"] ;
668 -> 669 ;
670 [label="gini = 0.0000\nsamples = 25\nvalue = [  0.  25.   0.   0.   0.]", shape="box"] ;
669 -> 670 ;
671 [label="Shimmer:APQ11 <= -0.2843\ngini = 0.493827160494\nsamples = 9", shape="box"] ;
669 -> 671 ;
672 [label="gini = 0.0000\nsamples = 3\nvalue = [ 0.  0.  3.  0.  0.]", shape="box"] ;
671 -> 672 ;
673 [label="Shimmer:APQ11 <= 0.3317\ngini = 0.444444444444\nsamples = 6", shape="box"] ;
671 -> 673 ;
674 [label="gini = 0.0000\nsamples = 4\nvalue = [ 0.  0.  0.  4.  0.]", shape="box"] ;
673 -> 674 ;
675 [label="gini = 0.0000\nsamples = 2\nvalue = [ 0.  0.  2.  0.  0.]", shape="box"] ;
673 -> 675 ;
676 [label="NHR <= 0.5417\ngini = 0.0169479143838\nsamples = 117", shape="box"] ;
668 -> 676 ;
677 [label="gini = 0.0000\nsamples = 113\nvalue = [   0.  113.    0.    0.    0.]", shape="box"] ;
676 -> 677 ;
678 [label="RPDE <= 0.4628\ngini = 0.375\nsamples = 4", shape="box"] ;
676 -> 678 ;
679 [label="gini = 0.0000\nsamples = 1\nvalue = [ 0.  0.  1.  0.  0.]", shape="box"] ;
678 -> 679 ;
680 [label="gini = 0.0000\nsamples = 3\nvalue = [ 0.  3.  0.  0.  0.]", shape="box"] ;
678 -> 680 ;
681 [label="age <= 0.9848\ngini = 0.625683093562\nsamples = 495", shape="box"] ;
655 -> 681 ;
682 [label="DFA <= 0.1983\ngini = 0.345679012346\nsamples = 117", shape="box"] ;
681 -> 682 ;
683 [label="RPDE <= 1.0339\ngini = 0.435909160189\nsamples = 81", shape="box"] ;
682 -> 683 ;
684 [label="PPE <= -0.3934\ngini = 0.498269896194\nsamples = 51", shape="box"] ;
683 -> 684 ;
685 [label="Jitter:DDP <= -0.4290\ngini = 0.32\nsamples = 15", shape="box"] ;
684 -> 685 ;
686 [label="gini = 0.0000\nsamples = 2\nvalue = [ 0.  0.  0.  2.  0.]", shape="box"] ;
685 -> 686 ;
687 [label="RPDE <= -1.2154\ngini = 0.14201183432\nsamples = 13", shape="box"] ;
685 -> 687 ;
688 [label="gini = 0.0000\nsamples = 1\nvalue = [ 0.  0.  0.  1.  0.]", shape="box"] ;
687 -> 688 ;
689 [label="gini = 0.0000\nsamples = 12\nvalue = [  0.   0.  12.   0.   0.]", shape="box"] ;
687 -> 689 ;
690 [label="Shimmer:APQ11 <= 0.8721\ngini = 0.486111111111\nsamples = 36", shape="box"] ;
684 -> 690 ;
691 [label="Shimmer:DDA <= 0.1486\ngini = 0.437044745057\nsamples = 31", shape="box"] ;
690 -> 691 ;
692 [label="NHR <= -0.1580\ngini = 0.32\nsamples = 5", shape="box"] ;
691 -> 692 ;
693 [label="gini = 0.0000\nsamples = 1\nvalue = [ 0.  0.  0.  1.  0.]", shape="box"] ;
692 -> 693 ;
694 [label="gini = 0.0000\nsamples = 4\nvalue = [ 0.  0.  4.  0.  0.]", shape="box"] ;
692 -> 694 ;
695 [label="Jitter(%) <= 0.2456\ngini = 0.355029585799\nsamples = 26", shape="box"] ;
691 -> 695 ;
696 [label="Shimmer <= 0.2912\ngini = 0.18836565097\nsamples = 19", shape="box"] ;
695 -> 696 ;
697 [label="Shimmer:APQ11 <= 0.1591\ngini = 0.444444444444\nsamples = 6", shape="box"] ;
696 -> 697 ;
698 [label="gini = 0.0000\nsamples = 4\nvalue = [ 0.  0.  0.  4.  0.]", shape="box"] ;
697 -> 698 ;
699 [label="gini = 0.0000\nsamples = 2\nvalue = [ 0.  0.  2.  0.  0.]", shape="box"] ;
697 -> 699 ;
700 [label="gini = 0.0000\nsamples = 13\nvalue = [  0.   0.   0.  13.   0.]", shape="box"] ;
696 -> 700 ;
701 [label="Jitter:PPQ5 <= 0.2381\ngini = 0.489795918367\nsamples = 7", shape="box"] ;
695 -> 701 ;
702 [label="gini = 0.0000\nsamples = 3\nvalue = [ 0.  0.  3.  0.  0.]", shape="box"] ;
701 -> 702 ;
703 [label="Jitter(Abs) <= 0.9292\ngini = 0.375\nsamples = 4", shape="box"] ;
701 -> 703 ;
704 [label="gini = 0.0000\nsamples = 3\nvalue = [ 0.  0.  0.  3.  0.]", shape="box"] ;
703 -> 704 ;
705 [label="gini = 0.0000\nsamples = 1\nvalue = [ 0.  0.  1.  0.  0.]", shape="box"] ;
703 -> 705 ;
706 [label="gini = 0.0000\nsamples = 5\nvalue = [ 0.  0.  5.  0.  0.]", shape="box"] ;
690 -> 706 ;
707 [label="Shimmer(dB) <= -0.0809\ngini = 0.124444444444\nsamples = 30", shape="box"] ;
683 -> 707 ;
708 [label="gini = 0.0000\nsamples = 1\nvalue = [ 0.  0.  0.  1.  0.]", shape="box"] ;
707 -> 708 ;
709 [label="Shimmer:APQ11 <= 1.0999\ngini = 0.0665873959572\nsamples = 29", shape="box"] ;
707 -> 709 ;
710 [label="gini = 0.0000\nsamples = 23\nvalue = [  0.   0.  23.   0.   0.]", shape="box"] ;
709 -> 710 ;
711 [label="Shimmer:APQ5 <= 0.8626\ngini = 0.277777777778\nsamples = 6", shape="box"] ;
709 -> 711 ;
712 [label="gini = 0.0000\nsamples = 1\nvalue = [ 0.  0.  0.  1.  0.]", shape="box"] ;
711 -> 712 ;
713 [label="gini = 0.0000\nsamples = 5\nvalue = [ 0.  0.  5.  0.  0.]", shape="box"] ;
711 -> 713 ;
714 [label="gini = 0.0000\nsamples = 36\nvalue = [  0.   0.  36.   0.   0.]", shape="box"] ;
682 -> 714 ;
715 [label="age <= 1.0979\ngini = 0.629867584894\nsamples = 378", shape="box"] ;
681 -> 715 ;
716 [label="DFA <= -0.9481\ngini = 0.272324674466\nsamples = 123", shape="box"] ;
715 -> 716 ;
717 [label="gini = 0.0000\nsamples = 4\nvalue = [ 4.  0.  0.  0.  0.]", shape="box"] ;
716 -> 717 ;
718 [label="NHR <= 0.0093\ngini = 0.232751924299\nsamples = 119", shape="box"] ;
716 -> 718 ;
719 [label="PPE <= -1.0072\ngini = 0.137174211248\nsamples = 81", shape="box"] ;
718 -> 719 ;
720 [label="Shimmer:APQ11 <= -0.1438\ngini = 0.489795918367\nsamples = 7", shape="box"] ;
719 -> 720 ;
721 [label="gini = 0.0000\nsamples = 3\nvalue = [ 3.  0.  0.  0.  0.]", shape="box"] ;
720 -> 721 ;
722 [label="gini = 0.0000\nsamples = 4\nvalue = [ 0.  4.  0.  0.  0.]", shape="box"] ;
720 -> 722 ;
723 [label="Jitter(Abs) <= -0.5228\ngini = 0.0777940102264\nsamples = 74", shape="box"] ;
719 -> 723 ;
724 [label="HNR <= -0.0240\ngini = 0.32\nsamples = 10", shape="box"] ;
723 -> 724 ;
725 [label="Jitter(%) <= -0.5744\ngini = 0.444444444444\nsamples = 3", shape="box"] ;
724 -> 725 ;
726 [label="gini = 0.0000\nsamples = 1\nvalue = [ 0.  1.  0.  0.  0.]", shape="box"] ;
725 -> 726 ;
727 [label="gini = 0.0000\nsamples = 2\nvalue = [ 2.  0.  0.  0.  0.]", shape="box"] ;
725 -> 727 ;
728 [label="gini = 0.0000\nsamples = 7\nvalue = [ 0.  7.  0.  0.  0.]", shape="box"] ;
724 -> 728 ;
729 [label="Jitter(%) <= -0.4236\ngini = 0.03076171875\nsamples = 64", shape="box"] ;
723 -> 729 ;
730 [label="Jitter:DDP <= -0.3413\ngini = 0.0997229916898\nsamples = 19", shape="box"] ;
729 -> 730 ;
731 [label="gini = 0.0000\nsamples = 18\nvalue = [  0.  18.   0.   0.   0.]", shape="box"] ;
730 -> 731 ;
732 [label="gini = 0.0000\nsamples = 1\nvalue = [ 1.  0.  0.  0.  0.]", shape="box"] ;
730 -> 732 ;
733 [label="gini = 0.0000\nsamples = 45\nvalue = [  0.  45.   0.   0.   0.]", shape="box"] ;
729 -> 733 ;
734 [label="PPE <= -0.1707\ngini = 0.387811634349\nsamples = 38", shape="box"] ;
718 -> 734 ;
735 [label="Jitter:PPQ5 <= -0.1005\ngini = 0.42\nsamples = 10", shape="box"] ;
734 -> 735 ;
736 [label="RPDE <= 1.6898\ngini = 0.21875\nsamples = 8", shape="box"] ;
735 -> 736 ;
737 [label="gini = 0.0000\nsamples = 7\nvalue = [ 7.  0.  0.  0.  0.]", shape="box"] ;
736 -> 737 ;
738 [label="gini = 0.0000\nsamples = 1\nvalue = [ 0.  1.  0.  0.  0.]", shape="box"] ;
736 -> 738 ;
739 [label="gini = 0.0000\nsamples = 2\nvalue = [ 0.  2.  0.  0.  0.]", shape="box"] ;
735 -> 739 ;
740 [label="Jitter(%) <= -0.3701\ngini = 0.191326530612\nsamples = 28", shape="box"] ;
734 -> 740 ;
741 [label="gini = 0.0000\nsamples = 1\nvalue = [ 1.  0.  0.  0.  0.]", shape="box"] ;
740 -> 741 ;
742 [label="RPDE <= 1.6722\ngini = 0.137174211248\nsamples = 27", shape="box"] ;
740 -> 742 ;
743 [label="Jitter(%) <= -0.2983\ngini = 0.0739644970414\nsamples = 26", shape="box"] ;
742 -> 743 ;
744 [label="PPE <= 0.0142\ngini = 0.444444444444\nsamples = 3", shape="box"] ;
743 -> 744 ;
745 [label="gini = 0.0000\nsamples = 2\nvalue = [ 0.  2.  0.  0.  0.]", shape="box"] ;
744 -> 745 ;
746 [label="gini = 0.0000\nsamples = 1\nvalue = [ 1.  0.  0.  0.  0.]", shape="box"] ;
744 -> 746 ;
747 [label="gini = 0.0000\nsamples = 23\nvalue = [  0.  23.   0.   0.   0.]", shape="box"] ;
743 -> 747 ;
748 [label="gini = 0.0000\nsamples = 1\nvalue = [ 1.  0.  0.  0.  0.]", shape="box"] ;
742 -> 748 ;
749 [label="DFA <= 0.8485\ngini = 0.555570934256\nsamples = 255", shape="box"] ;
715 -> 749 ;
750 [label="DFA <= -0.3359\ngini = 0.400181077411\nsamples = 141", shape="box"] ;
749 -> 750 ;
751 [label="Shimmer:APQ5 <= -0.3186\ngini = 0.16262755102\nsamples = 56", shape="box"] ;
750 -> 751 ;
752 [label="Shimmer(dB) <= -0.4675\ngini = 0.48\nsamples = 5", shape="box"] ;
751 -> 752 ;
753 [label="gini = 0.0000\nsamples = 2\nvalue = [ 0.  0.  2.  0.  0.]", shape="box"] ;
752 -> 753 ;
754 [label="gini = 0.0000\nsamples = 3\nvalue = [ 0.  0.  0.  3.  0.]", shape="box"] ;
752 -> 754 ;
755 [label="Jitter:PPQ5 <= -0.0197\ngini = 0.0753556324491\nsamples = 51", shape="box"] ;
751 -> 755 ;
756 [label="gini = 0.0000\nsamples = 42\nvalue = [  0.   0.  42.   0.   0.]", shape="box"] ;
755 -> 756 ;
757 [label="Jitter:RAP <= -0.1151\ngini = 0.345679012346\nsamples = 9", shape="box"] ;
755 -> 757 ;
758 [label="gini = 0.0000\nsamples = 2\nvalue = [ 0.  0.  0.  2.  0.]", shape="box"] ;
757 -> 758 ;
759 [label="gini = 0.0000\nsamples = 7\nvalue = [ 0.  0.  7.  0.  0.]", shape="box"] ;
757 -> 759 ;
760 [label="RPDE <= 1.2207\ngini = 0.48\nsamples = 85", shape="box"] ;
750 -> 760 ;
761 [label="PPE <= 0.9626\ngini = 0.490306040699\nsamples = 79", shape="box"] ;
760 -> 761 ;
762 [label="Jitter:PPQ5 <= 0.0091\ngini = 0.476625273923\nsamples = 74", shape="box"] ;
761 -> 762 ;
763 [label="Jitter(%) <= -0.0440\ngini = 0.495\nsamples = 60", shape="box"] ;
762 -> 763 ;
764 [label="Shimmer:APQ11 <= 0.0544\ngini = 0.46375739645\nsamples = 52", shape="box"] ;
763 -> 764 ;
765 [label="gini = 0.4953\nsamples = 31\nvalue = [  0.   0.  14.  17.   0.]", shape="box"] ;
764 -> 765 ;
766 [label="gini = 0.1723\nsamples = 21\nvalue = [  0.   0.  19.   2.   0.]", shape="box"] ;
764 -> 766 ;
767 [label="gini = 0.0000\nsamples = 8\nvalue = [ 0.  0.  0.  8.  0.]", shape="box"] ;
763 -> 767 ;
768 [label="Jitter:RAP <= 0.2406\ngini = 0.244897959184\nsamples = 14", shape="box"] ;
762 -> 768 ;
769 [label="gini = 0.0000\nsamples = 11\nvalue = [  0.   0.  11.   0.   0.]", shape="box"] ;
768 -> 769 ;
770 [label="Jitter:DDP <= 0.3921\ngini = 0.444444444444\nsamples = 3", shape="box"] ;
768 -> 770 ;
771 [label="gini = 0.0000\nsamples = 2\nvalue = [ 0.  0.  0.  2.  0.]", shape="box"] ;
770 -> 771 ;
772 [label="gini = 0.0000\nsamples = 1\nvalue = [ 0.  0.  1.  0.  0.]", shape="box"] ;
770 -> 772 ;
773 [label="gini = 0.0000\nsamples = 5\nvalue = [ 0.  0.  0.  5.  0.]", shape="box"] ;
761 -> 773 ;
774 [label="gini = 0.0000\nsamples = 6\nvalue = [ 0.  0.  6.  0.  0.]", shape="box"] ;
760 -> 774 ;
775 [label="HNR <= -0.4214\ngini = 0.494459833795\nsamples = 114", shape="box"] ;
749 -> 775 ;
776 [label="HNR <= -1.6723\ngini = 0.49607434706\nsamples = 79", shape="box"] ;
775 -> 776 ;
777 [label="gini = 0.0000\nsamples = 7\nvalue = [ 0.  7.  0.  0.  0.]", shape="box"] ;
776 -> 777 ;
778 [label="Jitter:PPQ5 <= 0.3916\ngini = 0.481095679012\nsamples = 72", shape="box"] ;
776 -> 778 ;
779 [label="Shimmer:APQ11 <= 1.3126\ngini = 0.357777777778\nsamples = 30", shape="box"] ;
778 -> 779 ;
780 [label="DFA <= 1.4984\ngini = 0.0997229916898\nsamples = 19", shape="box"] ;
779 -> 780 ;
781 [label="Shimmer:APQ5 <= 0.3464\ngini = 0.5\nsamples = 2", shape="box"] ;
780 -> 781 ;
782 [label="gini = 0.0000\nsamples = 1\nvalue = [ 0.  0.  1.  0.  0.]", shape="box"] ;
781 -> 782 ;
783 [label="gini = 0.0000\nsamples = 1\nvalue = [ 0.  1.  0.  0.  0.]", shape="box"] ;
781 -> 783 ;
784 [label="gini = 0.0000\nsamples = 17\nvalue = [  0.   0.  17.   0.   0.]", shape="box"] ;
780 -> 784 ;
785 [label="Shimmer:DDA <= 0.4071\ngini = 0.495867768595\nsamples = 11", shape="box"] ;
779 -> 785 ;
786 [label="PPE <= 0.8784\ngini = 0.375\nsamples = 8", shape="box"] ;
785 -> 786 ;
787 [label="gini = 0.4444\nsamples = 3\nvalue = [ 0.  1.  2.  0.  0.]", shape="box"] ;
786 -> 787 ;
788 [label="gini = 0.0000\nsamples = 5\nvalue = [ 0.  5.  0.  0.  0.]", shape="box"] ;
786 -> 788 ;
789 [label="gini = 0.0000\nsamples = 3\nvalue = [ 0.  0.  3.  0.  0.]", shape="box"] ;
785 -> 789 ;
790 [label="Shimmer(dB) <= 1.9002\ngini = 0.498866213152\nsamples = 42", shape="box"] ;
778 -> 790 ;
791 [label="DFA <= 2.1564\ngini = 0.475308641975\nsamples = 36", shape="box"] ;
790 -> 791 ;
792 [label="Shimmer:APQ5 <= 0.9917\ngini = 0.417009602195\nsamples = 27", shape="box"] ;
791 -> 792 ;
793 [label="gini = 0.4800\nsamples = 20\nvalue = [  0.  12.   8.   0.   0.]", shape="box"] ;
792 -> 793 ;
794 [label="gini = 0.0000\nsamples = 7\nvalue = [ 0.  7.  0.  0.  0.]", shape="box"] ;
792 -> 794 ;
795 [label="Jitter:RAP <= 0.9047\ngini = 0.444444444444\nsamples = 9", shape="box"] ;
791 -> 795 ;
796 [label="gini = 0.0000\nsamples = 5\nvalue = [ 0.  0.  5.  0.  0.]", shape="box"] ;
795 -> 796 ;
797 [label="gini = 0.3750\nsamples = 4\nvalue = [ 0.  3.  1.  0.  0.]", shape="box"] ;
795 -> 797 ;
798 [label="gini = 0.0000\nsamples = 6\nvalue = [ 0.  0.  6.  0.  0.]", shape="box"] ;
790 -> 798 ;
799 [label="DFA <= 1.6074\ngini = 0.352653061224\nsamples = 35", shape="box"] ;
775 -> 799 ;
800 [label="NHR <= -0.3725\ngini = 0.32\nsamples = 5", shape="box"] ;
799 -> 800 ;
801 [label="gini = 0.0000\nsamples = 1\nvalue = [ 0.  1.  0.  0.  0.]", shape="box"] ;
800 -> 801 ;
802 [label="gini = 0.0000\nsamples = 4\nvalue = [ 0.  0.  4.  0.  0.]", shape="box"] ;
800 -> 802 ;
803 [label="DFA <= 2.2808\ngini = 0.231111111111\nsamples = 30", shape="box"] ;
799 -> 803 ;
804 [label="Jitter:RAP <= 0.0035\ngini = 0.185493460166\nsamples = 29", shape="box"] ;
803 -> 804 ;
805 [label="gini = 0.0000\nsamples = 20\nvalue = [  0.  20.   0.   0.   0.]", shape="box"] ;
804 -> 805 ;
806 [label="HNR <= -0.2056\ngini = 0.444444444444\nsamples = 9", shape="box"] ;
804 -> 806 ;
807 [label="gini = 0.0000\nsamples = 5\nvalue = [ 0.  5.  0.  0.  0.]", shape="box"] ;
806 -> 807 ;
808 [label="Shimmer(dB) <= -0.0329\ngini = 0.375\nsamples = 4", shape="box"] ;
806 -> 808 ;
809 [label="gini = 0.0000\nsamples = 1\nvalue = [ 0.  1.  0.  0.  0.]", shape="box"] ;
808 -> 809 ;
810 [label="gini = 0.0000\nsamples = 3\nvalue = [ 0.  0.  3.  0.  0.]", shape="box"] ;
808 -> 810 ;
811 [label="gini = 0.0000\nsamples = 1\nvalue = [ 0.  0.  1.  0.  0.]", shape="box"] ;
803 -> 811 ;
812 [label="Shimmer:APQ3 <= -0.9604\ngini = 0.456983142633\nsamples = 107", shape="box"] ;
654 -> 812 ;
813 [label="gini = 0.0000\nsamples = 21\nvalue = [  0.   0.  21.   0.   0.]", shape="box"] ;
812 -> 813 ;
814 [label="NHR <= -0.4593\ngini = 0.508653326122\nsamples = 86", shape="box"] ;
812 -> 814 ;
815 [label="Shimmer:APQ11 <= -0.4681\ngini = 0.18\nsamples = 10", shape="box"] ;
814 -> 815 ;
816 [label="gini = 0.0000\nsamples = 8\nvalue = [ 0.  0.  0.  8.  0.]", shape="box"] ;
815 -> 816 ;
817 [label="Jitter(Abs) <= -0.7217\ngini = 0.5\nsamples = 2", shape="box"] ;
815 -> 817 ;
818 [label="gini = 0.0000\nsamples = 1\nvalue = [ 0.  0.  0.  1.  0.]", shape="box"] ;
817 -> 818 ;
819 [label="gini = 0.0000\nsamples = 1\nvalue = [ 0.  0.  1.  0.  0.]", shape="box"] ;
817 -> 819 ;
820 [label="Shimmer(dB) <= -0.5658\ngini = 0.474030470914\nsamples = 76", shape="box"] ;
814 -> 820 ;
821 [label="Jitter:PPQ5 <= -0.5982\ngini = 0.278876170656\nsamples = 31", shape="box"] ;
820 -> 821 ;
822 [label="gini = 0.0000\nsamples = 2\nvalue = [ 0.  0.  0.  2.  0.]", shape="box"] ;
821 -> 822 ;
823 [label="Shimmer:APQ3 <= -0.5280\ngini = 0.190249702735\nsamples = 29", shape="box"] ;
821 -> 823 ;
824 [label="NHR <= -0.4512\ngini = 0.132653061224\nsamples = 28", shape="box"] ;
823 -> 824 ;
825 [label="gini = 0.0000\nsamples = 1\nvalue = [ 0.  0.  0.  1.  0.]", shape="box"] ;
824 -> 825 ;
826 [label="RPDE <= -0.1759\ngini = 0.0713305898491\nsamples = 27", shape="box"] ;
824 -> 826 ;
827 [label="gini = 0.0000\nsamples = 25\nvalue = [  0.   0.  25.   0.   0.]", shape="box"] ;
826 -> 827 ;
828 [label="HNR <= 0.6840\ngini = 0.5\nsamples = 2", shape="box"] ;
826 -> 828 ;
829 [label="gini = 0.0000\nsamples = 1\nvalue = [ 0.  0.  1.  0.  0.]", shape="box"] ;
828 -> 829 ;
830 [label="gini = 0.0000\nsamples = 1\nvalue = [ 0.  0.  0.  1.  0.]", shape="box"] ;
828 -> 830 ;
831 [label="gini = 0.0000\nsamples = 1\nvalue = [ 0.  1.  0.  0.  0.]", shape="box"] ;
823 -> 831 ;
832 [label="Shimmer:APQ5 <= -0.2721\ngini = 0.535308641975\nsamples = 45", shape="box"] ;
820 -> 832 ;
833 [label="Jitter:PPQ5 <= -0.1869\ngini = 0.542040816327\nsamples = 35", shape="box"] ;
832 -> 833 ;
834 [label="Shimmer(dB) <= -0.3671\ngini = 0.473246135553\nsamples = 29", shape="box"] ;
833 -> 834 ;
835 [label="Shimmer:APQ5 <= -0.5581\ngini = 0.548476454294\nsamples = 19", shape="box"] ;
834 -> 835 ;
836 [label="RPDE <= -1.2236\ngini = 0.244897959184\nsamples = 7", shape="box"] ;
835 -> 836 ;
837 [label="gini = 0.0000\nsamples = 1\nvalue = [ 0.  0.  1.  0.  0.]", shape="box"] ;
836 -> 837 ;
838 [label="gini = 0.0000\nsamples = 6\nvalue = [ 0.  0.  0.  6.  0.]", shape="box"] ;
836 -> 838 ;
839 [label="Shimmer:DDA <= -0.6176\ngini = 0.486111111111\nsamples = 12", shape="box"] ;
835 -> 839 ;
840 [label="gini = 0.0000\nsamples = 1\nvalue = [ 0.  1.  0.  0.  0.]", shape="box"] ;
839 -> 840 ;
841 [label="Jitter:PPQ5 <= -0.3925\ngini = 0.396694214876\nsamples = 11", shape="box"] ;
839 -> 841 ;
842 [label="Jitter:DDP <= -0.4247\ngini = 0.5\nsamples = 6", shape="box"] ;
841 -> 842 ;
843 [label="gini = 0.3750\nsamples = 4\nvalue = [ 0.  0.  3.  1.  0.]", shape="box"] ;
842 -> 843 ;
844 [label="gini = 0.0000\nsamples = 2\nvalue = [ 0.  0.  0.  2.  0.]", shape="box"] ;
842 -> 844 ;
845 [label="gini = 0.0000\nsamples = 5\nvalue = [ 0.  0.  5.  0.  0.]", shape="box"] ;
841 -> 845 ;
846 [label="gini = 0.0000\nsamples = 10\nvalue = [  0.   0.   0.  10.   0.]", shape="box"] ;
834 -> 846 ;
847 [label="NHR <= -0.3314\ngini = 0.277777777778\nsamples = 6", shape="box"] ;
833 -> 847 ;
848 [label="gini = 0.0000\nsamples = 1\nvalue = [ 0.  1.  0.  0.  0.]", shape="box"] ;
847 -> 848 ;
849 [label="gini = 0.0000\nsamples = 5\nvalue = [ 0.  0.  5.  0.  0.]", shape="box"] ;
847 -> 849 ;
850 [label="gini = 0.0000\nsamples = 10\nvalue = [  0.   0.  10.   0.   0.]", shape="box"] ;
832 -> 850 ;
851 [label="age <= 1.3808\ngini = 0.628852040816\nsamples = 280", shape="box"] ;
653 -> 851 ;
852 [label="gini = 0.0000\nsamples = 132\nvalue = [   0.    0.    0.  132.    0.]", shape="box"] ;
851 -> 852 ;
853 [label="RPDE <= -0.6087\ngini = 0.46703798393\nsamples = 148", shape="box"] ;
851 -> 853 ;
854 [label="DFA <= 0.2318\ngini = 0.342278100957\nsamples = 73", shape="box"] ;
853 -> 854 ;
855 [label="DFA <= -0.9426\ngini = 0.274448652261\nsamples = 67", shape="box"] ;
854 -> 855 ;
856 [label="gini = 0.0000\nsamples = 1\nvalue = [ 0.  1.  0.  0.  0.]", shape="box"] ;
855 -> 856 ;
857 [label="Jitter:PPQ5 <= -0.5214\ngini = 0.257116620753\nsamples = 66", shape="box"] ;
855 -> 857 ;
858 [label="gini = 0.0000\nsamples = 18\nvalue = [  0.   0.  18.   0.   0.]", shape="box"] ;
857 -> 858 ;
859 [label="HNR <= 0.8187\ngini = 0.329861111111\nsamples = 48", shape="box"] ;
857 -> 859 ;
860 [label="NHR <= -0.4503\ngini = 0.244897959184\nsamples = 42", shape="box"] ;
859 -> 860 ;
861 [label="gini = 0.0000\nsamples = 1\nvalue = [ 0.  1.  0.  0.  0.]", shape="box"] ;
860 -> 861 ;
862 [label="PPE <= -0.0547\ngini = 0.214158239143\nsamples = 41", shape="box"] ;
860 -> 862 ;
863 [label="HNR <= 0.7509\ngini = 0.0768\nsamples = 25", shape="box"] ;
862 -> 863 ;
864 [label="gini = 0.0000\nsamples = 22\nvalue = [  0.   0.  22.   0.   0.]", shape="box"] ;
863 -> 864 ;
865 [label="RPDE <= -1.1519\ngini = 0.444444444444\nsamples = 3", shape="box"] ;
863 -> 865 ;
866 [label="gini = 0.0000\nsamples = 1\nvalue = [ 0.  1.  0.  0.  0.]", shape="box"] ;
865 -> 866 ;
867 [label="gini = 0.0000\nsamples = 2\nvalue = [ 0.  0.  2.  0.  0.]", shape="box"] ;
865 -> 867 ;
868 [label="Jitter:RAP <= -0.3749\ngini = 0.375\nsamples = 16", shape="box"] ;
862 -> 868 ;
869 [label="HNR <= 0.3225\ngini = 0.375\nsamples = 4", shape="box"] ;
868 -> 869 ;
870 [label="gini = 0.0000\nsamples = 1\nvalue = [ 0.  0.  1.  0.  0.]", shape="box"] ;
869 -> 870 ;
871 [label="gini = 0.0000\nsamples = 3\nvalue = [ 0.  3.  0.  0.  0.]", shape="box"] ;
869 -> 871 ;
872 [label="RPDE <= -1.0912\ngini = 0.152777777778\nsamples = 12", shape="box"] ;
868 -> 872 ;
873 [label="Jitter(%) <= -0.2066\ngini = 0.444444444444\nsamples = 3", shape="box"] ;
872 -> 873 ;
874 [label="gini = 0.0000\nsamples = 1\nvalue = [ 0.  1.  0.  0.  0.]", shape="box"] ;
873 -> 874 ;
875 [label="gini = 0.0000\nsamples = 2\nvalue = [ 0.  0.  2.  0.  0.]", shape="box"] ;
873 -> 875 ;
876 [label="gini = 0.0000\nsamples = 9\nvalue = [ 0.  0.  9.  0.  0.]", shape="box"] ;
872 -> 876 ;
877 [label="Shimmer <= 0.1157\ngini = 0.444444444444\nsamples = 6", shape="box"] ;
859 -> 877 ;
878 [label="gini = 0.0000\nsamples = 4\nvalue = [ 0.  4.  0.  0.  0.]", shape="box"] ;
877 -> 878 ;
879 [label="gini = 0.0000\nsamples = 2\nvalue = [ 0.  0.  2.  0.  0.]", shape="box"] ;
877 -> 879 ;
880 [label="RPDE <= -1.3346\ngini = 0.277777777778\nsamples = 6", shape="box"] ;
854 -> 880 ;
881 [label="gini = 0.0000\nsamples = 1\nvalue = [ 0.  0.  1.  0.  0.]", shape="box"] ;
880 -> 881 ;
882 [label="gini = 0.0000\nsamples = 5\nvalue = [ 0.  5.  0.  0.  0.]", shape="box"] ;
880 -> 882 ;
883 [label="Shimmer:DDA <= -0.2991\ngini = 0.4992\nsamples = 75", shape="box"] ;
853 -> 883 ;
884 [label="NHR <= -0.1076\ngini = 0.408163265306\nsamples = 35", shape="box"] ;
883 -> 884 ;
885 [label="NHR <= -0.4138\ngini = 0.486111111111\nsamples = 24", shape="box"] ;
884 -> 885 ;
886 [label="gini = 0.0000\nsamples = 6\nvalue = [ 0.  6.  0.  0.  0.]", shape="box"] ;
885 -> 886 ;
887 [label="Jitter:PPQ5 <= -0.2280\ngini = 0.493827160494\nsamples = 18", shape="box"] ;
885 -> 887 ;
888 [label="Shimmer:APQ5 <= -0.3210\ngini = 0.444444444444\nsamples = 15", shape="box"] ;
887 -> 888 ;
889 [label="Shimmer <= -0.6614\ngini = 0.495867768595\nsamples = 11", shape="box"] ;
888 -> 889 ;
890 [label="gini = 0.0000\nsamples = 3\nvalue = [ 0.  0.  3.  0.  0.]", shape="box"] ;
889 -> 890 ;
891 [label="NHR <= -0.3164\ngini = 0.46875\nsamples = 8", shape="box"] ;
889 -> 891 ;
892 [label="gini = 0.0000\nsamples = 2\nvalue = [ 0.  0.  2.  0.  0.]", shape="box"] ;
891 -> 892 ;
893 [label="Shimmer:APQ11 <= 0.0268\ngini = 0.277777777778\nsamples = 6", shape="box"] ;
891 -> 893 ;
894 [label="gini = 0.0000\nsamples = 5\nvalue = [ 0.  5.  0.  0.  0.]", shape="box"] ;
893 -> 894 ;
895 [label="gini = 0.0000\nsamples = 1\nvalue = [ 0.  0.  1.  0.  0.]", shape="box"] ;
893 -> 895 ;
896 [label="gini = 0.0000\nsamples = 4\nvalue = [ 0.  0.  4.  0.  0.]", shape="box"] ;
888 -> 896 ;
897 [label="gini = 0.0000\nsamples = 3\nvalue = [ 0.  3.  0.  0.  0.]", shape="box"] ;
887 -> 897 ;
898 [label="gini = 0.0000\nsamples = 11\nvalue = [  0.  11.   0.   0.   0.]", shape="box"] ;
884 -> 898 ;
899 [label="Shimmer:APQ5 <= -0.0773\ngini = 0.455\nsamples = 40", shape="box"] ;
883 -> 899 ;
900 [label="gini = 0.0000\nsamples = 9\nvalue = [ 0.  0.  9.  0.  0.]", shape="box"] ;
899 -> 900 ;
901 [label="Jitter:DDP <= -0.4128\ngini = 0.495317377732\nsamples = 31", shape="box"] ;
899 -> 901 ;
902 [label="Jitter(Abs) <= -0.7284\ngini = 0.297520661157\nsamples = 11", shape="box"] ;
901 -> 902 ;
903 [label="Shimmer:APQ3 <= 0.5432\ngini = 0.444444444444\nsamples = 3", shape="box"] ;
902 -> 903 ;
904 [label="gini = 0.0000\nsamples = 2\nvalue = [ 0.  2.  0.  0.  0.]", shape="box"] ;
903 -> 904 ;
905 [label="gini = 0.0000\nsamples = 1\nvalue = [ 0.  0.  1.  0.  0.]", shape="box"] ;
903 -> 905 ;
906 [label="gini = 0.0000\nsamples = 8\nvalue = [ 0.  0.  8.  0.  0.]", shape="box"] ;
902 -> 906 ;
907 [label="HNR <= 0.1571\ngini = 0.48\nsamples = 20", shape="box"] ;
901 -> 907 ;
908 [label="Jitter:DDP <= -0.3451\ngini = 0.277777777778\nsamples = 6", shape="box"] ;
907 -> 908 ;
909 [label="gini = 0.0000\nsamples = 1\nvalue = [ 0.  1.  0.  0.  0.]", shape="box"] ;
908 -> 909 ;
910 [label="gini = 0.0000\nsamples = 5\nvalue = [ 0.  0.  5.  0.  0.]", shape="box"] ;
908 -> 910 ;
911 [label="RPDE <= -0.3752\ngini = 0.336734693878\nsamples = 14", shape="box"] ;
907 -> 911 ;
912 [label="Jitter:RAP <= -0.2856\ngini = 0.5\nsamples = 6", shape="box"] ;
911 -> 912 ;
913 [label="gini = 0.0000\nsamples = 3\nvalue = [ 0.  3.  0.  0.  0.]", shape="box"] ;
912 -> 913 ;
914 [label="gini = 0.0000\nsamples = 3\nvalue = [ 0.  0.  3.  0.  0.]", shape="box"] ;
912 -> 914 ;
915 [label="gini = 0.0000\nsamples = 8\nvalue = [ 0.  8.  0.  0.  0.]", shape="box"] ;
911 -> 915 ;
916 [label="DFA <= 0.5901\ngini = 0.353998688322\nsamples = 483", shape="box"] ;
652 -> 916 ;
917 [label="DFA <= -0.0843\ngini = 0.149649665446\nsamples = 356", shape="box"] ;
916 -> 917 ;
918 [label="age <= 1.6071\ngini = 0.0946796519801\nsamples = 281", shape="box"] ;
917 -> 918 ;
919 [label="Jitter(Abs) <= -0.7321\ngini = 0.151955463744\nsamples = 169", shape="box"] ;
918 -> 919 ;
920 [label="PPE <= -1.3132\ngini = 0.0302958579882\nsamples = 65", shape="box"] ;
919 -> 920 ;
921 [label="PPE <= -1.3425\ngini = 0.197530864198\nsamples = 9", shape="box"] ;
920 -> 921 ;
922 [label="gini = 0.0000\nsamples = 8\nvalue = [ 0.  8.  0.  0.  0.]", shape="box"] ;
921 -> 922 ;
923 [label="gini = 0.0000\nsamples = 1\nvalue = [ 0.  0.  1.  0.  0.]", shape="box"] ;
921 -> 923 ;
924 [label="gini = 0.0000\nsamples = 56\nvalue = [  0.  56.   0.   0.   0.]", shape="box"] ;
920 -> 924 ;
925 [label="HNR <= 0.6910\ngini = 0.21875\nsamples = 104", shape="box"] ;
919 -> 925 ;
926 [label="Shimmer:APQ5 <= -0.2265\ngini = 0.127066115702\nsamples = 88", shape="box"] ;
925 -> 926 ;
927 [label="gini = 0.0000\nsamples = 37\nvalue = [  0.  37.   0.   0.   0.]", shape="box"] ;
926 -> 927 ;
928 [label="Shimmer:APQ5 <= -0.2190\ngini = 0.207612456747\nsamples = 51", shape="box"] ;
926 -> 928 ;
929 [label="gini = 0.0000\nsamples = 1\nvalue = [ 0.  0.  1.  0.  0.]", shape="box"] ;
928 -> 929 ;
930 [label="Shimmer:APQ11 <= 0.5225\ngini = 0.18\nsamples = 50", shape="box"] ;
928 -> 930 ;
931 [label="Shimmer:APQ11 <= 0.4423\ngini = 0.285374554102\nsamples = 29", shape="box"] ;
930 -> 931 ;
932 [label="RPDE <= -0.3393\ngini = 0.197530864198\nsamples = 27", shape="box"] ;
931 -> 932 ;
933 [label="DFA <= -0.9581\ngini = 0.375\nsamples = 12", shape="box"] ;
932 -> 933 ;
934 [label="gini = 0.0000\nsamples = 7\nvalue = [ 0.  7.  0.  0.  0.]", shape="box"] ;
933 -> 934 ;
935 [label="RPDE <= -0.9800\ngini = 0.48\nsamples = 5", shape="box"] ;
933 -> 935 ;
936 [label="gini = 0.0000\nsamples = 2\nvalue = [ 0.  2.  0.  0.  0.]", shape="box"] ;
935 -> 936 ;
937 [label="gini = 0.0000\nsamples = 3\nvalue = [ 0.  0.  3.  0.  0.]", shape="box"] ;
935 -> 937 ;
938 [label="gini = 0.0000\nsamples = 15\nvalue = [  0.  15.   0.   0.   0.]", shape="box"] ;
932 -> 938 ;
939 [label="gini = 0.0000\nsamples = 2\nvalue = [ 0.  0.  2.  0.  0.]", shape="box"] ;
931 -> 939 ;
940 [label="gini = 0.0000\nsamples = 21\nvalue = [  0.  21.   0.   0.   0.]", shape="box"] ;
930 -> 940 ;
941 [label="Jitter:PPQ5 <= -0.3747\ngini = 0.4921875\nsamples = 16", shape="box"] ;
925 -> 941 ;
942 [label="Jitter:RAP <= -0.5210\ngini = 0.244897959184\nsamples = 7", shape="box"] ;
941 -> 942 ;
943 [label="gini = 0.0000\nsamples = 1\nvalue = [ 0.  1.  0.  0.  0.]", shape="box"] ;
942 -> 943 ;
944 [label="gini = 0.0000\nsamples = 6\nvalue = [ 0.  0.  6.  0.  0.]", shape="box"] ;
942 -> 944 ;
945 [label="RPDE <= -1.1282\ngini = 0.197530864198\nsamples = 9", shape="box"] ;
941 -> 945 ;
946 [label="gini = 0.0000\nsamples = 7\nvalue = [ 0.  7.  0.  0.  0.]", shape="box"] ;
945 -> 946 ;
947 [label="HNR <= 1.0698\ngini = 0.5\nsamples = 2", shape="box"] ;
945 -> 947 ;
948 [label="gini = 0.0000\nsamples = 1\nvalue = [ 0.  1.  0.  0.  0.]", shape="box"] ;
947 -> 948 ;
949 [label="gini = 0.0000\nsamples = 1\nvalue = [ 0.  0.  1.  0.  0.]", shape="box"] ;
947 -> 949 ;
950 [label="gini = 0.0000\nsamples = 112\nvalue = [   0.  112.    0.    0.    0.]", shape="box"] ;
918 -> 950 ;
951 [label="RPDE <= 1.0334\ngini = 0.32\nsamples = 75", shape="box"] ;
917 -> 951 ;
952 [label="DFA <= -0.0667\ngini = 0.213039485767\nsamples = 66", shape="box"] ;
951 -> 952 ;
953 [label="gini = 0.0000\nsamples = 2\nvalue = [ 0.  0.  2.  0.  0.]", shape="box"] ;
952 -> 953 ;
954 [label="Shimmer:APQ5 <= -0.5158\ngini = 0.169921875\nsamples = 64", shape="box"] ;
952 -> 954 ;
955 [label="DFA <= 0.0177\ngini = 0.444444444444\nsamples = 3", shape="box"] ;
954 -> 955 ;
956 [label="gini = 0.0000\nsamples = 1\nvalue = [ 0.  1.  0.  0.  0.]", shape="box"] ;
955 -> 956 ;
957 [label="gini = 0.0000\nsamples = 2\nvalue = [ 0.  0.  2.  0.  0.]", shape="box"] ;
955 -> 957 ;
958 [label="PPE <= -0.0284\ngini = 0.122547702231\nsamples = 61", shape="box"] ;
954 -> 958 ;
959 [label="gini = 0.0000\nsamples = 47\nvalue = [  0.  47.   0.   0.   0.]", shape="box"] ;
958 -> 959 ;
960 [label="DFA <= 0.2309\ngini = 0.408163265306\nsamples = 14", shape="box"] ;
958 -> 960 ;
961 [label="Shimmer <= 0.2134\ngini = 0.32\nsamples = 5", shape="box"] ;
960 -> 961 ;
962 [label="gini = 0.0000\nsamples = 4\nvalue = [ 0.  0.  4.  0.  0.]", shape="box"] ;
961 -> 962 ;
963 [label="gini = 0.0000\nsamples = 1\nvalue = [ 0.  1.  0.  0.  0.]", shape="box"] ;
961 -> 963 ;
964 [label="gini = 0.0000\nsamples = 9\nvalue = [ 0.  9.  0.  0.  0.]", shape="box"] ;
960 -> 964 ;
965 [label="Jitter(%) <= 0.1285\ngini = 0.345679012346\nsamples = 9", shape="box"] ;
951 -> 965 ;
966 [label="gini = 0.0000\nsamples = 6\nvalue = [ 0.  0.  6.  0.  0.]", shape="box"] ;
965 -> 966 ;
967 [label="NHR <= -0.1891\ngini = 0.444444444444\nsamples = 3", shape="box"] ;
965 -> 967 ;
968 [label="gini = 0.0000\nsamples = 1\nvalue = [ 0.  0.  1.  0.  0.]", shape="box"] ;
967 -> 968 ;
969 [label="gini = 0.0000\nsamples = 2\nvalue = [ 0.  2.  0.  0.  0.]", shape="box"] ;
967 -> 969 ;
970 [label="age <= 0.9848\ngini = 0.457560915122\nsamples = 127", shape="box"] ;
916 -> 970 ;
971 [label="gini = 0.0000\nsamples = 15\nvalue = [  0.  15.   0.   0.   0.]", shape="box"] ;
970 -> 971 ;
972 [label="Shimmer:APQ11 <= -0.0950\ngini = 0.392219387755\nsamples = 112", shape="box"] ;
970 -> 972 ;
973 [label="HNR <= -0.6081\ngini = 0.4723183391\nsamples = 68", shape="box"] ;
972 -> 973 ;
974 [label="Jitter:DDP <= 0.9193\ngini = 0.355029585799\nsamples = 13", shape="box"] ;
973 -> 974 ;
975 [label="gini = 0.0000\nsamples = 9\nvalue = [ 0.  9.  0.  0.  0.]", shape="box"] ;
974 -> 975 ;
976 [label="Jitter:PPQ5 <= 1.0003\ngini = 0.375\nsamples = 4", shape="box"] ;
974 -> 976 ;
977 [label="gini = 0.0000\nsamples = 3\nvalue = [ 0.  0.  3.  0.  0.]", shape="box"] ;
976 -> 977 ;
978 [label="gini = 0.0000\nsamples = 1\nvalue = [ 0.  1.  0.  0.  0.]", shape="box"] ;
976 -> 978 ;
979 [label="Shimmer:DDA <= -0.5700\ngini = 0.412561983471\nsamples = 55", shape="box"] ;
973 -> 979 ;
980 [label="Shimmer:APQ11 <= -0.3971\ngini = 0.277777777778\nsamples = 6", shape="box"] ;
979 -> 980 ;
981 [label="gini = 0.0000\nsamples = 5\nvalue = [ 0.  5.  0.  0.  0.]", shape="box"] ;
980 -> 981 ;
982 [label="gini = 0.0000\nsamples = 1\nvalue = [ 0.  0.  1.  0.  0.]", shape="box"] ;
980 -> 982 ;
983 [label="Shimmer:APQ5 <= -0.0923\ngini = 0.348188254894\nsamples = 49", shape="box"] ;
979 -> 983 ;
984 [label="PPE <= -0.7424\ngini = 0.287334593573\nsamples = 46", shape="box"] ;
983 -> 984 ;
985 [label="gini = 0.0000\nsamples = 2\nvalue = [ 0.  2.  0.  0.  0.]", shape="box"] ;
984 -> 985 ;
986 [label="Jitter(Abs) <= 0.0755\ngini = 0.235537190083\nsamples = 44", shape="box"] ;
984 -> 986 ;
987 [label="RPDE <= 1.4102\ngini = 0.110726643599\nsamples = 34", shape="box"] ;
986 -> 987 ;
988 [label="RPDE <= -0.2952\ngini = 0.060546875\nsamples = 32", shape="box"] ;
987 -> 988 ;
989 [label="Shimmer:APQ5 <= -0.4711\ngini = 0.444444444444\nsamples = 3", shape="box"] ;
988 -> 989 ;
990 [label="gini = 0.0000\nsamples = 1\nvalue = [ 0.  1.  0.  0.  0.]", shape="box"] ;
989 -> 990 ;
991 [label="gini = 0.0000\nsamples = 2\nvalue = [ 0.  0.  2.  0.  0.]", shape="box"] ;
989 -> 991 ;
992 [label="gini = 0.0000\nsamples = 29\nvalue = [  0.   0.  29.   0.   0.]", shape="box"] ;
988 -> 992 ;
993 [label="PPE <= 0.1309\ngini = 0.5\nsamples = 2", shape="box"] ;
987 -> 993 ;
994 [label="gini = 0.0000\nsamples = 1\nvalue = [ 0.  1.  0.  0.  0.]", shape="box"] ;
993 -> 994 ;
995 [label="gini = 0.0000\nsamples = 1\nvalue = [ 0.  0.  1.  0.  0.]", shape="box"] ;
993 -> 995 ;
996 [label="Shimmer:APQ11 <= -0.3175\ngini = 0.48\nsamples = 10", shape="box"] ;
986 -> 996 ;
997 [label="gini = 0.0000\nsamples = 5\nvalue = [ 0.  0.  5.  0.  0.]", shape="box"] ;
996 -> 997 ;
998 [label="PPE <= -0.0875\ngini = 0.32\nsamples = 5", shape="box"] ;
996 -> 998 ;
999 [label="gini = 0.0000\nsamples = 1\nvalue = [ 0.  0.  1.  0.  0.]", shape="box"] ;
998 -> 999 ;
1000 [label="gini = 0.0000\nsamples = 4\nvalue = [ 0.  4.  0.  0.  0.]", shape="box"] ;
998 -> 1000 ;
1001 [label="gini = 0.0000\nsamples = 3\nvalue = [ 0.  3.  0.  0.  0.]", shape="box"] ;
983 -> 1001 ;
1002 [label="NHR <= 0.6744\ngini = 0.165289256198\nsamples = 44", shape="box"] ;
972 -> 1002 ;
1003 [label="Jitter(Abs) <= -0.4347\ngini = 0.129799891833\nsamples = 43", shape="box"] ;
1002 -> 1003 ;
1004 [label="Jitter(%) <= -0.1839\ngini = 0.5\nsamples = 2", shape="box"] ;
1003 -> 1004 ;
1005 [label="gini = 0.0000\nsamples = 1\nvalue = [ 0.  0.  1.  0.  0.]", shape="box"] ;
1004 -> 1005 ;
1006 [label="gini = 0.0000\nsamples = 1\nvalue = [ 0.  1.  0.  0.  0.]", shape="box"] ;
1004 -> 1006 ;
1007 [label="Jitter(Abs) <= 1.4957\ngini = 0.0928019036288\nsamples = 41", shape="box"] ;
1003 -> 1007 ;
1008 [label="PPE <= 0.8063\ngini = 0.0512465373961\nsamples = 38", shape="box"] ;
1007 -> 1008 ;
1009 [label="gini = 0.0000\nsamples = 29\nvalue = [  0.   0.  29.   0.   0.]", shape="box"] ;
1008 -> 1009 ;
1010 [label="PPE <= 0.8672\ngini = 0.197530864198\nsamples = 9", shape="box"] ;
1008 -> 1010 ;
1011 [label="gini = 0.0000\nsamples = 1\nvalue = [ 0.  1.  0.  0.  0.]", shape="box"] ;
1010 -> 1011 ;
1012 [label="gini = 0.0000\nsamples = 8\nvalue = [ 0.  0.  8.  0.  0.]", shape="box"] ;
1010 -> 1012 ;
1013 [label="Shimmer(dB) <= 0.3210\ngini = 0.444444444444\nsamples = 3", shape="box"] ;
1007 -> 1013 ;
1014 [label="gini = 0.0000\nsamples = 1\nvalue = [ 0.  1.  0.  0.  0.]", shape="box"] ;
1013 -> 1014 ;
1015 [label="gini = 0.0000\nsamples = 2\nvalue = [ 0.  0.  2.  0.  0.]", shape="box"] ;
1013 -> 1015 ;
1016 [label="gini = 0.0000\nsamples = 1\nvalue = [ 0.  1.  0.  0.  0.]", shape="box"] ;
1002 -> 1016 ;
}