digraph Tree {
0 [label="HNR <= 1.1090\ngini = 0.751259259259\nsamples = 450", shape="box"] ;
1 [label="Shimmer:APQ11 <= 2.3600\ngini = 0.7370375\nsamples = 400", shape="box"] ;
0 -> 1 ;
2 [label="age <= -2.3777\ngini = 0.7413459268\nsamples = 385", shape="box"] ;
1 -> 2 ;
3 [label="Shimmer <= -0.4073\ngini = 0.21875\nsamples = 8", shape="box"] ;
2 -> 3 ;
4 [label="gini = 0.0000\nsamples = 7\nvalue = [ 7.  0.  0.  0.  0.]", shape="box"] ;
3 -> 4 ;
5 [label="gini = 0.0000\nsamples = 1\nvalue = [ 0.  1.  0.  0.  0.]", shape="box"] ;
3 -> 5 ;
6 [label="age <= -1.3353\ngini = 0.734318823041\nsamples = 377", shape="box"] ;
2 -> 6 ;
7 [label="PPE <= -0.5562\ngini = 0.392361111111\nsamples = 24", shape="box"] ;
6 -> 7 ;
8 [label="HNR <= 0.9383\ngini = 0.277777777778\nsamples = 6", shape="box"] ;
7 -> 8 ;
9 [label="gini = 0.0000\nsamples = 5\nvalue = [ 0.  0.  0.  5.  0.]", shape="box"] ;
8 -> 9 ;
10 [label="gini = 0.0000\nsamples = 1\nvalue = [ 0.  0.  1.  0.  0.]", shape="box"] ;
8 -> 10 ;
11 [label="Shimmer <= 1.0439\ngini = 0.104938271605\nsamples = 18", shape="box"] ;
7 -> 11 ;
12 [label="gini = 0.0000\nsamples = 15\nvalue = [  0.   0.  15.   0.   0.]", shape="box"] ;
11 -> 12 ;
13 [label="Shimmer <= 1.1706\ngini = 0.444444444444\nsamples = 3", shape="box"] ;
11 -> 13 ;
14 [label="gini = 0.0000\nsamples = 1\nvalue = [ 0.  1.  0.  0.  0.]", shape="box"] ;
13 -> 14 ;
15 [label="gini = 0.0000\nsamples = 2\nvalue = [ 0.  0.  2.  0.  0.]", shape="box"] ;
13 -> 15 ;
16 [label="age <= 1.4079\ngini = 0.736848863244\nsamples = 353", shape="box"] ;
6 -> 16 ;
17 [label="age <= -0.1831\ngini = 0.740939200488\nsamples = 329", shape="box"] ;
16 -> 17 ;
18 [label="age <= -0.6220\ngini = 0.683927864775\nsamples = 133", shape="box"] ;
17 -> 18 ;
19 [label="Jitter(Abs) <= -0.6137\ngini = 0.702160837603\nsamples = 67", shape="box"] ;
18 -> 19 ;
20 [label="DFA <= -0.2815\ngini = 0.778106508876\nsamples = 26", shape="box"] ;
19 -> 20 ;
21 [label="Shimmer:APQ5 <= -0.7044\ngini = 0.709141274238\nsamples = 19", shape="box"] ;
20 -> 21 ;
22 [label="gini = 0.0000\nsamples = 4\nvalue = [ 0.  0.  0.  4.  0.]", shape="box"] ;
21 -> 22 ;
23 [label="Shimmer:APQ11 <= -0.5361\ngini = 0.675555555556\nsamples = 15", shape="box"] ;
21 -> 23 ;
24 [label="age <= -0.8415\ngini = 0.545454545455\nsamples = 11", shape="box"] ;
23 -> 24 ;
25 [label="gini = 0.2188\nsamples = 8\nvalue = [ 0.  0.  0.  1.  7.]", shape="box"] ;
24 -> 25 ;
26 [label="gini = 0.4444\nsamples = 3\nvalue = [ 0.  1.  2.  0.  0.]", shape="box"] ;
24 -> 26 ;
27 [label="Jitter:PPQ5 <= -0.4869\ngini = 0.375\nsamples = 4", shape="box"] ;
23 -> 27 ;
28 [label="gini = 0.0000\nsamples = 3\nvalue = [ 0.  3.  0.  0.  0.]", shape="box"] ;
27 -> 28 ;
29 [label="gini = 0.0000\nsamples = 1\nvalue = [ 0.  0.  0.  1.  0.]", shape="box"] ;
27 -> 29 ;
30 [label="Jitter(Abs) <= -0.8788\ngini = 0.244897959184\nsamples = 7", shape="box"] ;
20 -> 30 ;
31 [label="gini = 0.0000\nsamples = 1\nvalue = [ 0.  1.  0.  0.  0.]", shape="box"] ;
30 -> 31 ;
32 [label="gini = 0.0000\nsamples = 6\nvalue = [ 6.  0.  0.  0.  0.]", shape="box"] ;
30 -> 32 ;
33 [label="HNR <= 0.1787\ngini = 0.516359309935\nsamples = 41", shape="box"] ;
19 -> 33 ;
34 [label="age <= -0.8415\ngini = 0.689342403628\nsamples = 21", shape="box"] ;
33 -> 34 ;
35 [label="Shimmer:DDA <= 0.3846\ngini = 0.592592592593\nsamples = 9", shape="box"] ;
34 -> 35 ;
36 [label="RPDE <= -0.2576\ngini = 0.408163265306\nsamples = 7", shape="box"] ;
35 -> 36 ;
37 [label="gini = 0.0000\nsamples = 2\nvalue = [ 0.  0.  0.  2.  0.]", shape="box"] ;
36 -> 37 ;
38 [label="gini = 0.0000\nsamples = 5\nvalue = [ 0.  0.  5.  0.  0.]", shape="box"] ;
36 -> 38 ;
39 [label="gini = 0.0000\nsamples = 2\nvalue = [ 0.  2.  0.  0.  0.]", shape="box"] ;
35 -> 39 ;
40 [label="HNR <= -1.1563\ngini = 0.541666666667\nsamples = 12", shape="box"] ;
34 -> 40 ;
41 [label="gini = 0.0000\nsamples = 2\nvalue = [ 2.  0.  0.  0.  0.]", shape="box"] ;
40 -> 41 ;
42 [label="DFA <= -0.9550\ngini = 0.46\nsamples = 10", shape="box"] ;
40 -> 42 ;
43 [label="gini = 0.0000\nsamples = 1\nvalue = [ 0.  0.  1.  0.  0.]", shape="box"] ;
42 -> 43 ;
44 [label="gini = 0.3457\nsamples = 9\nvalue = [ 2.  7.  0.  0.  0.]", shape="box"] ;
42 -> 44 ;
45 [label="HNR <= 0.9301\ngini = 0.18\nsamples = 20", shape="box"] ;
33 -> 45 ;
46 [label="Shimmer:APQ5 <= -0.6559\ngini = 0.0997229916898\nsamples = 19", shape="box"] ;
45 -> 46 ;
47 [label="Jitter(Abs) <= 0.1767\ngini = 0.5\nsamples = 2", shape="box"] ;
46 -> 47 ;
48 [label="gini = 0.0000\nsamples = 1\nvalue = [ 0.  1.  0.  0.  0.]", shape="box"] ;
47 -> 48 ;
49 [label="gini = 0.0000\nsamples = 1\nvalue = [ 0.  0.  1.  0.  0.]", shape="box"] ;
47 -> 49 ;
50 [label="gini = 0.0000\nsamples = 17\nvalue = [  0.  17.   0.   0.   0.]", shape="box"] ;
46 -> 50 ;
51 [label="gini = 0.0000\nsamples = 1\nvalue = [ 0.  0.  1.  0.  0.]", shape="box"] ;
45 -> 51 ;
52 [label="Shimmer(dB) <= -0.1540\ngini = 0.564279155188\nsamples = 66", shape="box"] ;
18 -> 52 ;
53 [label="DFA <= -0.9886\ngini = 0.480371900826\nsamples = 44", shape="box"] ;
52 -> 53 ;
54 [label="Jitter(%) <= -0.3893\ngini = 0.375\nsamples = 4", shape="box"] ;
53 -> 54 ;
55 [label="gini = 0.0000\nsamples = 3\nvalue = [ 0.  0.  0.  3.  0.]", shape="box"] ;
54 -> 55 ;
56 [label="gini = 0.0000\nsamples = 1\nvalue = [ 0.  1.  0.  0.  0.]", shape="box"] ;
54 -> 56 ;
57 [label="PPE <= -0.4236\ngini = 0.395\nsamples = 40", shape="box"] ;
53 -> 57 ;
58 [label="Jitter(Abs) <= -0.1276\ngini = 0.554016620499\nsamples = 19", shape="box"] ;
57 -> 58 ;
59 [label="Shimmer:APQ11 <= -0.3793\ngini = 0.456747404844\nsamples = 17", shape="box"] ;
58 -> 59 ;
60 [label="gini = 0.3911\nsamples = 15\nvalue = [  0.   4.  11.   0.   0.]", shape="box"] ;
59 -> 60 ;
61 [label="gini = 0.0000\nsamples = 2\nvalue = [ 0.  2.  0.  0.  0.]", shape="box"] ;
59 -> 61 ;
62 [label="gini = 0.0000\nsamples = 2\nvalue = [ 0.  0.  0.  2.  0.]", shape="box"] ;
58 -> 62 ;
63 [label="age <= -0.5123\ngini = 0.172335600907\nsamples = 21", shape="box"] ;
57 -> 63 ;
64 [label="gini = 0.0000\nsamples = 14\nvalue = [  0.   0.  14.   0.   0.]", shape="box"] ;
63 -> 64 ;
65 [label="HNR <= -0.0243\ngini = 0.408163265306\nsamples = 7", shape="box"] ;
63 -> 65 ;
66 [label="gini = 0.4444\nsamples = 3\nvalue = [ 0.  2.  1.  0.  0.]", shape="box"] ;
65 -> 66 ;
67 [label="gini = 0.0000\nsamples = 4\nvalue = [ 0.  0.  4.  0.  0.]", shape="box"] ;
65 -> 67 ;
68 [label="Jitter(Abs) <= 0.5473\ngini = 0.45867768595\nsamples = 22", shape="box"] ;
52 -> 68 ;
69 [label="DFA <= 1.5845\ngini = 0.124444444444\nsamples = 15", shape="box"] ;
68 -> 69 ;
70 [label="gini = 0.0000\nsamples = 14\nvalue = [  0.  14.   0.   0.   0.]", shape="box"] ;
69 -> 70 ;
71 [label="gini = 0.0000\nsamples = 1\nvalue = [ 1.  0.  0.  0.  0.]", shape="box"] ;
69 -> 71 ;
72 [label="RPDE <= 1.6158\ngini = 0.244897959184\nsamples = 7", shape="box"] ;
68 -> 72 ;
73 [label="gini = 0.0000\nsamples = 6\nvalue = [ 0.  0.  6.  0.  0.]", shape="box"] ;
72 -> 73 ;
74 [label="gini = 0.0000\nsamples = 1\nvalue = [ 0.  1.  0.  0.  0.]", shape="box"] ;
72 -> 74 ;
75 [label="sex <= 0.4307\ngini = 0.736307788421\nsamples = 196", shape="box"] ;
17 -> 75 ;
76 [label="DFA <= 0.6537\ngini = 0.727810650888\nsamples = 156", shape="box"] ;
75 -> 76 ;
77 [label="age <= 1.1336\ngini = 0.680077434559\nsamples = 109", shape="box"] ;
76 -> 77 ;
78 [label="age <= 0.2558\ngini = 0.69508650519\nsamples = 85", shape="box"] ;
77 -> 78 ;
79 [label="RPDE <= -0.5968\ngini = 0.56\nsamples = 35", shape="box"] ;
78 -> 79 ;
80 [label="Shimmer:APQ11 <= 0.0675\ngini = 0.71875\nsamples = 8", shape="box"] ;
79 -> 80 ;
81 [label="gini = 0.6531\nsamples = 7\nvalue = [ 3.  2.  0.  2.  0.]", shape="box"] ;
80 -> 81 ;
82 [label="gini = 0.0000\nsamples = 1\nvalue = [ 0.  0.  0.  0.  1.]", shape="box"] ;
80 -> 82 ;
83 [label="DFA <= 0.0230\ngini = 0.422496570645\nsamples = 27", shape="box"] ;
79 -> 83 ;
84 [label="gini = 0.2650\nsamples = 20\nvalue = [  0.   2.   1.  17.   0.]", shape="box"] ;
83 -> 84 ;
85 [label="gini = 0.6531\nsamples = 7\nvalue = [ 0.  2.  0.  3.  2.]", shape="box"] ;
83 -> 85 ;
86 [label="age <= 0.3655\ngini = 0.6872\nsamples = 50", shape="box"] ;
78 -> 86 ;
87 [label="DFA <= -0.6757\ngini = 0.46\nsamples = 10", shape="box"] ;
86 -> 87 ;
88 [label="gini = 0.4444\nsamples = 3\nvalue = [ 0.  2.  1.  0.  0.]", shape="box"] ;
87 -> 88 ;
89 [label="gini = 0.2449\nsamples = 7\nvalue = [ 1.  0.  6.  0.  0.]", shape="box"] ;
87 -> 89 ;
90 [label="RPDE <= -0.1027\ngini = 0.63125\nsamples = 40", shape="box"] ;
86 -> 90 ;
91 [label="gini = 0.6391\nsamples = 13\nvalue = [ 0.  2.  2.  7.  2.]", shape="box"] ;
90 -> 91 ;
92 [label="gini = 0.4993\nsamples = 27\nvalue = [  1.  18.   2.   6.   0.]", shape="box"] ;
90 -> 92 ;
93 [label="age <= 1.2433\ngini = 0.413194444444\nsamples = 24", shape="box"] ;
77 -> 93 ;
94 [label="gini = 0.0000\nsamples = 14\nvalue = [  0.   0.   0.  14.   0.]", shape="box"] ;
93 -> 94 ;
95 [label="HNR <= -0.5271\ngini = 0.42\nsamples = 10", shape="box"] ;
93 -> 95 ;
96 [label="gini = 0.0000\nsamples = 3\nvalue = [ 0.  0.  0.  3.  0.]", shape="box"] ;
95 -> 96 ;
97 [label="gini = 0.0000\nsamples = 7\nvalue = [ 0.  0.  0.  0.  7.]", shape="box"] ;
95 -> 97 ;
98 [label="age <= 0.5850\ngini = 0.620190131281\nsamples = 47", shape="box"] ;
76 -> 98 ;
99 [label="HNR <= -1.8411\ngini = 0.37037037037\nsamples = 27", shape="box"] ;
98 -> 99 ;
100 [label="gini = 0.0000\nsamples = 1\nvalue = [ 0.  0.  0.  1.  0.]", shape="box"] ;
99 -> 100 ;
101 [label="Jitter(Abs) <= 0.5487\ngini = 0.322485207101\nsamples = 26", shape="box"] ;
99 -> 101 ;
102 [label="NHR <= -0.2924\ngini = 0.520710059172\nsamples = 13", shape="box"] ;
101 -> 102 ;
103 [label="gini = 0.2188\nsamples = 8\nvalue = [ 1.  7.  0.  0.  0.]", shape="box"] ;
102 -> 103 ;
104 [label="gini = 0.5600\nsamples = 5\nvalue = [ 3.  1.  1.  0.  0.]", shape="box"] ;
102 -> 104 ;
105 [label="gini = 0.0000\nsamples = 13\nvalue = [  0.  13.   0.   0.   0.]", shape="box"] ;
101 -> 105 ;
106 [label="age <= 0.9690\ngini = 0.595\nsamples = 20", shape="box"] ;
98 -> 106 ;
107 [label="gini = 0.0000\nsamples = 11\nvalue = [  0.   0.   0.   0.  11.]", shape="box"] ;
106 -> 107 ;
108 [label="HNR <= -0.3096\ngini = 0.493827160494\nsamples = 9", shape="box"] ;
106 -> 108 ;
109 [label="NHR <= 0.0207\ngini = 0.444444444444\nsamples = 6", shape="box"] ;
108 -> 109 ;
110 [label="gini = 0.0000\nsamples = 4\nvalue = [ 0.  0.  4.  0.  0.]", shape="box"] ;
109 -> 110 ;
111 [label="gini = 0.0000\nsamples = 2\nvalue = [ 0.  2.  0.  0.  0.]", shape="box"] ;
109 -> 111 ;
112 [label="gini = 0.0000\nsamples = 3\nvalue = [ 0.  3.  0.  0.  0.]", shape="box"] ;
108 -> 112 ;
113 [label="DFA <= -0.2638\ngini = 0.61125\nsamples = 40", shape="box"] ;
75 -> 113 ;
114 [label="age <= 0.5850\ngini = 0.345679012346\nsamples = 18", shape="box"] ;
113 -> 114 ;
115 [label="gini = 0.0000\nsamples = 11\nvalue = [  0.   0.  11.   0.   0.]", shape="box"] ;
114 -> 115 ;
116 [label="RPDE <= -0.5867\ngini = 0.489795918367\nsamples = 7", shape="box"] ;
114 -> 116 ;
117 [label="NHR <= -0.3531\ngini = 0.375\nsamples = 4", shape="box"] ;
116 -> 117 ;
118 [label="gini = 0.0000\nsamples = 1\nvalue = [ 0.  1.  0.  0.  0.]", shape="box"] ;
117 -> 118 ;
119 [label="gini = 0.0000\nsamples = 3\nvalue = [ 0.  0.  3.  0.  0.]", shape="box"] ;
117 -> 119 ;
120 [label="gini = 0.0000\nsamples = 3\nvalue = [ 0.  3.  0.  0.  0.]", shape="box"] ;
116 -> 120 ;
121 [label="PPE <= -0.2749\ngini = 0.47520661157\nsamples = 22", shape="box"] ;
113 -> 121 ;
122 [label="Jitter:PPQ5 <= -0.2247\ngini = 0.48\nsamples = 5", shape="box"] ;
121 -> 122 ;
123 [label="gini = 0.0000\nsamples = 2\nvalue = [ 0.  2.  0.  0.  0.]", shape="box"] ;
122 -> 123 ;
124 [label="gini = 0.0000\nsamples = 3\nvalue = [ 0.  0.  3.  0.  0.]", shape="box"] ;
122 -> 124 ;
125 [label="Shimmer(dB) <= -0.5023\ngini = 0.207612456747\nsamples = 17", shape="box"] ;
121 -> 125 ;
126 [label="gini = 0.0000\nsamples = 1\nvalue = [ 0.  0.  1.  0.  0.]", shape="box"] ;
125 -> 126 ;
127 [label="Shimmer:DDA <= 1.2901\ngini = 0.1171875\nsamples = 16", shape="box"] ;
125 -> 127 ;
128 [label="gini = 0.0000\nsamples = 14\nvalue = [  0.   0.   0.  14.   0.]", shape="box"] ;
127 -> 128 ;
129 [label="Shimmer <= 1.5510\ngini = 0.5\nsamples = 2", shape="box"] ;
127 -> 129 ;
130 [label="gini = 0.0000\nsamples = 1\nvalue = [ 0.  0.  1.  0.  0.]", shape="box"] ;
129 -> 130 ;
131 [label="gini = 0.0000\nsamples = 1\nvalue = [ 0.  0.  0.  1.  0.]", shape="box"] ;
129 -> 131 ;
132 [label="age <= 1.9017\ngini = 0.413194444444\nsamples = 24", shape="box"] ;
16 -> 132 ;
133 [label="gini = 0.0000\nsamples = 12\nvalue = [  0.   0.  12.   0.   0.]", shape="box"] ;
132 -> 133 ;
134 [label="Shimmer <= -0.1181\ngini = 0.486111111111\nsamples = 12", shape="box"] ;
132 -> 134 ;
135 [label="HNR <= 0.2303\ngini = 0.408163265306\nsamples = 7", shape="box"] ;
134 -> 135 ;
136 [label="gini = 0.0000\nsamples = 4\nvalue = [ 0.  0.  4.  0.  0.]", shape="box"] ;
135 -> 136 ;
137 [label="Jitter:RAP <= -0.3790\ngini = 0.444444444444\nsamples = 3", shape="box"] ;
135 -> 137 ;
138 [label="gini = 0.0000\nsamples = 1\nvalue = [ 0.  0.  1.  0.  0.]", shape="box"] ;
137 -> 138 ;
139 [label="gini = 0.0000\nsamples = 2\nvalue = [ 0.  2.  0.  0.  0.]", shape="box"] ;
137 -> 139 ;
140 [label="gini = 0.0000\nsamples = 5\nvalue = [ 0.  5.  0.  0.  0.]", shape="box"] ;
134 -> 140 ;
141 [label="gini = 0.0000\nsamples = 15\nvalue = [  0.   0.  15.   0.   0.]", shape="box"] ;
1 -> 141 ;
142 [label="sex <= 0.4307\ngini = 0.6504\nsamples = 50", shape="box"] ;
0 -> 142 ;
143 [label="age <= 0.1461\ngini = 0.58875739645\nsamples = 26", shape="box"] ;
142 -> 143 ;
144 [label="PPE <= -1.0528\ngini = 0.519031141869\nsamples = 17", shape="box"] ;
143 -> 144 ;
145 [label="age <= -0.3477\ngini = 0.165289256198\nsamples = 11", shape="box"] ;
144 -> 145 ;
146 [label="Jitter(%) <= -0.7948\ngini = 0.5\nsamples = 2", shape="box"] ;
145 -> 146 ;
147 [label="gini = 0.0000\nsamples = 1\nvalue = [ 0.  0.  0.  1.  0.]", shape="box"] ;
146 -> 147 ;
148 [label="gini = 0.0000\nsamples = 1\nvalue = [ 0.  1.  0.  0.  0.]", shape="box"] ;
146 -> 148 ;
149 [label="gini = 0.0000\nsamples = 9\nvalue = [ 0.  9.  0.  0.  0.]", shape="box"] ;
145 -> 149 ;
150 [label="age <= -0.3477\ngini = 0.611111111111\nsamples = 6", shape="box"] ;
144 -> 150 ;
151 [label="PPE <= -0.5292\ngini = 0.444444444444\nsamples = 3", shape="box"] ;
150 -> 151 ;
152 [label="gini = 0.0000\nsamples = 2\nvalue = [ 0.  0.  0.  2.  0.]", shape="box"] ;
151 -> 152 ;
153 [label="gini = 0.0000\nsamples = 1\nvalue = [ 0.  1.  0.  0.  0.]", shape="box"] ;
151 -> 153 ;
154 [label="gini = 0.0000\nsamples = 3\nvalue = [ 3.  0.  0.  0.  0.]", shape="box"] ;
150 -> 154 ;
155 [label="Jitter(Abs) <= -0.3695\ngini = 0.345679012346\nsamples = 9", shape="box"] ;
143 -> 155 ;
156 [label="gini = 0.0000\nsamples = 7\nvalue = [ 0.  0.  0.  7.  0.]", shape="box"] ;
155 -> 156 ;
157 [label="gini = 0.0000\nsamples = 2\nvalue = [ 0.  2.  0.  0.  0.]", shape="box"] ;
155 -> 157 ;
158 [label="age <= -0.7318\ngini = 0.34375\nsamples = 24", shape="box"] ;
142 -> 158 ;
159 [label="Jitter:PPQ5 <= -0.4618\ngini = 0.0997229916898\nsamples = 19", shape="box"] ;
158 -> 159 ;
160 [label="gini = 0.0000\nsamples = 18\nvalue = [ 18.   0.   0.   0.   0.]", shape="box"] ;
159 -> 160 ;
161 [label="gini = 0.0000\nsamples = 1\nvalue = [ 0.  1.  0.  0.  0.]", shape="box"] ;
159 -> 161 ;
162 [label="Shimmer:DDA <= -1.0463\ngini = 0.56\nsamples = 5", shape="box"] ;
158 -> 162 ;
163 [label="gini = 0.0000\nsamples = 1\nvalue = [ 1.  0.  0.  0.  0.]", shape="box"] ;
162 -> 163 ;
164 [label="Shimmer:APQ11 <= -0.8920\ngini = 0.375\nsamples = 4", shape="box"] ;
162 -> 164 ;
165 [label="gini = 0.0000\nsamples = 3\nvalue = [ 0.  3.  0.  0.  0.]", shape="box"] ;
164 -> 165 ;
166 [label="gini = 0.0000\nsamples = 1\nvalue = [ 0.  0.  1.  0.  0.]", shape="box"] ;
164 -> 166 ;
}